0.00907216 0.00247423 0.0014433 0.00917526 0.00670103 0.00783505 0.00546392 0.00402062 0.00556701 0.000515464 0.000721649 0.00608247 0.00123377 0.00349785 0.00525773 0.0042268 0.0056701 0.00515464 0.0028866 0.00505155 0.00680412 0.00680412 0.00907216 0.00247423 0.00896907 0.000103093 0.00505155 0.00814433 0.00536082 0.00752577 0.00278351 0.00154639 0.00381443 0.0101031 0.00102147 0.00173164 0.0048458 0.00826933 0.00854734 0.00825938 0.00682515 0.00661048 0.0104955 0.00565648 0.00542838 0.0107769 0.0100865 0.00296699 0.0021497 0.00471378 0.00966481 0.00885616 0.00938144 0.00979381 0.00515464 0.000721649 0.00628866 0.00484536 0.000412371 0.00536759 0.00422913 0.0077431 0.00307525 0.0044991 0.000860268 0.00224926 0.00418392 0.0096447 0.00830731 0.00600407 0.00558816 0.00510156 0.0115553 0.00337871 0.00596476 0.00917437 0.0095257 0.00681518 0.00736139 0.00888967 0.00145054 0.00464331 0.00814433 0.00876289 0.00731959 0.00329897 0.0079369 0.0101216 0.000749473 0.00211559 0.000185991 0.001975 0.00309945 -0.000281247 0.00842769 0.00606097 0.00991497 0.0087271 0.00446473 0.0104056 0.0123144 0.0135137 0.0127469 0.00917987 0.00344936 0.00605842 0.00698282 0.00586901 0.00732886 0.000649004 0.00359826 0.00896907 0.00164948 0.0056701 0.00834624 0.00783415 0.00799391 0.004645 0.00236809 0.0025823 0.00359022 0.000732708 0.000739919 0.00974105 0.00507614 0.0092707 0.00541705 0.0155832 0.0161533 0.013906 0.0153983 0.0159199 0.0138938 0.0151865 0.0147033 0.00221902 0.00374502 0.000803917 0.0086172 0.00423249 0.00237113 0.000206186 0.00515434 0.00131054 0.00980312 0.00512148 -0.000184913 0.00675839 -0.000819506 0.00300565 -0.00279045 -0.000476503 -0.00391512 0.000471014 0.00385008 0.00179624 0.00439579 0.0041669 0.00772869 0.0200208 0.0224303 0.0146658 0.0180877 0.0126756 0.01408 0.00637692 0.00357679 0.000214515 0.01 0.00917554 0.00548756 0.000274199 0.00158883 0.00833029 0.00446243 0.00287954 0.00224537 0.00311507 -9.38278e-05 -0.00632311 -0.00806148 -0.00794789 -0.0118483 -0.0167683 -0.00659414 -0.00520954 -0.00361974 0.00413291 0.0176338 0.0178532 0.0200002 0.0146001 0.0192356 0.00978771 0.000294064 0.00440853 0.00525773 0.00517495 0.0031409 0.00375375 0.000432941 0.00394648 0.00302204 0.000702693 0.00288094 -0.00124065 -0.00523684 -0.00984817 -0.00984683 -0.0199557 -0.0219423 -0.0213146 -0.0220176 -0.0165658 0.00203046 0.00845221 0.0112141 0.00677233 0.0157163 0.0213421 0.0181819 -0.000872256 0.00711168 0.00348001 0.003307 0.00805917 0.00899573 0.00731344 0.00923694 0.00156774 0.00233205 0.00191672 -0.00162731 -0.00808674 -0.0106176 -0.0171418 -0.0165005 -0.0240201 -0.0232128 -0.016168 -0.0135866 -0.0083303 -0.00859623 0.00194843 0.0103295 0.00319633 0.0152432 0.00954122 0.000228538 -0.00279338 0.00297156 0.00380147 0.00948454 0.00267681 0.00957627 0.00740107 0.00192534 0.00201438 0.00191638 -0.000293059 -0.00174227 -0.00328369 -0.0116597 -0.00860398 -0.0138543 -0.0120547 -0.0069321 -0.00922559 -0.00508577 -0.0103839 -0.00134746 0.00454597 0.00927942 0.00352355 0.0161179 0.0136563 -0.000400732 0.00482749 0.00394321 0.00529623 0.00793814 0.00911706 0.00257099 0.00796427 0.00688651 0.000498668 0.00294469 0.000775544 -0.0037386 0.000530862 -0.00535658 -0.00737565 -0.00658574 0.00440981 0.00768473 -0.000442735 0.00400444 0.000177514 0.00557137 0.0128748 0.013329 0.00377849 0.0173129 0.0110312 0.00299369 0.000204731 0.00266153 0.00619092 0.00329897 0.0099986 0.00779127 0.00561928 0.000832087 0.00323925 -0.00517622 -0.00244213 0.000914849 -0.00409577 0.000345959 -0.0021843 8.4776e-05 0.0122567 0.00567791 0.00823624 -0.00357253 -0.00192601 -0.000109189 0.000396186 -0.00378181 0.00918053 0.0162259 0.00863426 0.00845399 0.0086885 0.00422368 0.00174543 0.0056701 0.00513398 0.00940418 0.00819397 0.00350591 0.00323379 0.00312171 0.000245964 0.00306287 0.000490367 0.00537929 0.0119037 0.0146402 0.00741682 0.0119879 -0.00286251 -0.00883009 -0.0151061 -0.00968101 -0.00881076 -0.00582587 0.00302634 0.00137754 0.00215976 0.0110636 0.00801224 0.000219827 0.00185181 0.00226804 0.0010548 0.000727788 0.00563226 0.00573948 0.00956905 0.00396949 -0.00335749 0.00768426 0.00162564 -0.000384025 -0.00444527 -0.00838155 -0.0013817 -0.00127149 -0.0140332 -0.0142816 -0.0216183 -0.0128368 -0.0046956 -0.00395306 -0.00442546 0.00363302 0.00146729 0.00429147 0.00557367 0.0031271 0.00938824 0.00649485 0.00973799 0.00947025 0.00564923 0.00813466 0.0135279 0.0109804 0.0105601 0.00846829 0.0104785 -0.00374668 -0.00269699 -0.0101406 -0.00956319 -0.00855685 -0.0140944 -0.0233803 -0.00582326 -0.00774124 -0.00584007 -0.0022927 0.00336847 0.00230459 0.00677669 0.000461007 0.00577852 0.00298604 0.00577298 0.00762887 0.00958816 0.00928079 0.00743694 0.00704693 0.0137622 0.013195 0.0119808 0.0128416 0.00509859 -0.00285518 -0.00956374 -0.00810406 -0.0072536 -0.0109929 -0.0144082 -0.0178077 -0.0146772 -7.61311e-05 0.00366541 0.00418416 -0.00408361 -0.00208469 0.00113242 0.00358518 0.00911228 0.00472471 0.00733808 0.000927835 0.000371562 0.0105909 0.00520489 0.0057576 0.0178115 0.00332081 0.0136182 0.00408407 0.00123123 -0.00665861 -0.0109802 -0.00697986 -0.00404579 -0.00619843 -0.0058727 -0.00776429 0.00840379 0.0118058 0.00184537 -0.00129441 -0.0012242 -0.00300109 0.00449115 0.00392044 0.00600122 0.00674153 0.00280727 0.00278351 0.00321354 0.00617341 0.00251927 0.00948548 0.0123911 0.0073618 0.0168673 0.000998237 -0.000540351 -0.00651555 -4.19064e-05 0.0038725 -0.00199766 -0.00185917 -0.00330144 -0.00571384 0.00600162 0.0121509 -0.00391973 -0.00447944 -0.000393853 0.00564027 0.00819939 0.00887232 0.00363797 0.00529323 0.00282501 0.00649485 0 0.010252 0.00970988 0.0106787 0.0117884 0.0140741 0.0146697 0.0141974 -0.00569422 0.00354652 -0.000773211 0.00896176 0.00710463 0.00335995 0.00682291 0.00375576 0.00615886 0.0121683 -0.000831793 -0.0083716 -0.0018798 -0.00208888 0.000455357 0.00508501 0.00513689 0.00197588 0.00546715 0.00896907 0.00682153 0.00530259 0.00100693 0.00880576 0.0137881 0.0133107 0.0103669 0.0141428 0.00382918 -0.00199544 -0.000575831 0.00255439 0.00805093 0.0107583 0.00436187 0.0020571 0.0039204 -0.000377312 -0.0029745 -0.00494777 -0.000145406 -0.00192958 -0.00167867 0.00368954 0.00253201 0.000647449 0.00865896 0.00690722 0.0030061 0.00164518 0.0108002 0.00892619 0.00733974 0.0111749 0.0113791 0.00215383 -0.00372599 -0.00221638 -0.00395007 0.00768983 -0.0004768 -0.00230086 -0.00483561 -0.00172472 -0.00013084 -0.00131646 0.000586982 0.00345053 0.00145694 0.00163321 0.00351051 -0.000110142 0.00253626 0.000627668 0.00896907 0.00164967 0.00639181 0.0040314 0.0110453 0.0128128 0.00556663 0.00864136 0.00185674 0.0054933 -0.00195433 -0.00727759 -0.00910509 -0.0090409 -0.0020616 0.000257963 -0.000147315 0.00343913 -0.000891635 -0.00729779 0.00476051 0.00348231 -0.000412189 0.00179088 0.0020246 0.000128177 0.000115158 0.00939023 0.00979381 0.00701049 0.00773202 0.00628394 0.00146242 0.00303823 0.00947325 0.0112289 0.0102762 0.0030655 0.000186913 -0.00527662 -0.00692997 0.00836175 0.0116545 0.00736843 -3.68757e-05 -0.0039941 -0.00220541 -0.0018581 0.00609294 0.00710801 0.00758486 0.00107325 0.000893828 0.00693301 -0.000269744 0.000429339 0.0101031 0.00773196 0 0.00370823 0.0014416 0.00785499 0.00678677 0.00930523 0.00611373 -4.6103e-05 0.0025109 -0.00245205 0.00388867 0.00320494 0.00758692 -0.00055234 0.00348687 -0.00199262 -0.00225678 -0.000326878 -0.00160051 0.00557441 0.00372617 0.0100121 0.0055649 0.000432859 1.18567e-07 0.00303667 0.00804124 0.00556701 0.00639175 0.00452563 0.00841063 0.00844862 0.00223684 0.0110324 0.0103658 -0.00153354 -0.000345962 0.00245019 -0.00361589 0.000600793 0.00213375 -0.00187806 0.00320989 0.00276144 0.00142399 0.00406941 0.00656577 0.0057829 0.000848417 0.00646451 0.00142034 0.00989053 0.00145628 0.000309278 0.00628866 0.00237113 0.00989691 0.000206348 0.00114263 0.0032145 0.00622583 0.00505651 0.00423907 0.00335585 0.00380735 0.00831352 0.00866793 -0.00151108 0.000553934 -0.00234922 2.4116e-06 0.00756287 0.0011949 0.00568735 0.00553992 0.00738437 -0.000184916 0.0029862 -0.000635513 0.000732209 0.0101031 0.00474227 0.00474227 0.00546392 0.00360825 0.00515464 0.00494795 0.000856724 0.00291323 0.00301049 0.00882869 0.0108079 0.00381466 0.00546899 0.0109785 -0.000387468 0.000884167 0.00414731 0.009038 0.00893489 0.00789156 0.00333606 0.00264018 0.000425962 0.000356648 0.00387203 0.00216907 0.00607305 0.0056701 0.0101031 0.0056701 0 0.00597938 0.00752577 0.000618557 0.00938144 0.0042268 0.00287962 0.00321474 0.00602432 0.00605894 0.00160907 0.00579566 0.00387801 0.00660966 0.00264483 0.00931121 0.00986489 0.0101461 0.000759013 0.00993615 0.00141464 0.000124357 0.00156072 0.000448828 0.00463918 0.00391753 0.00804124 0.000412371 0.00865979 0.0043299 0.00402062 0.00680412 0.00556701 0.00505155 0.0042268 0.00226804 0.00381443 0.00195876 0.00773196 0.00587629 0.000294562 0.000380156 0.000515464 0.00402062 0.00412371 0.00350515 0.00536082 0.000721649 0.0042268 0.00742268 0.00226804 0.00917526 0.00216495 0.00206186 0.00556701 0.00989691 0.00474227 0.00649485 0.00123711 0.00804124 0.00556701 0.00453608 0.00686982 0.000303492 0.00780048 0.00080106 0.00713212 0.00341435 0.00349892 0.0097443 0.00439956 0.00685389 0.0102242 0.00285475 0.00509134 0.00338967 0.00264378 0.00686306 0.00322647 0.00617263 0.00845361 0.00340206 0.00896907 0.000206186 0.00206186 0.00536082 0.00824742 0.00720929 0.00247175 0.00957612 0.00441581 0.00638835 -0.000482714 -0.00103929 0.0067821 0.00670989 0.00137292 0.00938303 0.00700093 0.00925719 0.0014442 0.00928337 0.00153973 0.00693957 0.00482508 0.00609963 0.00961543 0.00449332 0.00118232 0.00133433 0.00175258 0.0085567 0.0101031 0.00360825 0.0100009 0.0082267 0.00998479 0.00815022 0.00903612 0.00477678 0.00183892 -0.00162252 0.0075034 0.00150063 -9.46048e-05 0.000221082 0.00175138 0.00791048 0.00836656 0.00847513 0.00818668 -0.000454044 0.00167405 0.00617953 0.00874447 0.00734396 0.0090791 0.00577498 0.000622839 0.00268041 0.0028866 0.00247423 0.00670414 0.00144443 0.00747843 0.00223715 0.000249515 0.00532752 -0.000770737 0.00223049 0.00288534 0.00187312 0.00715107 0.000615194 0.0010161 0.000506425 -9.92422e-05 0.00170836 -0.00197892 0.00736262 0.000654784 0.00228468 0.0047077 0.00542989 0.00148438 0.00939077 0.00598373 0.00195831 0.00185567 0.00556701 0.00175404 0.0046066 0.00679828 0.00231234 0.00160546 0.00477887 0.00323128 0.00196353 0.00145488 0.00177407 -0.00242622 0.00206536 -0.00318511 -0.00487148 -0.00469849 -0.00269639 -0.00470265 0.00177549 0.000332842 -0.00200531 0.00101858 0.00648866 0.00731638 0.00775981 0.00336096 0.00412274 0.00298969 0.00154656 0.002534 0.00784907 0.00119568 0.00123557 0.0076231 -0.000458316 0.00106299 0.000933091 -0.00079203 -0.0037142 -0.00473123 -0.00201256 -1.02028e-06 3.99155e-05 -0.00282334 -0.00309365 -0.00966439 -0.00458191 -0.00414592 0.00454092 0.000683516 0.00287694 -0.000147431 0.00491458 0.00944013 0.00288641 0.00731959 0.00836138 0.00169988 0.00108133 0.00438611 0.00214804 0.000810715 0.00130935 0.00544072 -0.00396265 0.00119369 -0.00625703 0.00288237 -0.00296311 -0.00187772 -0.00666452 -0.000156063 -0.00911124 -0.00272566 0.000207555 0.00362441 0.0035402 -0.000528307 -0.00268781 0.00090712 0.00596485 0.00411468 0.00762761 0.0058556 0.00409059 0.0030718 0.00251032 0.0084449 -0.0010924 -0.000486579 -0.00454897 -0.00277817 -0.00329059 -0.00225169 -0.00679626 -0.0027076 -0.00318527 -0.00298905 -0.00150632 -0.00379418 -0.00493426 -0.0052426 -0.00481721 0.0036647 0.00610113 0.000908762 -0.000389637 0.000719216 0.00107849 0.000946181 0.00915447 0.00824742 0.00723046 0.00235112 0.00874059 0.00307171 -0.00128807 -0.0028551 -0.000884425 -0.00352775 -0.0073454 -0.00513068 0.00395218 0.00519152 -0.00217661 0.0027023 0.00448893 -0.00277237 -0.00413856 -0.00305346 -0.00494563 -0.000656268 -0.00432641 0.000723953 0.00168347 0.00243464 0.00739988 0.00558474 0.00174833 0.00103093 0.00474635 0.00792189 0.00988203 0.00200931 -0.00151975 0.00140703 0.00236899 0.000533185 -0.00178358 -0.000368539 0.00230182 0.00378895 0.000157653 0.00340667 0.00120579 0.00199026 -0.000447987 -0.00342766 -0.00115148 -0.00560261 -0.00321278 0.00537753 0.000824706 0.0064014 0.00227373 0.00157963 0.00142928 0.0102062 0.00194568 0.00162699 0.00119053 0.00882081 0.00786007 0.00650527 -0.00035797 -0.00288488 -0.00930203 -0.00919739 0.00221844 -0.00444107 -0.00341679 0.00626976 -0.00206157 -0.00533121 -0.00437979 0.00366145 0.00426185 0.000193566 -0.00152778 0.00401629 0.00116037 0.00319642 0.00866702 0.000313532 0.003596 0.00773196 0.00600308 0.00483553 0.00667297 0.00941304 0.000419014 0.00147679 -0.0015964 0.00119249 -0.00924224 -0.00398372 -0.00603015 0.00102879 0.00448752 0.00331595 -0.00275877 0.000317716 -0.00395658 -0.000597204 0.000828254 0.00420989 0.00454579 -0.000409947 -0.00268097 -0.00232491 0.00221602 0.00505844 0.00846442 0.00175258 0.00254933 0.00746985 9.15655e-05 0.00524225 0.0079047 0.00204665 -0.00502554 -0.00570222 -0.00413198 -0.00592419 -0.00588203 0.00198743 -0.000890427 0.000532052 -0.00315248 -0.00267044 0.00191654 -0.00639019 -0.00386741 0.00360077 0.00263785 0.004758 0.000773741 -0.000252817 0.00278338 0.00149164 0.00223455 0.00979381 0.000212043 0.00747516 0.0109375 0.00329205 -0.00132564 0.00524741 -0.00421683 0.000103416 -0.00401561 -0.00684095 0.00022317 0.000836841 0.00371082 -0.00116763 0.000809359 -0.00165807 0.000400182 -0.0049317 0.00370629 -0.00140952 0.00207104 0.00408529 -0.00296845 0.00069518 0.00836411 0.00359238 0.00278931 0.000412371 0.00362492 0.00669138 0.00357748 0.00330734 5.18006e-05 -0.00254683 0.00175073 -0.00134011 0.00310108 0.00237261 0.00161459 -4.48408e-05 0.000429525 -0.00402475 -0.00407373 0.00371904 0.00167864 0.00553767 0.00762241 -0.00102458 -0.00458028 -0.00397272 0.00329563 0.00209409 0.00763495 0.00414554 0.000450904 0.00948454 0.00228134 0.00561507 0.00160627 0.00955523 0.00888212 -0.00198692 3.17542e-05 -0.00480453 0.00149425 0.00259103 0.00664139 0.00574026 0.00211399 0.00473679 0.00661627 -0.0011659 0.0015975 -0.000779821 0.00618338 0.000217841 -0.00125152 0.00151626 -0.000916529 0.00832183 0.00528338 0.00256065 0.00816613 0.00969072 0.000724672 5.67369e-05 0.00843032 0.00909744 0.00143654 0.00546108 0.00411137 0.00308693 0.00609291 -0.00230419 0.00680205 0.00569829 0.000386791 0.00386535 -0.000708033 0.00257536 0.0047338 -0.00132651 0.00439 -0.00310604 0.00485864 0.00385593 0.00255905 0.00842513 0.0034567 0.0097218 0.00967809 0.0056701 0 0.0101397 0.00270716 0.00979412 0.00914464 -0.000469812 0.00306422 0.00267909 0.00343013 -0.004738 0.00277078 0.00222637 0.00365398 0.00564074 -0.0011537 0.0020916 0.00553274 -0.00247467 0.00370305 0.00548276 -0.00113057 0.0031136 -0.00124273 0.00251083 0.00927488 0.00063127 0.00694083 0.00298969 0.00986251 0.00784396 0.00361764 0.00550549 0.00871678 0.00315864 -0.00112372 0.0031065 -0.00301792 -0.00549569 -0.000808992 -0.000678638 -0.00419334 -0.000228652 -0.00302078 0.00113143 0.004112 0.000307523 -0.000549698 0.00357473 0.00679924 0.00635084 0.010329 0.00961896 0.00978007 0.008475 0.00422874 0.00608247 0.0052217 0.00963999 0.0106751 0.00805016 0.00379071 0.00563602 0.00279782 0.00229221 0.00128346 -0.00419056 0.00096393 -0.00891814 0.00089235 -0.000733567 -0.00965074 -0.00475604 -0.0047014 0.000597503 -0.000160737 0.00110364 0.00780956 0.00698691 0.0096528 0.00318425 0.00147986 0.00499715 0.0057732 0.00649462 0.00907209 0.00801506 0.0014881 0.00895746 0.00281048 -0.00307659 0.00426764 -0.00399661 -0.00586965 -0.00690575 -2.00389e-05 -0.00471162 -0.00157027 -0.00268696 -0.0109268 0.00141134 -0.00537357 -0.00260797 -0.00282505 0.00196269 0.0054429 0.00644407 0.00151716 0.00657547 0.00509516 0.00779712 0.00175258 0.00422658 -7.18795e-08 0.00959899 0.0103753 0.00168166 0.00304885 -0.00237032 -0.000578231 -0.00434914 -0.00388351 -0.00827084 -0.00912465 -0.00738333 -0.00375504 -0.0115013 -0.0028505 -0.00102417 -0.00372306 -0.00260793 -0.00173077 -0.000748763 0.00158604 0.00823628 0.00266582 0.00684642 0.00574062 0.0014893 0.000824742 0.00721649 0.00773196 0.00612233 0.00743947 0.00882915 0.000855421 -0.00123104 0.00232037 0.00401082 -0.00419333 -0.00309163 -0.000982692 -0.00559958 -0.00240563 -0.00350079 -0.00465274 0.00224456 0.000904134 0.000317898 -0.00167649 -0.000176208 0.000385299 0.00506597 0.00994406 0.00389327 0.00521807 0.000286792 0.00237113 0.00113402 0.00206186 0.00800846 0.0073816 0.0029517 0.00432757 0.00970292 0.00584014 0.00265817 0.0016252 -0.00249721 0.00191782 0.00347674 0.00188335 -0.00100369 -0.000650454 0.00192898 0.00282835 0.00672242 0.00409647 0.00665257 0.0011433 0.00374507 0.00374446 0.00930142 0.00899262 0.00412371 0.00412371 0 0.00752577 0.00938205 0.00410162 0.000579065 0.00042723 0.00463587 0.00119279 0.00128636 0.000702697 9.57925e-05 0.00140142 0.00908026 0.00128897 0.0024682 0.00635807 0.000549592 0.00280093 0.00260074 0.0055561 0.00571145 0.00368044 0.00516051 0.00236299 0.00976474 0.00391753 0.00546392 0.00360825 0.00896907 0.00154639 0.00938144 0.00412417 0.0102569 0.00449018 0.00158386 0.00920818 -0.000211243 0.00694063 0.00885481 0.00426206 0.00140713 0.00748188 0.00454835 0.0056725 0.0096961 0.000329168 0.00448786 0.00206545 0.00995313 0.00666961 0.000695409 0.00937922 0.00938856 0.00206186 0.00649485 0.0014433 0.0014433 0.00350515 0.00443299 0.00175258 0.00103093 0.00319588 0.000822229 0.00951521 0.00422082 0.00290211 0.00022476 0.00150168 0.00641083 0.00533141 0.00457921 0.0078 0.00632048 0.00907341 0.00923058 0.00500751 0.0071957 0.00808002 0.00511174 0.00400663 0.000618557 0.00907216 0.00206186 0 0.00319588 0.00216495 0.000618557 0.0042268 0.00690722 0.0043299 0.00845361 0.00371134 0.00876289 0.00865979 0.00824742 0.00690722 0.00855264 0.00792927 0.00845361 0.00360825 0.00278351 0.00721649 0.00876289 0.0102062 0.00309278 0.0043299 0.00969072 0.00680412 0.00948454 0.00721649 0.00278351 0.00556701 0.00391753 0.00494845 0.0028866 0.00154639 0.00793814 0.00917526 0.0100502 0.00518277 0.00430925 0.000333796 0.00798235 0.0101294 0.0027211 0.00651606 0.00344075 0.00296913 0.00776527 0.00709547 0.00358934 0.0053201 0.0100734 0.00325845 0.00100377 0.00596875 0.00752577 0.0043299 0.00134021 0.00412371 0.00474227 0.00927835 0.00195876 0.0061857 0.00364374 0.00476894 0.00813939 0.00841082 0.00466756 0.00713907 0.00463598 0.000589781 0.00155039 0.00759045 0.00812991 2.52358e-05 0.00138009 0.000290571 0.00536224 0.00474751 0.00120937 0.00563162 0.000541769 0.00889373 0.00483868 9.90893e-05 0.00690722 0.00278351 0.00804124 0.00845361 0.00990157 0.00163964 0.00208236 0.00911526 0.0067927 0.00257702 -0.000923441 0.00324192 -0.00133213 -0.00147903 0.000166533 -0.00454838 -0.00139018 0.00376013 -0.000455062 -0.00337823 0.00289154 0.000986537 0.000872081 5.04198e-05 -0.00121496 0.00135696 0.00928798 0.00940471 0.00104392 0.00783505 0.00278351 0.00783505 0.00166544 0.00577551 0.000563181 0.00213407 -0.00087082 0.00193702 -0.00138522 0.00271261 0.00335745 0.00502314 -0.00791459 0.000571913 -0.00777563 -0.00348608 -0.00909888 -0.00899025 -0.010777 -0.00109424 -0.0028001 -0.0011262 -0.00267887 0.000730724 0.00734675 0.00796981 0.00510348 0.00504183 0.00463918 0.000412371 0.0040197 0.000272966 0.00766795 0.00156548 0.000368224 0.00424245 -0.00225875 0.00464734 -0.00251148 -0.00641933 -0.0015512 -0.00650644 -0.0108877 -0.016302 -0.017624 -0.0169021 -0.0192245 -0.0216627 -0.00796278 -0.00273827 0.0035082 0.00197786 0.00783487 0.00919838 0.00617967 0.00596468 0.00268041 0.000618236 0.00189369 0.00575873 0.00735251 0.00128728 0.0079064 -0.00162585 0.000410654 -0.0114363 0.00140092 0.00130177 -0.00457707 -0.00480995 -0.0137582 -0.0185284 -0.00985351 -0.00418295 -0.00391314 -0.00975844 0.00439903 0.00389074 0.0110136 -0.00380488 0.00221226 0.00519433 0.0083066 0.00604678 0.00164948 0.00235435 0.0054107 0.00924454 -0.000945578 0.00767724 -0.00156243 -0.0016147 0.00142527 0.0021599 0.00328284 -0.00621218 -0.00604832 -0.0124241 -0.00690442 -0.00440195 0.00845868 0.00298161 0.00566008 0.00655244 0.0118658 0.0165222 0.0202976 0.0114506 0.00451125 0.00221569 0.0038827 0.00451714 0.0100206 0.00680199 0.00459316 0.00171505 -0.00211577 0.00245799 0.00271924 -0.00503957 -0.0049025 -0.00227779 -0.0063727 -0.00561837 0.00307725 -0.00503671 0.00334405 0.0122238 0.0141686 0.00581152 0.00981745 0.00621668 0.00135843 0.00231572 0.00684668 0.0138741 0.00944423 0.00477357 0.00727938 0.00173394 0.0057732 0.0101981 0.00877094 0.00446668 0.00176734 0.00522591 0.00152962 -0.00181313 -0.00423335 -0.00221453 -0.00311702 0.00540211 0.0132645 0.012693 0.00915551 0.00339455 0.00155985 -0.000343513 0.00131673 0.00464449 0.000660424 0.00509037 0.0106768 0.00642056 0.0111653 0.0102135 -0.000629077 0.00486322 0.00381443 0.00934751 0.00807125 0.00707602 0.00363472 -0.00173155 0.00352012 -0.00326039 -0.00522225 -5.78896e-05 0.0115696 0.0228696 0.012281 0.017647 0.00997636 0.0103331 0.0065482 -0.00405605 0.0166469 0.00726273 -0.00210715 0.00626876 0.00601641 0.00389576 0.00155342 0.0104752 0.00453391 0.00757046 0.00463918 0.00960331 0.00518225 0.00129059 0.00692196 -0.00469052 0.0025612 0.00611681 0.00320266 0.00709707 0.0119569 0.0171469 0.0182816 0.0163551 0.0104919 0.00934303 0.000525528 0.011902 0.00667003 0.014527 0.0078412 0.000932415 0.00192066 0.00604827 0.00281531 0.00457713 0.00837809 0.00228345 0.000309278 0.00774543 0.00730078 0.00659514 -0.00353813 0.000495452 -0.00452614 0.0153892 0.0120791 0.0102372 0.0122763 0.0132857 0.00871825 0.00533996 0.00119939 0.000768206 0.00692375 -0.000615058 0.0146337 0.0131219 0.00272282 -0.00171235 0.00917376 0.00768112 0.00919345 0.00698859 0.00153294 0.0015595 0.00474227 0.0025241 0.00215949 0.00650511 -0.00088122 0.00361519 0.00240367 0.0145264 0.0239701 0.0146329 0.0177546 0.00859833 -0.000444709 -0.0134945 -0.0124901 -0.00481709 -0.00228834 -0.00453303 -0.00644453 0.00810821 0.0117469 0.0046025 -0.00115159 -0.00216377 0.00428467 0.00155843 0.00907686 0.00328225 0.00824742 0.00329882 0.00503762 -0.000227422 0.0031794 0.00661241 0.000802379 0.00295033 0.0116368 0.0209675 0.0144678 0.00137329 -0.0105394 -0.0197784 -0.0184425 -0.0201824 -0.0146527 -0.00788616 -0.00665051 0.00406253 0.000897448 -0.0010658 0.000657744 0.0109981 0.00634999 -0.00175024 0.00235611 0.000616039 0.00659794 0.00853849 0.0055119 0.00694493 0.00182512 0.00305897 0.00323476 0.00867404 0.00615486 0.00578614 0.0037726 0.002494 -0.0133621 -0.0218146 -0.0269071 -0.0126548 -0.00628366 -0.00741597 0.000689862 0.00306064 0.00210609 0.00490249 0.00175535 0.00462484 0.00549037 0.00247422 0.00693439 0.00574429 0.00113402 0.00874076 0.00615617 0.00292378 0.00650152 0.000889912 0.00076414 -0.00102384 0.0100424 0.00289631 0.0042408 -0.00528422 -0.0111238 -0.0206749 -0.0118056 -0.0109187 -0.00583338 -0.0104109 -0.00336038 0.00440387 -0.000710521 -0.00304294 0.00559625 0.0023146 0.00168364 -0.00362177 0.00255931 0.00201154 0.000206186 0.0055633 0.00617642 -0.000629871 0.00355992 0.00576238 0.00809632 0.00303668 -0.00355453 0.00576959 0.003057 -0.00685808 -0.0218127 -0.00842123 -0.00528227 -0.00567454 -0.00583689 -0.00217543 0.0127245 0.00117221 9.2596e-05 0.00181702 0.00520715 0.00115175 -0.00140015 -0.00020221 0.00292485 0.00555905 0.0102062 0.00216495 0.00546733 0.00370903 0.00875369 0.00287105 0.00432288 -0.00357462 0.00275436 0.00296286 -0.00456303 -0.00405991 -0.0155852 -0.00605921 -0.00221785 -0.00296009 0.0023876 0.00186055 0.00322013 -0.00835108 -0.00656094 -0.000738171 -0.00145867 -0.000707159 0.00228801 0.00181874 0.00287444 0.00980332 0.00494845 0.00327927 0.00535362 0.000301485 -0.00348581 0.00969953 -0.00027519 -0.00909803 -0.005764 -0.00917265 -0.00912427 -0.0107289 0.00572281 0.00475792 0.00791587 0.00372008 0.000815711 0.00268305 -0.0017716 -0.00771464 -0.00364242 -0.00461108 -0.00583205 -0.00271327 -0.000622918 0.00729896 0.00358999 -2.69423e-06 0.00587629 0.00385723 0.00125622 0.00409521 -0.00222997 0.00369772 -0.00463026 -0.0116359 -0.0111165 -0.0108008 -0.00656154 0.00494108 -0.00108122 -0.000491364 -0.0114966 -0.00691851 -0.0101148 -0.00130421 -0.01587 -0.0124583 -0.0140744 -0.0136404 -0.000983247 -0.00316708 0.00599825 -0.000507486 0.00997408 0.00453608 0.00938082 0.00783485 0.00609235 0.00476256 0.000245018 0.0021277 -0.00508998 -0.00179275 -0.00368803 0.000482185 -0.00610492 0.004138 -0.00683224 -0.00974938 -0.0196348 -0.00812604 -0.0132472 -0.0130757 -0.0172206 -0.0142104 -0.0127304 -0.00695943 -0.00137979 0.00686394 0.0104381 0.000355601 0.00517999 0.000618557 0.0041231 0.00886578 0.00775457 -0.00181692 -0.000225337 0.000306312 0.00195693 0.0041422 0.00181331 -0.00334605 0.000284435 -0.00363632 -0.0069184 -0.00521203 -0.00263415 -0.00375326 -0.00341952 -0.00166445 -0.00440647 -0.00284992 -0.0016618 0.00126518 0.00311149 0.00450599 0.00527758 0.00544198 0.00089463 0.00247423 0.00268041 0.00505155 0.00177287 0.000652747 0.00587156 -0.00128453 0.00922123 -0.00342472 -0.00112885 0.00131795 0.00179731 -0.00905765 0.00177929 0.00315826 0.00368967 0.010444 0.00772026 -0.00126685 -0.00708543 0.00187521 0.000708361 0.000431372 -0.00211872 0.00767436 0.00628421 0.00513499 0.00312131 0.00731959 0.00886598 0.00989691 0.00507408 0.0051881 0.00407984 0.00854089 0.00446387 -0.00340701 0.00236876 0.000390031 0.00325858 0.00191571 0.0072263 0.0073355 0.00247024 0.000109818 0.00560309 -0.00542314 -0.00217278 0.00268009 0.00286679 0.000110894 0.00344838 0.00401407 0.0109531 0.000447255 0.00329897 0.00670103 0 0.00608247 0.00287403 0.00334568 0.00144679 0.00790929 0.00280419 -0.00293654 0.000627707 0.00185985 -0.000987015 0.00141361 0.00450313 0.0124837 0.0146021 0.00884697 0.0039626 0.00520626 0.00260352 0.00455986 0.00911111 0.0117041 0.00278563 0.00502718 0.0104223 0.00690722 0.00979381 0.0102062 0 0.00226804 0.000927835 0.00989773 0.004949 0.00214235 0.0061878 -0.00106125 0.00261583 5.89703e-05 0.00331288 -0.0032088 0.000791673 0.00933217 0.0131047 0.00290551 0.00702142 -0.00209075 -0.000777254 0.00905541 0.00394585 0.0103336 0.00636048 0.00127656 0.00889448 0.00989691 0.00690722 0.00835052 0.00103093 0.00216495 0.00556701 0.000618557 0.00670103 0.00443299 0.00952481 0.00631471 0.00895071 0.00656909 0.00268052 -0.000217768 0.00333379 0.00365164 0.00605101 0.00226674 0.00503198 0.00317587 0.00892568 0.00946176 0.00750658 0.0050924 0.0090219 0.00557597 0.00701031 0.00649485 0.00670103 0.000412371 0.00938144 0.0028866 0.000309278 0.00103093 0.00350515 0.0102062 0.00762887 0.000515464 0.00226804 0.000927835 0.00134021 0.00505155 0.00823841 0.00750604 0.00226804 0.00659794 0.00237113 0.0071134 0.00113402 0.00773196 0.00670103 0.00175258 0.0085567 0.00443299 0.00268041 0.00247423 0.00979381 0.0043299 0.000412371 0.00340206 0.00958763 0.000618557 0.00680412 0.00659794 0.00874704 0.00721008 0.00983557 0.00918434 0.010166 0.00850672 0.00614252 0.00108817 0.00251073 0.00846873 0.00430812 0.0048512 0.00758585 0.0014665 0.000910504 0.00757288 0.00386419 0.000915874 0.00865979 0.00639175 0.00494845 0.00113402 0.00206186 0.000824742 0.00391753 0.000314272 0.00721821 0.00175599 0.00635511 0.00821836 0.00839143 0.00498006 0.00402059 0.00350215 0.00638687 0.00611658 0.00712876 0.004967 0.00226976 0.00910134 0.00523702 0.00373421 0.00890834 0.006229 0.00902093 0.00548641 0.00082717 0.00903912 0.00226804 0.00154639 0.00752577 0.00226804 0.00238831 0.0012557 0.00545401 0.00151269 0.00316493 -3.51231e-05 -0.000935461 0.00701377 3.51837e-05 0.00714508 0.00373629 3.06912e-06 -0.00405582 0.00180816 0.00568912 0.00314986 0.00111551 -0.000317522 0.00679457 -0.00114794 0.00520888 0.00342589 0.00375505 0.00889503 0.000471831 0.00721649 0.00175258 0.00453608 0.0089248 0.00785332 0.00633129 0.00109791 0.00170236 -0.000299925 0.00145654 0.000824363 -0.00489559 0.00118123 -0.0111268 -0.0147843 -0.0166174 -0.0113302 -0.00518508 0.00163804 -0.00111526 -0.00241949 0.00234365 0.0105819 -0.00348346 0.00120291 0.00744346 0.00266114 0.00786654 0.00657374 0.00762887 0.00134021 0.00453917 0.00910221 4.78968e-05 -2.0936e-05 -0.00151598 -0.00553966 -0.00850734 -0.00922023 -0.0178554 -0.0174867 -0.0321198 -0.0300942 -0.0326489 -0.0219353 -0.0208674 -0.0176957 -0.00780664 -0.01644 -0.0109096 0.00184645 -0.00260457 -0.000723391 0.0085421 0.00525333 0.00336875 0.00429471 0.00659794 0.0101036 0.00867985 0.00716746 0.00265074 -0.00522308 -0.014563 -0.0158207 -0.0111607 -0.00445253 -0.0166436 -0.0201839 -0.0309554 -0.033148 -0.0394092 -0.0200583 -0.0469538 -0.047853 -0.0300738 -0.0277282 -0.0300097 -0.0051789 -0.0137757 -0.00491209 -0.00575068 0.00612568 0.00574634 0.00145284 0.00515464 0.00397178 0.00692657 0.00778029 0.0115474 -0.0091974 0.00169426 0.00565377 -0.00551518 -2.4794e-05 -0.0237098 -0.0415326 -0.0428853 -0.0296711 -0.0423299 -0.0278804 -0.0334941 -0.0427811 -0.032267 -0.0302117 -0.025062 -0.0140754 -0.00211614 -0.0057524 -0.000718947 -0.000606186 0.00041383 0.00368576 0.00294816 0.00575427 0.00938048 0.00466089 0.0145915 0.0115588 0.0015089 -0.00188062 0.0097084 0.00849333 0.0112023 0.00740959 -0.00272416 -0.00776625 0.00278525 -0.0069873 0.0128745 -0.00259074 0.00147124 0.00991552 -0.00544083 0.000355115 -0.0101545 5.45493e-06 -0.0108577 -0.00469874 0.000275665 0.00486518 0.00463918 0.00614138 0.00542284 0.00609519 0.0234704 0.0156582 0.00544191 -0.000566277 0.00310743 0.00473647 0.0126326 0.0354509 0.0623192 0.0538236 0.0563794 0.0238491 0.0248407 0.0247775 0.0146023 0.0163228 0.0042855 0.000688323 0.0046511 -0.00139122 -0.00408339 0.0059115 0.006626 0.0202106 0.00185567 0.0077966 0.00795797 0.0141902 0.0266716 0.028565 0.0153129 -0.00580575 0.0279382 0.0379145 0.00974932 0.0399219 0.031286 0.0761601 0.0717145 0.0590199 0.0286883 0.00331945 0.0132634 0.002986 -0.00151463 -3.42954e-05 -0.00145143 -0.00754965 0.00955365 0.0153073 0.00909366 0.00385619 0.00113402 0.0021887 0.00479138 0.00430946 0.0104496 0.0232241 0.0138174 -0.00829399 0.0193369 0.0139123 0.00834684 0.0254169 0.0279131 0.0352843 0.0484447 0.0288477 -0.00472403 -0.0115206 -0.00699816 0.0024925 0.0107943 0.00808732 -0.000319361 -0.00129205 0.0041185 0.00178469 0.00167478 0.00849834 0.00927835 0.00611304 0.00769602 -0.00402078 -0.000288691 0.00613415 0.00463943 -0.0128945 -0.00306739 -0.00692006 -0.0148376 -0.0231936 -0.0151423 -0.00432271 0.0257421 0.0158264 -0.00806526 -0.000581646 0.00524722 0.0152284 0.00454655 -0.010269 -0.0193222 -0.0159905 -0.00293564 0.00189184 0.0042082 0.00265529 0.00206186 0.00746715 0.00182509 -0.00952819 -0.00538179 -0.00735441 -0.0106452 -0.00856912 -0.0152916 -0.0396327 -0.0425718 -0.0210908 -0.0183017 0.00153848 0.0101612 0.000250135 0.00747223 0.00303 -0.00616142 0.0140512 0.00698729 0.00828902 -0.00956022 -0.00185303 0.00391142 0.00437446 0.00362417 0.00657211 0.0101031 0.00310534 0.00311334 -0.00390679 -0.00529515 -0.00708204 -0.0217399 -0.0254953 -0.0291227 -0.0299698 -0.0305716 0.000721879 0.00407925 -0.0159556 -0.0108185 0.00696655 0.00846085 0.0108288 0.00591192 0.0151768 0.0144419 0.00565153 -0.000882238 0.0110348 0.00872023 0.000703361 0.00974782 0.00846028 0.00979381 0.00476652 0.00161591 0.00717225 -0.00262769 -0.00414201 0.00297133 -0.0231185 -0.0206818 -0.00765948 0.00744225 0.0239198 0.00278172 0.0102316 0.0185214 0.0341057 0.00867143 0.0259279 0.00278708 0.015183 0.0116748 0.0191158 0.0152605 0.00975176 -0.00369039 -9.31287e-05 0.00564016 0.00503843 0.00515464 0.00971051 -0.000827505 0.00685772 0.00137658 0.00729388 0.0122168 0.00805924 0.0129357 0.0109009 0.0200451 0.00573306 0.00127519 0.00709797 0.00931954 0.0167337 0.00199569 0.00510883 -0.00947105 0.000687637 -0.00384094 0.00357459 0.00420717 0.00614865 -0.000236497 -0.00369872 0.0033436 0.00683083 0.00804124 0.00619 0.00168367 0.00729272 0.000671203 0.00270968 0.00840529 0.0136057 -0.000167251 0.0100387 0.0132259 0.0133766 0.00185972 0.0104447 0.0142097 0.0123788 -0.0186461 -0.0149364 -0.00442528 -0.000746495 0.00541525 -0.00678836 0.00322334 0.00421986 -0.00074517 -0.00737448 0.00312767 0.00303289 0.00896907 0.00350515 0.00731838 0.000637734 0.00371263 -0.00731228 -0.014228 0.00793048 0.00720891 -0.00604506 -0.0015371 0.00718783 -0.00406945 -0.00330725 -0.00749619 -0.0145695 -0.0271789 -0.0117266 -0.00713672 0.00376717 -0.0085948 -0.000486861 0.00367838 -0.00383748 -0.0090302 -0.00251756 0.00632853 0.00493386 0.00515464 0.00648273 0.0081032 0.00572505 0.00567644 -0.00640801 -0.0100578 -0.00985046 -0.00167568 -0.00650896 -0.0200483 -0.010838 -0.0136758 -0.022976 0.000216126 -0.0203443 -0.0181358 -0.00503692 -0.00399057 0.0021512 -0.0193503 -0.0197029 -0.00695409 -0.00195969 -0.00629567 0.00346182 0.00481388 0.00575704 0.00731959 0.000183113 0.00152623 0.0042782 0.0102574 -0.00376966 -0.00985989 -0.00242778 0.00543335 -0.00603096 -0.0257923 -0.0354039 -0.0269862 -0.0184279 -0.000325056 -0.0252188 -0.00829559 -0.0160511 -0.0170702 -0.0135393 -0.0141717 -0.0071513 -0.00161691 0.00295966 0.00191756 0.00694164 0.0088247 0.01 0.00711137 0.00154575 0.00468281 -0.000670439 0.00386506 0.0031908 -0.00129695 -0.00549616 -0.0138223 -0.0149593 -0.0184537 -0.0252448 -0.0107676 -0.00646294 -0.00429006 -0.024475 -0.00712934 -0.0162003 -0.0234909 -0.0078797 -0.0127443 -0.00621552 -0.00615435 -0.00499589 -0.00183795 0.00843578 0.00733476 0.00391753 0.00690523 0.00762823 0.00253028 0.0028021 0.00591118 0.00232267 0.00656752 0.0066264 -0.0138736 -0.010036 -0.0142694 -0.0226863 -0.00130794 0.00236971 -0.00535398 -0.0128275 -0.00480913 -0.00492642 -0.0131114 -0.00914255 -0.00447323 -0.00419527 -0.00814304 0.000465341 0.00171336 0.0019296 0.00719547 0.00628866 0.00391753 0.00371134 0.00150121 0.00606957 0.00572219 0.0242914 0.0205695 0.0150377 -0.0167757 -0.0141111 -0.0099597 -0.0125454 0.0114158 0.028732 -0.00410048 -0.0198811 -0.00299373 -0.00984639 -0.011303 -0.00476124 -0.0054768 -0.00826446 -0.00144208 -0.00743364 0.00846689 0.0100233 0.00388642 0.00298969 0.00154639 0.00690722 0.00815383 0.00122953 0.00444535 0.0192951 0.0147936 0.0037519 -0.00875544 -0.0218931 -0.0128306 -0.0213683 0.00964442 0.00648895 -0.0218467 -0.0127415 0.00109255 -0.00071671 0.00299703 0.010932 0.00243889 -0.000531195 -0.00049752 0.00201808 0.000687585 0.00396667 0.00546392 0.00319588 0.00350515 0.00938144 0.00494586 0.00555958 0.0101099 0.00107538 -0.00557808 -0.000540286 0.00218509 -0.00416603 -0.000636653 -0.00628144 0.0286671 0.0167531 -0.00385004 0.0023874 0.0042579 0.0139698 0.0126675 0.0280536 0.0218403 0.010041 0.00156741 -0.0018883 0.000621059 0.00371134 0.00505155 0.00371134 0.0102062 0.00845361 0.00876289 0.00525852 0.00230918 -0.00211353 -0.00459749 0.00377982 0.0112446 0.00510386 0.00358511 -0.00326077 0.0212185 0.03845 0.0319106 0.0147362 0.00316752 0.0120873 0.0194691 0.0143424 0.0131879 0.0207572 0.0123727 0.00490575 0.00266545 0.0028866 0.000206186 0.00917526 0.00731959 0.000309278 0.00938144 0.0071134 0.00865979 0.00391753 0.0052187 0.00487374 0.00739919 0.0107232 0.00612668 0.00261993 0.0017355 0.00514763 0.0076736 0.00723633 0.00125988 0.00765682 0.0172264 0.00730333 0.00483834 0.00878312 0.0113373 0.00288679 0.00814433 0.00762887 0.00536082 0.00185567 0.00546392 0.00845361 0.00628866 0.00350515 0.0043299 0.00876289 0.00319588 0.00154639 0.00134021 0.00762887 0.00206186 0.00103093 0.00297331 0.002026 0.00773196 0.00381443 0.00721649 0.00742268 0 0.00639175 0.00649485 0.00731959 0.000824742 0.00886598 0.00536082 0.000824742 0.000103093 0.00742268 0.00938144 0.00484536 0.00608247 0.00474227 0.000412371 0.00814433 0.00701211 0.00185807 0.0082195 0.00648774 0.00194773 0.00457505 0.00716995 4.07516e-05 0.00962422 0.00822331 0.00487537 0.00443968 0.00884861 0.00152391 0.00149283 0.00552208 0.00780943 0.00524523 0.00865979 0.00515464 0.0014433 0.0014433 0.00536082 0.00257732 0.0102062 0.00668811 0.00525329 0.0101287 0.00260662 0.00739334 0.00255596 0.00392222 0.00192714 -0.00235134 0.0037358 -0.00107509 0.00277021 0.00406534 0.00917597 0.000632664 0.00083696 0.00911635 0.00272392 0.00530945 0.000174823 0.000684615 0.00423215 0.00587887 0.00453608 0.000309278 0.00814433 0.00247423 0.00144963 0.00852304 0.00406071 0.00390299 0.0018677 0.00691091 0.00363305 0.00200592 -0.000622537 -0.00178686 0.0028534 0.000611884 -0.00768587 0.00185182 -0.000637088 0.00175305 0.00351333 0.00184113 0.00328147 0.00507995 0.00690015 0.00345145 0.000197651 0.000264694 0.00521877 0.00134021 0.00752577 0.0101031 0.00589795 0.00430072 0.00268943 0.00409745 0.00183776 -0.000742424 -0.00452921 -0.00550782 -0.00748566 -0.00776215 -0.00436597 -0.00575554 -0.0111415 -0.0111692 -0.00692749 -0.00167488 -0.00520869 -0.00236227 0.00154882 0.00684804 -0.000965224 0.00781164 0.00928178 0.0044096 0.0101317 0.00441401 0.00515464 0.00474227 0.000520556 0.0050492 0.00438286 0.00380982 0.000938422 -0.00250933 0.00213295 0.00327438 -0.0117204 -0.00693616 -0.0130678 -0.0163167 -0.0100892 -0.0166138 -0.022772 -0.00966278 -0.0134065 -0.0163655 -0.00775231 -0.00531433 -0.00708016 -0.0121135 0.000537802 -0.000507487 0.00476016 0.00636829 0.00463918 0.00185484 0.00897678 0.000895052 0.00233783 0.0119107 0.00749884 0.00228313 -0.00315705 -0.00949351 -0.0121974 -0.00663537 -0.0267005 -0.0288908 -0.0137527 -0.0249625 -0.0256607 -0.0255837 -0.0266432 -0.0166442 -0.0181948 -0.0164775 0.00148107 -0.0117708 -0.0199541 -0.0049857 0.000761723 0.00652087 0.00226804 0.00840926 0.00178723 0.00222069 0.00049677 0.00661222 0.00341625 0.0059856 0.00163331 -0.0189095 -0.00124757 -0.00995157 -0.013084 -0.0184275 -0.0191333 -0.0429819 -0.0261353 -0.0418955 -0.0430843 -0.0390474 -0.024515 -0.0121208 -0.00728452 -0.0142998 -0.0114106 0.000347204 0.00673596 0.0051642 0.00780179 0.00148391 0.00165632 0.00361503 0.00240939 0.00758231 0.0106514 -0.00245222 -0.0136034 -0.0131732 -0.00381784 0.0083624 0.0107159 -0.00463132 -0.0344446 -0.03741 -0.0294691 -0.03119 -0.0418596 -0.0284411 -0.0184441 -0.020834 -0.00745532 0.00597166 0.0190555 0.0149142 -0.00223543 0.00797284 0.00206186 0.00652527 0.00403914 0.00143765 -0.000193078 0.011553 0.0063243 -0.00342631 -0.00322295 -0.0103102 0.00860888 0.011899 -0.00581996 -0.014976 -0.0241255 -0.0333879 -0.0263891 -0.0111971 -0.00105214 -0.0109102 -0.00384391 0.0113271 0.0106282 0.0220181 0.0336422 0.0284845 0.0149676 0.00381304 0.00896907 0.0021179 0.00541945 0.000542202 0.00244643 -0.00529408 -0.00312307 -0.00728422 -0.00826272 -0.00729494 0.00851013 0.00627229 -0.00545879 -0.00140923 -0.0121226 0.0120332 0.0155928 0.0126813 0.0324166 0.0496613 0.0486055 0.045652 0.0459825 0.0725877 0.0824548 0.0574679 0.0188027 0.00220587 0.00886598 0.0082276 0.00171632 0.00518883 0.000346552 -0.00842989 -0.0041533 -0.017355 -0.0159749 0.00263876 0.0107681 0.0233367 0.00911294 0.00959439 0.0274883 0.0395362 0.0402352 0.0422007 0.0500948 0.0466147 0.0520112 0.0543159 0.05853 0.084055 0.0575612 0.0259971 0.0083159 0.00776356 0.00608247 0.00930043 0.000906273 0.0018352 -0.00436465 -0.0169899 -0.00512258 -0.0037827 0.000724981 0.000283022 0.00449034 0.00533194 0.0108091 0.029374 0.032533 0.0364824 0.0151216 -0.006169 -0.00697265 -0.0157688 -0.00606194 0.0126306 0.0258079 0.0264289 0.0138217 0.0185532 0.00835413 0.00437061 0.00350515 0.00505451 -0.0011276 -0.00129601 -0.00468042 -0.00827595 -0.000928085 0.00505489 0.00636377 0.00684155 0.000598414 0.0036649 0.026168 0.0194105 -0.00742841 -0.0142024 -0.0225566 -0.0529015 -0.0541989 -0.0481305 -0.0475901 -0.033767 -0.00947103 -0.00533698 0.00340554 0.00402255 0.00465611 0.0054319 0.00402062 0.00131776 0.000721902 -0.00412022 -2.92929e-06 0.0157055 0.0137733 0.0101759 0.0111566 0.00358732 0.00462831 0.0110399 0.0217098 0.0186969 -0.00147981 -0.00277834 -0.0162514 -0.0212288 -0.0335942 -0.042962 -0.0423975 -0.0382765 -0.0131575 -0.00656999 -0.0100387 0.0034169 0.00888242 0.000616379 0.00927835 0.00819165 0.00864608 -0.00154621 0.0134361 0.014799 0.0076814 0.0133652 0.0316908 0.0305313 0.0371254 0.0458736 0.0242846 -0.0162042 -0.0152692 -0.0120429 -0.0204902 0.00683275 -0.00607002 -0.0244502 -0.0321869 -0.0121892 -0.0155158 -0.0176523 -0.0110001 0.00655745 -8.64896e-05 0.00332469 0.000412371 0.00499454 0.00296435 0.000630602 -0.00495976 -0.0139086 -0.0161061 2.33767e-05 0.0161863 0.0108546 0.0297373 0.0259356 0.0129991 0.00769526 -0.0195323 -0.010487 -0.0202705 -0.00738665 -0.000282387 -0.0149256 -0.0124726 -0.0190226 -0.0196614 -0.0182071 -0.0121316 0.000272183 0.00799306 0.000510165 0.00340206 0.00493766 0.005136 0.00472071 -0.00178818 -0.0145754 -0.0162575 -0.0187734 -0.0113027 0.0032188 0.0026889 0.0162384 0.00533716 -0.00374535 -0.00555452 -0.00137124 -0.0162641 -0.0112084 -0.0121036 -0.00668871 -0.000430099 -0.0210759 -0.0218742 -0.0165699 -0.000585077 -0.000246062 0.00805629 0.00630387 0.00618557 0.00340206 0.00660063 -0.00225799 -0.000606611 -0.0116861 -0.0073813 -0.00325146 -0.0113541 -0.00704709 0.000756399 0.00401729 -0.00667099 -0.0224296 -0.0287539 -0.0275783 -0.0159368 -0.0123845 -0.00116889 -0.00583927 -0.0199213 -0.0244097 -0.0216673 0.00372353 0.00057241 -0.00110717 0.00437498 0.00577108 0.00268041 0.00352388 0.00857024 -0.00248288 -0.00322529 -0.0141855 -0.0118365 0.00142244 -0.000227253 -0.0135525 -0.00315561 -0.0051239 -0.0256756 -0.0294465 -0.0229652 -0.0200756 -0.00862536 -0.0151007 0.00289322 -0.0102868 -0.0232344 -0.0124115 -0.00493055 0.00184468 0.0027906 0.0028079 0.0034881 0.00659825 0.00319588 0.00163879 0.00301661 0.00248699 -0.00286403 -0.0182094 0.00559909 -0.00214755 0.00502501 0.00765865 -0.00878481 -0.0146471 -0.0259903 -0.0291393 -0.0237637 -0.0266165 -0.0211781 -0.000105001 -0.00513074 -0.0121637 -0.0154883 -0.0155018 -0.00464158 0.00727052 0.000890822 0.001578 0.00237017 0.0057732 0.00969417 0.00515572 0.00742466 -0.00110551 0.00202355 -0.00647774 0.00502687 0.000577378 -0.00955273 -0.0136191 -0.023487 -0.0154716 -0.0186182 -0.0156215 -0.0134026 -0.0133989 -0.0107896 0.00149101 0.00679563 -0.00837793 -0.00444458 -0.00623715 -0.00497801 0.00967998 0.0114473 0.00596718 0.00576675 0.00948454 0.00443636 0.00165057 0.00879 0.00243282 0.00515304 -0.000374437 0.00153711 0.00222216 0.0014604 -0.00534062 -0.0191156 -0.00671226 -0.00244541 0.0026098 -0.00475375 -0.00549018 0.000455164 0.00666192 0.000971685 -0.00320453 -0.0028774 -0.00392189 -0.00421266 0.0142406 0.0142403 0.00190979 0.00797366 0.000618557 0.01 0.00701031 0.0088278 0.00230981 0.0108806 0.000386708 -0.0074125 -0.00922052 0.00471132 0.0207841 0.00136865 0.002435 0.0164231 0.0043368 -0.00750221 -0.0146828 0.00766851 0.00396809 -0.000952988 -0.0065653 0.00157943 -0.00390302 0.00642852 0.010403 0.00398002 0.00955023 0.00288241 0.00247423 0.00546392 0.00515464 0.000537158 -9.94513e-05 0.00213063 0.0053494 -0.0101578 -0.0106881 -0.000250511 0.00867927 0.0168389 0.0162338 0.0159747 5.01254e-06 -0.00215461 0.0093316 0.00520048 0.0131781 0.00316828 0.000615949 0.00284189 0.00670209 0.00441135 0.0160902 0.00831167 0.0101936 0.00845361 0.000103093 0.00752577 0.00463918 0.00164835 0.00155741 0.00865336 0.00316649 0.0060707 0.00232233 -0.0102499 -0.00859834 -0.00293082 0.00698482 0.00821453 0.00548062 0.00183451 0.0220563 0.0187437 0.0079306 -0.000206084 0.00713579 0.00626698 0.0104827 0.00302368 0.00675888 0.0107793 0.00175258 0.00814433 0.0101031 0.00835052 0.00195876 0.00659794 0.000825243 0.00806021 0.00237866 0.00339592 -0.00199712 0.000240697 -0.000170307 0.0032956 0.00115352 0.0137764 0.00887724 0.00680512 0.0152864 0.00392943 0.00138837 0.00710979 0.00328411 0.00272919 -0.00313776 0.00657554 0.00972774 0.0054672 0.00257732 0.00185567 0.00948454 0.00463918 0.00721649 0.0056701 0.00948454 0.00793814 0.00701031 0.000438832 0.00875448 0.00226889 0.00888416 0.000995405 0.00830834 0.0018611 0.00634767 -0.000245066 0.00319321 0.00290352 0.000746411 0.00238315 0.00426052 0.000537367 0.000748593 0.00277479 0.00733166 0.0071134 0.00371134 0.000103093 0.00164948 0.00649485 0.00608247 0.000515464 0.00938144 0.00391753 0.00969072 0.00742268 0.00319588 0.0071134 0.000927835 0.00639175 0.00381443 0.0034578 0.00723542 0.00628866 0.00804124 0.00226804 0.00226804 0.000515464 0.00896907 0.01 0.00876289 0.00608247 0.00525773 0.00670103 0.00814433 0.00701031 0.00886598 0.0042268 0.00515464 0.00536082 0.00896907 0.00185567 0.00948454 0.00858341 0.000556309 0.00178881 0.00531217 -0.0019355 -0.000167013 0.000283268 0.00529874 0.00882733 0.0107577 0.00643562 0.00488793 0.00998275 0.00511008 0.00804722 0.00950659 0.00258823 0.00437796 0.00515464 0.00412371 0.00298969 0.00226804 0.00103093 0.0014433 0.00628866 0.00330111 0.00979455 0.00455599 0.00324644 0.0036918 0.00408296 0.00410778 0.00805021 0.00818902 0.00277778 0.00719095 0.00248992 0.0108246 0.010601 0.0157392 0.0111449 0.00907125 0.00802011 0.00958102 0.00793002 0.00356424 0.00421749 0.00182225 0.00226804 0.0028866 0.000103093 0.00804124 0.00342616 0.00756178 0.00744044 0.00847298 0.00325714 0.0050483 0.000481366 0.00590876 -0.000729804 0.00319747 -0.000339473 -0.00343645 -0.00963424 -0.00788439 0.0105712 0.00691389 0.00347413 0.0115582 -0.00192932 0.00909235 0.00715357 0.010278 0.00793371 0.00245213 0.000803535 0.00402062 0.00927835 0.00216495 0.00713658 0.00904313 0.00828642 0.00780277 0.0133577 0.0108904 0.00239889 0.000577691 0.00196184 -0.00455839 -0.00128877 0.0137809 0.0135371 0.00794923 0.00443292 -0.0117358 -0.00621931 0.00136966 0.00338771 0.00153337 -0.00473309 -0.00289078 0.00490651 0.000274868 0.000601649 0.00908256 0.00226804 0.00896907 0.0102736 0.000361817 0.00394963 0.00559635 0.000713443 0.00585444 0.00246783 -0.0103317 -0.00608404 -0.0076932 0.0144577 0.0052862 -0.00277129 -5.25232e-05 0.0126713 -0.00208183 -0.00564659 -0.000845965 -0.00468855 0.00749111 -0.00280497 -0.00267579 -0.00311704 0.00791723 0.00881919 0.00362347 0.00783505 0.00701045 0.00770031 0.000955029 -0.0011837 0.0065282 -0.00133916 0.00098228 -0.00585174 -0.0346098 -0.0390387 -0.00261106 0.00452007 0.00978575 0.0203079 -0.0151012 -0.00664278 -0.0261043 -0.0210965 -0.0184296 -0.0181543 -0.00631013 0.00197825 0.00639216 0.00249889 0.00413082 0.0074115 0.00382063 0.00175258 9.605e-05 0.00149221 -0.00117926 0.00341615 -0.00269288 -0.00683885 0.00188427 -0.0159431 -0.0198438 -0.00362196 0.00923769 0.0183492 0.0133078 0.0162575 0.0056955 -0.0404294 -0.0287679 0.000480559 -0.0236755 -0.0159399 -0.0101251 0.00182276 0.000404347 0.00310946 -0.000761497 0.00315994 0.00447737 0.00157878 0.0008755 0.00446897 0.00876413 0.00301319 0.00176885 0.00834778 0.0106487 -0.0191676 -0.0161755 -0.0112327 -0.00889119 0.0076053 0.00790818 -0.00824787 -0.00795092 -0.0259552 -0.0308291 -0.000487292 -0.00321029 -0.0128947 -0.0182302 -0.00763963 0.00112172 -0.00611735 -0.000927087 0.00436704 0.00295692 0.00958763 0.00836145 0.00125207 0.00572139 0.00536724 0.00237282 0.0145825 0.00561537 0.00236265 -0.00685567 -0.0030316 -0.00459251 -0.0186092 0.000900205 -0.00845017 0.004747 -0.00887846 -0.0197835 0.00573084 -0.00822647 -0.011793 -0.0127364 -0.00777828 -0.00187106 -2.32532e-05 0.00418893 0.00129736 1.02979e-05 0.00453608 0.00378806 0.00871809 0.00623455 0.00593638 -0.00238971 0.0104669 0.00567002 0.00258762 -0.00878458 0.0180697 0.0102584 -0.00482704 0.00299228 0.0100078 0.00300309 -0.0187957 0.00405877 0.00469507 -0.0117948 -0.0217249 -0.00465197 -0.00396995 -0.000345941 -0.00699453 0.00203099 0.00574996 0.00591232 0.00690722 0.00366238 0.00968014 0.00229103 0.00813574 -0.000348325 0.00962482 -0.00069067 -0.0058341 -0.00474385 0.00353051 0.00607027 -0.00117224 0.0238044 0.0178695 0.00231647 -0.0302506 -0.000107288 -0.000997303 -0.0153745 -0.00947977 -0.00751035 0.00221163 0.00635829 0.00864935 0.00318138 0.00256059 0.00207755 0.000515464 0.00722282 0.00615821 0.00825414 0.0066516 0.0125653 0.00911077 0.0075742 0.00429061 0.00243134 -0.0253791 -0.0105088 -0.0194818 0.026112 0.0230265 -0.0073941 -0.0122186 0.00879835 1.72264e-05 -0.0205456 -0.00783417 0.00252784 0.00687429 0.00598734 0.0172205 0.00116312 0.00705236 0.0102076 0.00639175 0.00679812 0.00149359 0.00663569 0.00279124 -0.00521355 0.0118583 -0.00110125 0.0095646 0.00240953 -0.0305868 -0.0095864 -0.0227729 0.0138802 0.027687 0.0124419 0.00116318 0.015417 0.00291303 -0.00202621 -0.00267156 0.00497318 0.0115721 0.0145594 0.013772 0.000415713 0.00380078 0.00770356 0.00979381 0.00132043 0.00922761 0.00180996 0.00238845 0.00244055 0.00775703 0.00162577 -0.00593589 -0.0105594 -0.0184443 -0.00534622 -0.0108446 0.0235084 0.0466267 -0.00585076 -0.00591349 0.00960647 0.00884814 0.0110033 -0.0128253 -0.00191263 0.00169696 0.00967141 0.00806249 0.00825866 0.000955831 9.92108e-05 0.00237113 0.00263387 0.000761759 0.00237568 0.00597812 -0.00652842 0.00228159 -0.00946588 -0.0209408 -0.0327292 -0.0174788 0.00373218 0.00111536 0.0258507 0.0493547 -0.0197763 -0.0148636 -0.00132782 0.00591925 0.00220889 -0.0110779 -0.0233956 -0.0018439 0.00203848 0.00902782 0.00699759 -0.000757317 0.00134119 0.0042268 0.00595587 0.00382398 0.00552001 0.00332462 -7.87618e-05 0.0019555 -0.00647908 -0.0202495 -0.0252741 -0.022004 -0.0229531 -0.00269006 0.0152942 0.0311444 -0.0128644 0.00251417 0.00919752 -0.0154861 -0.00788029 -0.0139969 -0.0155983 -0.0066608 -0.00620083 0.0064949 0.00238617 0.00104827 0.00473966 0 0.00267273 0.00257328 0.00470765 0.00380718 -0.000915985 0.000278925 -0.0100896 -0.0138752 -0.0196148 -0.014932 -0.0137661 0.0233201 0.0471125 0.0161648 -0.0138997 0.0157691 0.0331574 -0.000677148 -0.0119442 0.00862489 -0.00214007 -0.00631502 0.00907258 0.00721099 0.00823006 0.000997858 0.000393923 0.00701031 0.00886598 0.00067392 0.00783649 0.00276015 0.0013172 -0.00155782 -0.012081 -0.0176641 -0.0222653 -0.0214618 -0.00820748 0.0429665 0.0574398 0.0111682 0.00876835 0.0160381 0.0372106 0.0201088 -0.00367439 0.00427168 -0.00479846 -0.00309907 0.00194645 0.00345896 0.00909439 0.00280905 0.000611032 0.00237113 0.00527769 0.00549718 0.0027511 0.0059074 -0.00742958 0.00149216 0.00158638 -0.00534758 -0.0152 -0.00293176 -0.00232086 0.0247178 0.0395231 0.00363246 -0.00180291 0.00117052 0.0105693 -0.00173248 -0.029188 -0.0228724 -0.0118434 -0.0124293 -0.000500575 0.00648113 0.00849136 0.00280177 0.00901086 0.000412371 0.00821551 0.00856943 0.00254965 0.00152079 0.00254296 -0.000384156 0.00321663 -0.0168762 -0.00160358 0.00434383 0.0030302 0.0303044 0.0105643 0.00417027 0.00776318 0.0051289 0.0257782 0.0272416 -0.0144098 -0.0130101 -0.0121453 -0.00840709 -0.00593402 -0.00157954 0.00392408 0.00311605 0.00309278 0.00145922 0.00299468 0.00453346 0.00328925 0.00269917 -0.00131793 0.000374413 -0.0142155 -0.0145699 -0.00623245 -0.0149984 -0.0275946 0.00959545 0.0250294 0.00500823 -0.00843761 -0.000552971 0.00330242 0.0196572 0.00386869 -0.00560032 -0.0103251 -0.00509609 -0.00251454 -0.000373402 0.00535502 0.00370183 0.00670103 0.00702585 0.00268541 0.00787076 0.0008484 0.00744973 0.00351494 0.000676932 0.00168417 -0.0168185 -0.0200394 -0.0289241 -0.0299235 -0.0202212 0.00129755 -0.00475872 0.0022134 0.00371929 0.00397691 0.0203866 0.00426862 -0.00608232 -0.00534945 0.00304818 -0.00111461 0.00112098 0.000977278 0.00505503 0.00608247 0.00814433 0.00391753 0.00145454 0.00578921 0.00178062 0.00497939 0.00130384 -0.00150272 -0.0144205 -0.00268275 -0.017504 -0.00399409 0.0226805 0.0182233 0.00719019 -0.0051744 0.0052619 0.0204391 0.00737436 0.00133597 0.000318148 0.00300659 0.00842856 0.00432703 7.70324e-05 0.00771509 0.0101641 0.00731959 0.000412371 0.0085567 0.000416123 0.0100701 0.0100409 0.00644586 0.00807738 -0.000965213 -0.00833986 -0.00607932 -0.00894736 -0.00438352 0.00635148 -0.00221429 0.00680658 0.0065118 0.00834224 0.00128013 -0.00291842 0.00227913 0.00482921 -0.00142147 0.00412773 0.00237703 0.00398809 0.0088037 0.000103093 0.00381443 0.00525773 0.00989691 0.00206228 0.00225572 0.00300212 0.00247937 0.00104388 0.00331894 0.0033499 0.00276268 -0.00550637 -0.00714538 -0.0183159 -0.00778257 0.00900626 -0.00930646 -0.0092859 -0.00537996 0.000283159 0.00582802 0.00100322 0.00277753 0.00876004 0.00203144 0.00923813 0 0.00123711 0.00154639 0.0028866 0.00731959 0.00896907 0.00216462 0.00758166 0.00620478 0.00673762 0.00346737 0.0100084 0.00793194 0.0024961 0.00199797 -0.0013802 0.00796738 -0.000833491 0.00363935 0.00388312 -0.00202623 0.00635924 0.003291 0.00605788 0.00461809 0.000401397 0.00225568 0.00102677 0.00164948 0.00907216 0.00463918 0.0042268 0.00628866 0.00639175 0.0057732 0.00659794 0.00938144 0.00112011 0.00997315 0.00869039 0.00573541 0.010016 0.00126785 0.00349992 0.00685641 0.00524074 0.00285249 0.00377765 0.00856854 0.00944056 0.00731705 0.00920515 0.00437837 0.00912776 0.00258282 0.00721649 0.00237113 0.0101031 0.00505155 0.00536082 0.00783505 0.000206186 0.00865979 0.00226804 0.00309278 0.00556701 0.00701031 0.00948454 0.00773196 0.00835052 0.00247423 0.00340205 0.00360821 0.00752577 0.000309278 0.00185567 0.00175258 0.0014433 0.00484536 0.00587629 0.00649485 0.00257732 0.00608247 0.00340206 0.00350515 0.00247423 0.0042268 0.000206186 0.00134021 0.0057732 0.00268041 0.00525773 0.00278351 0.00414499 0.00244487 0.00938508 0.00644732 0.00883396 0.00933426 0.00907529 0.010837 0.00269687 0.00190188 0.00688632 0.0100846 0.00773945 0.00724197 0.00404387 0.00355525 0.00301847 0.00629009 0.000309278 0.00742268 0.00659794 0.000309278 0.00195876 0.00556701 0.00886598 0.00639101 0.00391727 0.00408039 0.00497442 0.00711475 0.00329736 0.00600491 0.00470267 0.00757612 0.00971642 0.00683953 0.00597359 0.00461902 0.00559111 0.0053604 0.0103566 0.00411681 0.00787435 0.0043748 0.00718814 0.00993123 0.0034314 0.00551974 0.00412371 0.0085567 0.00742268 0.00876289 0.00865572 0.00814117 0.00146148 0.00653567 0.00531208 -5.056e-05 0.0051813 0.00233767 0.00892844 0.00837107 0.0119995 0.0110501 0.0100687 0.00897762 0.0119773 0.00520887 0.00272532 -0.000195172 0.00391907 0.00830945 0.00964193 0.00351726 0.00945301 0.00858277 0.00492183 0.00484536 0.00979381 0.0057732 0.00988294 0.00948008 0.00333871 0.000800166 0.00946684 0.00598775 0.00105252 0.00535564 0.0100129 0.00858605 0.00575426 0.0127146 0.01281 0.0020231 0.00131456 0.00160183 -0.000358301 0.00583879 0.000963719 0.00333579 0.00126539 0.00177016 0.00165113 0.00870969 0.00995579 0.00612668 0.00391753 0.00608247 0.00412231 0.000428376 0.00634159 0.00888232 -0.000138618 0.00418315 0.00748835 0.010139 0.0131568 0.00988948 0.0131513 0.00847593 0.00356415 -0.00438801 -0.00404317 -0.00477546 -0.006954 -0.00060655 0.00376179 0.00159482 0.00445612 -0.000668785 0.00829019 0.00677592 0.00686897 0.000580825 0.00886598 0.0045356 0.00268048 0.00617823 0.00609829 0.00492976 0.00341765 -0.00178242 0.00592582 0.0103265 0.0143267 0.0198207 0.00914962 -0.000178947 -0.00381252 0.0027913 -0.0033369 -0.000299527 -0.00824236 -0.00789822 -0.00843066 -0.00463486 -0.00155502 0.00428361 0.00153764 0.000706243 0.00726471 0.00406759 0.0057732 0.00265596 0.00872323 2.83762e-05 0.0081864 0.00188562 0.00173992 0.00900544 0.00941439 0.013921 0.00696181 0.00245349 -0.00271671 -0.00510284 -0.00692376 -0.00283267 0.00234577 -0.00598539 -0.00400816 0.00556423 0.00129182 0.00354163 0.00329582 0.00437926 0.00413385 0.00475151 0.00195596 0.00580108 0.00948491 0.00925374 0.00646689 0.00449872 0.00244622 0.00680404 0.0055157 0.0146267 0.0119852 0.00275812 -0.00740081 -0.0092894 -0.011411 -0.0127233 -0.00595938 -0.0119504 -0.00612769 -0.00536564 0.000386579 0.00177722 -0.00436216 0.00229848 0.00378607 0.0031284 0.00537631 0.00453068 0.00370435 0.00989379 0.00515464 0.0015926 0.00733343 0.0027522 0.00721241 0.00802781 0.00453682 0.0101048 0.00478747 -0.0162649 -0.0125196 -0.0122748 -0.00917598 -0.00893521 -0.00555141 -0.00230908 -0.007669 -0.00700743 0.000960336 0.00805025 -0.00268244 0.00121857 0.00879698 0.00460943 0.00393902 0.0029884 0.006702 -0.000121404 0.00556701 0.00500501 0.00289875 0.00666698 0.0129943 0.011826 0.0118495 0.00761347 -0.00188632 -0.00736686 -0.0136747 -0.00159481 -0.00283034 -0.0068917 -3.49097e-05 0.00186218 -0.00171934 -0.00114817 0.00151229 0.00686926 -0.000397843 0.00128805 0.00776767 0.0141201 0.00823923 0.00509901 0.00732154 0.00503589 0.00618557 0.000595576 0.00983807 0.0108813 0.0141816 0.015705 0.0067782 0.00142456 0.00191313 -0.00305561 -0.00602443 0.00323941 -0.00251607 -0.000175792 -0.000600908 9.66822e-06 -0.00619084 -0.00556564 -0.00249197 0.000514346 -0.00475906 0.00510666 0.00100034 0.00573449 0.00559069 0.00344501 0.000270512 0.00526788 0.00195876 0.0101647 0.00967719 0.0106482 0.00928407 0.0173717 0.0113997 0.00463636 0.00706487 0.00139609 -0.00490794 -0.00268576 -0.00634405 -0.00530912 -0.00625859 -0.00581669 -0.00121623 -0.000399148 -0.00571278 -0.00699164 -0.00430461 -0.00321139 0.00531924 0.0113703 0.0043392 0.00980711 0.00386612 0.00421069 0.00216495 0.00390732 0.00323165 0.00486076 0.0138281 0.00914536 0.0122709 0.00854176 0.0147154 0.00616004 0.0019863 -0.00179097 -0.0038128 -0.00464104 -0.00521732 -0.0040014 -1.16349e-05 0.00138576 -0.00775475 -0.00842609 -0.0121579 -0.000157619 0.0027911 0.00742227 0.00849499 0.00212897 0.00229572 0.00647694 0.00278351 0.00287292 0.00698908 0.0028127 0.0143684 0.00539223 0.00335844 0.00739528 0.00676199 0.00628769 0.00381745 0.00471257 -0.00111357 -0.00420139 -0.00101792 0.000604819 -0.0012278 0.000135677 -0.00252481 -0.00289005 -0.00709959 -0.00166849 0.00510469 0.00770905 0.00216995 0.0103881 5.00587e-05 0.00443066 0.00804124 0.0034771 0.005409 0.0105348 0.0121077 0.00162598 0.00296844 0.00382232 0.00625227 0.00640206 0.00372058 0.00945424 0.00753187 0.000442937 0.000516254 -0.00327627 0.00565179 0.00832388 0.0017519 -0.00908165 -0.0101446 -0.00901711 -0.00569448 -0.000129278 0.00471968 0.00858823 0.00247951 0.00122969 0.00309278 0.0094661 0.0102933 0.00707616 0.0029241 0.00934568 0.00559878 -0.00249105 0.00322161 0.000163583 -0.00231985 0.000508314 0.00427419 0.00769283 0.0117584 0.000956493 0.00326381 0.00414149 -0.00597776 -0.0081789 -0.0059379 -0.0144833 -0.0089672 -0.00238178 0.0023502 0.00501486 0.00213642 0.00204176 0.00917526 0.00597451 0.00851547 0.00888451 0.00902434 0.00641089 0.00708871 -0.00442571 -0.00474053 0.000499008 0.00190672 0.00250251 0.00156285 0.00115805 0.00660416 -0.00578176 -0.00117525 -0.00566148 -0.0116339 -0.00999145 -0.00169063 -0.00261964 -0.0037689 0.00303383 0.00402961 0.00366894 0.00313797 0.00161652 0 0.00783505 0.0105387 0.00772955 0.00619967 0.00977319 0.00805051 -0.00421769 -0.00087119 0.000757862 0.00295186 -0.00158274 0.0041755 0.00233708 -0.00532945 -0.0067271 -0.00622677 -0.00691302 -0.0107198 -0.0114599 -0.00431362 -0.00107606 0.000289104 0.000416772 0.00791109 0.00530417 0.00758689 0.00624471 0.00340206 0.00997803 0.00539809 0.00816019 0.00413107 0.00404458 0.00557825 -0.00617843 0.00557428 0.00530217 0.00124709 -0.00209004 -0.00404266 -0.00255253 -0.00884334 -0.012161 -0.00690711 -0.00334315 -0.00170295 -0.0073659 -0.00206388 -0.00425529 -0.0025854 0.00344848 0.00405555 -0.000476534 0.00720326 0.00793808 0.00412371 0.000408814 0.0012375 0.00111341 0.00314959 0.0023286 0.00622202 -0.0028763 0.00432992 0.0060367 -0.000335332 0.00291681 -0.00371944 -0.00992373 -0.00402166 -0.00723982 0.00594189 0.00519167 -0.00956178 -0.00699161 -0.0034005 -0.00370596 0.00280112 0.00767917 0.00268365 0.00649864 0.00402056 0.00773196 0.00319621 0.00525784 0.0108202 0.00605224 0.00908585 0.00758656 0.00309892 0.00606699 0.00373478 0.00457659 0.00313449 0.00636294 0.000715226 -0.00650343 -0.0111624 -0.00436672 0.00546376 0.00329655 -0.00334751 -0.00672477 -0.00303471 -0.000387409 0.00500121 0.00189897 0.000331287 0.00466035 0.0018076 0.0056701 0.0089694 0.00907227 0.00995461 0.00555302 0.0107416 0.00458764 0.00344098 0.0012229 0.00634301 0.00808293 0.00202327 0.00590838 -0.00181727 0.00375164 -0.00684712 -0.00308971 0.00470241 0.00544452 0.000108228 -0.00111154 -0.00154471 -0.00415895 -0.00388691 0.00567108 -0.00119623 0.00894259 0.00302858 0.00804124 0.00175258 0.0057732 0.0020349 0.00673243 0.00384748 0.0105076 0.000846327 0.00794686 0.00294213 0.0128152 0.00553849 0.00730752 0.00956805 -0.0020546 -0.00273606 -0.00754328 0.00100329 0.00285282 0.00608414 0.00809594 0.00572556 -0.00117803 0.00320512 0.008393 0.0058221 -0.000108433 0.0054598 0.00340206 0.00865979 0.01 0.00613466 0.00300191 0.00631065 0.00307661 0.00387354 0.00473173 0.00444232 0.015424 0.00789052 0.00980408 0.00707459 0.00674766 -0.00211171 -0.0027545 -0.0012676 0.000865652 0.00498441 0.0122527 0.00595604 0.00332034 0.00627436 0.00403252 0.00859142 0.00854718 0.00618557 0.000309278 0.00546392 0.00154639 0.00422602 0.00214921 0.00327943 0.00365591 0.0113456 0.0112089 0.00730183 0.00800424 0.00467931 0.0130642 0.00544646 0.00859352 0.00239718 0.00314299 0.00799873 0.00706303 0.00387689 0.00480638 0.00654679 0.00228952 0.000712026 0.00483108 0.00804926 0.00206186 0.00484536 0.00979381 0.00371134 0.00360825 0.00525773 0.00391806 0.00936973 0.00442222 0.00930486 0.011079 0.00423318 0.00394006 0.00484064 0.0112517 0.00961395 0.00252282 0.00719737 0.00737093 0.0039695 0.00556669 0.00723707 0.00829283 0.00860249 0.000287003 -0.000272184 0.00626016 0.00649959 0.00556701 0.00701031 0.0056701 0.0057732 0.00494845 0.00690722 0.00505155 0.00731959 0.00484536 0.00300915 0.00780172 0.00923302 0.00824487 0.00277013 0.0101573 0.00489141 0.00476725 0.0015332 0.00516906 0.000675662 0.00709902 0.00936792 0.00704131 0.000639014 0.00981464 0.00147938 0.00989313 0.00134021 0.00371134 0.00721649 0.00690722 0.000206186 0.00721649 0.00969072 0.00618557 0.00731959 0.00195876 0.00371134 0.0014433 0.00917526 0.000824742 0.00865979 0.00731959 0.00321088 0.00797098 0.00670103 0.000721649 0.00783505 0.00237113 0.00948454 0.00917526 0.00721649 0.00804124 0.00927835 0.00835052 0.00391753 0.00917526 0.0101031 0.00556701 0.00381443 0.00690722 0.00536082 0.00123711 0.00185567 0.00216495 0.00268658 0.00191437 0.0102005 0.00279354 0.000687421 0.00321971 0.00933668 0.00904721 0.0021087 0.0040168 0.00872366 0.00278126 0.000307376 0.0100914 0.000993447 0.00895914 0.010179 0.0045785 0.00298969 0.00484536 0.00824742 0.0102062 0.00226804 0.00989691 0.00329897 0.00671268 0.00694667 0.00333321 0.00914753 0.00609237 0.00369357 0.00330905 0.00385919 0.00935533 -8.93476e-05 -0.00888863 -0.000896397 -0.000516685 0.00500428 0.00605085 0.012672 0.00943121 0.00629713 0.00667453 0.00619098 0.0101357 0.00664522 0.00550037 0.00701031 0.0101031 0.00556701 0.00948454 0.00245237 0.00661665 0.00564817 0.00730851 0.00355845 0.00212712 0.003411 0.00606141 0.000525075 0.00559153 -0.00744582 0.0227699 0.0265401 0.000102563 -0.0245149 -0.0398934 -0.0106863 0.00782096 0.000897977 0.0102614 0.00965908 0.00363246 0.00397068 0.00936773 0.00879425 0.0056701 0.00979381 0.00237113 0.00848187 0.00689008 0.00332683 -0.00415141 -0.00438594 -0.0115727 -0.0203358 -0.00812481 -0.0054511 -0.0131788 -0.0101177 0.0268781 0.0420732 0.00131322 -0.0249539 -0.0204784 0.000491599 0.00256625 0.0174432 0.00860132 0.00482376 -0.00277632 -0.00963198 0.000511232 0.0100808 0.00734078 0.00783505 0.00216495 0.00740946 0.00401581 -0.00329797 -0.00377255 -0.00601773 -0.0180776 -0.0251362 -0.0349898 -0.0294574 -0.0477453 -0.00812876 0.0189591 0.023458 0.00941104 0.0191057 -0.0161281 -0.0077125 -0.0193744 -0.00702527 -0.0156518 -0.00368339 -0.00818413 -0.00182135 -0.00294619 0.0100501 0.00961838 0.00979381 0.00711316 0.00479313 0.00784977 -0.00212713 -0.00496677 -0.0090071 -0.0205908 -0.0236021 -0.0498175 -0.0320494 -0.00260173 -0.000338662 0.0217389 0.0133778 -0.012397 -0.00417164 -0.0378315 -0.0128008 -0.0170769 -0.0387974 -0.0250338 -0.0122918 -0.00469908 -0.000241698 -0.00158139 0.00791128 0.000681658 0.00958763 8.74818e-05 0.000906759 -0.000595022 0.00705726 -0.00468399 -0.00905926 -0.0315222 -0.0153112 -0.007567 0.0125959 0.0198299 0.0477448 0.00537147 -0.0265308 -0.0286778 -0.00941238 -0.047355 -0.0247012 -0.0375922 -0.0410142 -0.0345737 -0.0127044 -0.00188947 0.00409027 0.00662626 0.00889614 0.00187118 0.000929861 0.00735724 0.0031784 0.00145202 -0.00573274 -0.00673309 -0.0254872 -0.0348979 -0.0266882 0.00274187 0.0211853 0.0315261 0.0424366 0.00683139 -0.0271861 -0.0355828 -0.005343 -0.0363747 -0.0399589 -0.0673934 -0.0422495 -0.0173451 -0.0109619 -0.00479747 -0.000789963 0.00312327 0.00622719 0.00328861 0.00773196 0.00888046 0.00512239 0.00582706 -0.00364016 -0.0135422 -0.0367899 -0.0413766 -0.0292352 -0.0171825 0.00593245 0.0534615 0.0582124 0.014403 0.00137655 -0.00890157 0.0242142 -0.0293245 -0.0520017 -0.059221 -0.0402889 -0.00645139 -0.00722755 0.000856546 -0.000442089 0.00665408 -0.00131601 0.0100217 0.00773196 0.0103897 0.00195261 0.00308258 0.00298206 -0.00704222 -0.0301637 -0.031534 -0.0314172 -0.0212133 0.02203 0.0550108 0.0129688 0.00203295 -0.0114717 0.0545429 0.073194 0.0280766 -0.00613796 -0.027163 -0.0460081 -0.0255031 -0.0023186 -0.00748224 -0.00552777 0.00239306 0.000854066 0.00911827 0.00752577 0.00708535 0.00267728 0.00537012 0.00223751 -0.00494005 -0.0231602 -0.0269854 -0.0583226 -0.0259765 0.0152249 0.0260146 -0.0169964 -0.0408674 -0.0257695 0.0126108 0.0550497 0.0726831 0.0333047 0.00305583 -0.0286346 -0.0210689 -0.00701523 -0.00964144 -0.00157239 0.0012765 0.00212703 0.00966678 0.00938144 0.0103945 0.00935045 0.00939305 0.000648625 -0.00810041 -0.010145 0.00303426 -0.0382551 -0.00430607 0.0553957 0.0489301 -0.0081484 -0.0686507 -0.0397614 -0.0466063 -0.00545955 0.00974528 0.043328 -0.00144782 -0.00148477 0.00616414 -0.0133939 -0.0103387 -0.00327561 -0.00660368 0.00678513 0.00477674 0.00649485 0.000454475 0.00423274 0.00399204 -0.00121147 -0.0103694 -0.00844389 0.00739068 -0.0117615 0.0119072 0.0583368 0.020614 -0.0501789 -0.0763056 -0.0610825 -0.0721996 -0.061747 -0.00463488 0.0330784 0.00718438 -0.00943488 0.0184722 0.00462611 -0.0124754 -0.000366368 -0.00207233 0.00553232 0.00893962 0.01 0.00979679 0.00416991 0.00305844 -0.00124549 0.000262715 -0.000294321 -0.00429276 0.0249433 0.0441319 0.0716005 0.017939 -0.0274565 -0.0549191 -0.0661481 -0.0530371 -0.0444436 -0.00248197 0.0399199 0.00323675 0.0158243 0.0313363 0.0139369 -0.00419807 0.00527345 -0.00384703 0.000364304 0.000619015 0.00824742 0.00948205 0.00807686 0.0068104 -0.00827992 0.00216094 -0.0019857 0.0156762 -0.00239365 0.0273099 0.0678823 0.0235999 0.0116408 -0.0483583 -0.0682367 -0.0696761 -0.037645 0.000888091 0.0438943 -0.00058506 0.020525 0.0276127 -0.0106203 -0.00123111 -0.00866589 -0.00110789 0.000373147 0.0091099 0.00123711 0.00203129 0.00845125 0.00384607 0.00410521 -0.00371185 0.00305021 0.00939306 0.0203176 0.0263593 0.0219385 0.0161209 0.00475851 -0.043287 -0.0578152 -0.0533275 -0.0130396 0.00191171 0.0339203 -0.00613641 0.0167322 0.0148176 -0.0103005 -0.0105943 0.00025367 -0.00267137 0.00167144 0.00636899 0.00546392 0.00927635 0.00125618 0.00156396 0.00948944 -0.00600564 -0.00695201 0.0120047 0.00663605 -0.00260635 0.00271262 0.00569546 -0.0135503 -0.049006 -0.0644583 -0.0609784 -0.00264105 0.0111858 0.0148436 -0.0104844 0.0260216 0.0179393 0.0190283 -0.00556628 -0.003745 -0.0134243 -0.00565994 0.0061871 0.00443299 0.00175258 0.00840334 0.00924601 -0.00303235 -0.0107094 -0.0201587 -0.00148688 -0.0154575 -0.0365046 0.0142641 -0.00403374 -0.0118522 -0.041432 -0.0496238 -0.0320043 -0.0230937 -0.015223 0.00266821 -0.0107207 -0.0060251 0.00569463 -0.00405706 -0.0171336 -0.0163498 -0.0025902 -0.000290744 -0.000571956 0.00628866 0.00658846 0.0105442 0.00439881 0.00874802 -0.0112616 -0.00194835 -0.00361377 -0.0109263 -0.037293 0.00556062 0.0250505 0.00987948 -0.0108195 -0.023051 -0.0489861 -0.0254414 -0.00928624 0.0103755 -0.00759826 -0.00221682 -0.00169575 -0.040843 -0.0104402 -0.00193203 0.00347598 0.00853641 0.0048444 0.00536082 0.00955996 0.00387373 0.0104058 0.0108164 -0.00554204 -0.0103012 -0.0061043 -0.00405012 -0.0161656 -0.0141127 0.0286238 0.0221089 0.030521 0.0130533 0.0103094 0.0262942 0.0200682 0.028596 -0.0111808 -0.0138766 -0.0228127 -0.0224816 0.00657335 0.00580373 0.00225174 -4.02768e-05 0.00185567 0.00597784 0.00773147 0.00643823 0.00743411 0.00778095 0.00512533 -0.00945161 -0.0121454 -0.00284466 -0.00426507 -0.0249961 0.0138245 0.0339395 0.0549923 0.0577866 0.0614235 0.0602044 0.0260928 0.014797 -0.0286999 -0.0399259 -0.0312151 0.00112793 0.00591134 0.00233318 0.00127165 0.00248195 0.00319588 0.0084521 0.00700982 0.00304633 0.00509598 0.0035882 0.000649794 -0.00785456 -0.0224385 -0.024549 -0.00499982 -0.0219983 -0.00760511 0.0124363 0.0211767 0.00827063 0.0485975 0.0358123 0.00169768 -0.0149244 -0.0304364 -0.0361945 -0.0141085 0.000561537 0.00085047 -0.00203632 -0.000241847 0.00343476 0.00309278 0.0057732 0.00474227 0.00912467 0.00352351 0.00866409 0.00531422 0.00160416 -0.0110312 -0.024243 -0.0356158 -0.035752 -0.0330395 -0.0126955 0.00572896 0.00584423 -0.00215124 -0.0133664 -0.0131523 -0.0321386 -0.0310005 -0.0210708 -0.00872923 0.0018562 -0.00344317 0.00594972 0.00107174 0.00504804 0.00226804 0.00865979 0.000721649 0.00930184 0.00724753 0.00678746 0.0102703 0.000625747 -0.00313517 -0.0163471 -0.0321765 -0.0314516 -0.0418722 -0.0139249 0.00969603 0.0159459 0.0216199 -0.007388 -0.00478984 -0.00747632 -0.0128598 -0.00955348 0.00202306 0.0026466 0.00596219 0.00743962 0.00171736 0.00690722 0.00463918 0.00154639 0.00298969 0.00783143 0.000643979 0.00901163 0.00212153 0.00429815 0.00172579 0.00614303 0.000259887 -0.00648946 -0.000159401 0.000877663 0.00672896 0.00420811 0.0106687 0.00384307 0.00096982 -0.0105604 -0.00247305 -0.0037803 0.00769853 0.00131526 0.00583534 0.000539401 0.00969072 0.00721649 0.00824742 0.00762887 0.00113402 0.00381443 0.00175325 0.00695587 0.00905314 0.00469918 5.63677e-05 0.00771394 -0.000381734 0.0048003 -0.000916911 0.00556131 0.0038742 0.00260449 0.0122187 0.0105125 -0.0074474 -0.00823499 0.0083298 0.00774958 0.00677624 0.00703042 0.00948988 0.00277995 0.00381443 0.00989691 0.00896907 0.000824742 0.00463918 0.01 0.00865979 0.00556701 0.0043299 0.00360661 0.00113609 0.00344543 0.00954133 -4.21537e-05 0.00516907 0.0060737 0.00422902 0.000471361 0.00304007 0.0068889 0.00908315 0.00904226 0.00745724 0.0061606 0.00661292 0.00286619 0.00341321 0.00257732 0.00618557 0.0043299 0.0028866 0.0043299 0.00113402 0.01 0.00824742 0.00814433 0.00587629 0.00381443 0.00701031 0.00257732 0.0101031 0.00597938 0.000927835 0.00543655 0.00138339 0.00865979 0.00350515 0.00917526 0.00443299 0.000515464 0.00989691 0.00443299 0.0085567 0.000103093 0.00773196 0.00278351 0.0101031 0.00896907 0.0042268 0.000412371 0.00113402 0.00463918 0.00268041 0.000618557 0.00319588 0.00471204 0.00290901 0.0022338 0.00819883 0.00951171 -0.000360137 0.000287294 0.00413544 0.00246182 0.00646127 0.00847522 0.00449383 0.00921152 0.00888814 0.00983474 0.00329757 0.00136282 0.00789871 0.00494845 0.00113402 0.00948454 0.00309278 0.0042268 0.00917526 0.00773196 0.00761873 0.00133672 0.00842681 0.00891494 0.0059614 0.00656867 -0.00035767 -0.000683018 -0.00189894 0.00662773 0.00347926 0.00572498 0.00490539 0.00724096 0.0058926 0.00880259 0.00209407 0.00754403 0.00608818 0.00989565 0.00909928 0.00508642 0.00102536 0.00979381 0.00463918 0.00649485 0.0014433 0.00503088 0.00914175 0.004006 0.00029828 0.00106996 0.011555 0.00185169 0.00753618 0.00704143 0.0134513 0.00918327 0.00739063 0.00796946 0.00401398 -0.00159449 -0.0133838 -0.00829768 -0.00576653 -0.00664692 0.00246736 0.00944031 0.00173845 0.00918131 0.00914675 0.00402281 0.00783505 0.00216495 0.00608247 0.00673337 0.00273956 0.000216869 0.004249 0.0039421 0.00604117 -0.000541718 0.00296475 0.0152116 0.010453 0.0150609 0.0229354 0.0161099 -0.00109897 -0.00673136 -0.00516748 -0.00874753 -0.00355415 -0.00117352 0.00109399 -0.0039592 -0.000335728 0.013181 0.00437058 0.0028826 0.00268898 0.0042268 0 0.00339043 0.00967773 0.00277999 -4.04386e-05 0.00657568 0.00031516 0.0105984 0.014022 0.0160892 0.022713 0.0129685 -0.0113224 -0.0193471 -0.0173757 -0.00576677 -0.0183834 -0.017758 -0.0108286 0.00595416 0.0153158 0.00339418 0.00335367 0.00624662 0.0106676 0.00222301 0.00196669 0.000412371 0.00505088 0.00332734 -0.000285052 0.000600289 0.00135693 0.00581139 0.00513974 0.0224033 0.0288752 -0.000652187 0.00827456 0.0109184 -0.00713732 -0.0357827 -0.0299665 -0.0308686 -0.0290158 -0.0238054 -0.00630059 -0.00465915 0.0074545 0.0140019 0.0261482 0.0156461 0.00723136 0.00965005 0.00300981 0.000824742 0.00820084 -0.000641757 -0.000320985 0.00582235 0.00959811 -0.00177768 0.00529342 0.0392814 0.0264616 0.0229675 0.000478715 -0.0127272 -0.0170502 -0.0351321 -0.0279982 -0.0211086 -0.0232585 -0.0369078 -0.0378185 -0.00317273 0.0250105 0.0350246 0.0192038 0.00704367 0.00742603 0.00312648 0.00365762 0.0086935 0.000103605 0.00446441 0.00375542 0.00911619 0.016194 -0.0108317 0.0117425 0.0211478 0.0265291 0.0138615 -0.0236288 -0.0330667 -0.0314428 -0.0364884 -0.0422787 -0.00756572 -8.95953e-05 -0.0309442 -0.0333062 0.0076521 0.0213174 0.0165059 0.00289519 0.00440772 0.00818427 0.0110718 0.000183351 0.00525773 0.000136353 0.00296491 0.00858314 0.00262331 0.0183806 -0.0068031 0.00750432 0.0223235 0.0197767 0.00358405 -0.0299889 -0.0337576 -0.0409632 -0.0281514 -0.0221082 0.00187055 -0.00860857 -0.0231611 -0.00587739 0.0234581 0.0254223 0.000296891 0.0134389 0.0139863 0.0151247 0.0106055 0.00337488 0.00896907 0.00607663 0.00545016 0.00874176 0.0181315 -0.00112094 0.0021529 0.0181242 0.0245578 0.0105705 -0.0242925 -0.0347987 -0.0320552 -0.0385984 -0.0175998 -0.0103135 0.00849135 -0.00903752 -0.0141176 0.000631432 0.0152329 -0.00341112 -0.00788565 0.0158704 0.0212779 0.00442416 0.00911395 0.00825238 0.00113402 0.00705855 0.00332758 0.00327557 0.0127641 0.00330637 0.00151884 0.00915797 0.0238635 0.00273445 -0.0144046 -0.00154805 -0.00537633 -0.0446279 -0.0278484 -0.0048558 0.0150027 -0.0210482 -0.0249477 0.00890352 0.00220611 -0.0103184 -0.00706692 0.0147205 0.0221291 0.00728822 0.00170635 0.00782223 0.00690722 0.00117329 0.00717505 0.00631883 0.0133357 0.0130303 0.0140062 0.0117631 0.00541541 0.000466808 -0.0129476 0.01075 -0.0123304 -0.0228732 -0.021934 0.00513403 -0.0059438 -0.0257006 -0.02066 -0.00253554 -0.00124002 -0.00560723 -0.00812344 0.00726787 0.00615875 0.00380615 0.00535834 0.00146053 0.00804124 0.00315456 0.006275 0.00198708 0.00406193 0.0136659 0.0172339 0.00348356 0.00140496 0.00473551 -0.0146796 0.00586649 -0.00718458 0.00172021 -0.00622551 0.0122094 -0.0155664 -0.0339225 -0.0146503 0.00416651 -0.00428461 -0.00486538 -0.00294636 -0.00719526 -0.00121847 -0.00479713 0.00393762 0.00600087 0.00917526 0.000589112 0.00808291 0.000411387 0.00505178 0.0137165 0.0217753 -0.0021721 -0.000159918 0.000238625 -0.0123345 0.0087906 -3.77426e-05 -0.0039233 -0.00162761 0.0062642 -0.00769624 -0.0212317 -0.0127161 -0.0126819 -0.00503094 0.00938483 0.000245406 -0.0145259 -0.0143961 0.0073217 0.00110358 0.000604675 0.00927835 0.00550211 0.0012889 0.0072998 0.00537051 0.00824832 0.00699874 0.0133751 0.0150473 0.00254762 -0.00304455 0.025512 0.0231803 0.0202918 0.00793739 -0.0223411 -0.020483 -0.017741 -0.00851634 -0.00513713 -0.00244587 -0.00968034 -0.0112266 -0.0123836 -0.00405806 0.00266504 0.00237138 0.00102733 0.00154639 0.00624821 0.00849309 0.00978299 0.00307399 0.00318468 0.00161822 -0.00147433 0.011329 0.010069 0.0054625 0.0189698 0.0278759 0.0291616 0.0069184 -0.0116506 -0.0155083 -0.00746788 -0.00590011 0.0059779 -0.01363 -0.0177129 -0.0205872 -0.00544171 -0.000813579 0.00670369 0.00802406 0.00859716 0.00505155 0.00864862 0.00387788 0.00907891 0.0063663 0.0074485 2.12269e-05 0.00160655 -0.00273256 -0.0113716 -0.00177374 0.0152073 0.0349286 0.0370612 0.00581913 -0.0224679 -0.0185445 -0.0133967 0.00883524 -0.00255419 -0.0234276 -0.0249823 -0.0113009 -0.000541718 0.00291423 0.00756168 0.000314387 0.0100521 0.00546392 0.0101031 0.0106309 0.00220563 0.00709678 0.00415569 0.00366953 -0.0152684 -0.0197079 -8.12232e-05 0.0112995 0.0160473 0.0427221 0.0370133 0.0314709 0.00152627 -0.0300495 -0.0284029 -0.00488833 -0.0314556 -0.0307996 -0.0197165 -0.0196459 -0.00768223 0.00380264 0.00291542 -0.000433145 0.000409739 0.00505155 0.0043328 0.00976962 0.00137869 -0.00266198 -0.00324254 0.00744882 -0.0153216 -0.0204341 -0.00413712 0.00872033 0.0146183 0.0292918 0.0282844 0.0140183 0.00796835 -0.00800902 -0.00720365 -0.00484717 -0.035564 -0.0289061 -0.0121729 -0.00582305 -0.00142644 0.00440881 0.00296332 0.00922601 0.00586978 0.00917526 0.00459591 0.00160016 0.00412895 2.81881e-05 -0.00124478 -0.00178384 -0.00895966 -0.00341663 0.00726688 0.0070799 0.0148418 0.0202777 0.0176268 0.0161828 0.0238497 0.0098587 0.00776436 0.00722308 -0.012531 -0.013304 0.0109187 0.00644479 0.011287 0.00736446 0.0062936 0.00180341 0.00886598 0.00154244 0.00731835 0.0100359 0.00773643 0.0062344 0.0024457 -0.0128444 -0.00187701 0.00154176 -0.00255319 -0.0157036 0.0178392 0.0143761 0.0245111 0.0375052 0.0238692 -0.00289317 0.00841073 0.00535854 0.002521 0.0129518 0.0226713 0.0273165 0.0187101 -0.0037382 0.00030427 0.00369973 0.00175258 0.00381057 0.0102049 0.00437534 0.0107379 0.00529145 0.00385589 -0.00345687 -0.00760837 -0.0105395 -0.0103278 -0.012987 -0.000748295 0.0155089 0.0117752 0.0279945 0.00885001 0.0158093 0.0117876 0.00325283 0.0258179 0.0185852 0.0228842 0.0265249 0.00999792 -0.00473787 0.00695832 0.00718529 0.000206186 0.00886598 0.00762887 0.000103728 0.00980456 0.00435214 0.00383373 -0.00137344 -0.01314 -0.0018561 -0.00187468 -0.00570562 -0.0125477 -0.0154064 0.00133886 0.00879266 0.0221949 0.0330709 0.0163064 0.019241 0.0126076 0.00886631 0.0391821 0.029095 0.00877018 -0.00560429 0.000386585 0.00325317 0.00845361 0.00649485 0.00123711 0.00399169 0.00214663 0.00815872 0.00108273 0.00464352 -0.00156056 -0.00351832 0.00326539 -0.00302597 -0.00791066 0.00125283 0.0120115 0.0205555 0.0158533 0.0284058 0.0100218 0.0125239 0.000959582 0.00257391 0.00907948 0.00921167 0.00602431 0.00532618 0.00510967 0.00185567 0.00783505 0.00896907 0.00216495 0.00402083 0.00653295 0.00487175 0.00168222 0.00807987 0.00531509 0.00125686 0.00039228 0.00588898 -0.00847335 -0.0152176 0.00192349 0.00477429 0.0154271 0.0244229 0.0314366 0.0219069 -0.0131673 -0.00732421 0.00127674 -0.00166105 0.00745292 0.00781738 0.00381443 0.000618557 0.0056701 0.00917526 0.00175258 0.00154639 0.000412072 0.00889239 0.00737988 0.00771561 0.00509136 0.0068516 0.00896023 0.0010843 0.00614181 0.00478014 -0.0028506 -0.00892666 -0.00688739 -0.00698219 -4.33179e-05 -0.000300758 -0.00716527 -0.00224152 -0.00168321 0.00677865 0.00935043 0.00745798 0.00412371 0.00164948 0.000824742 0.0028866 0.00237113 0.00103093 0.000721649 0.00391753 0.00216495 0.00759882 4.95204e-05 0.000170008 0.00443303 0.00759514 0.00694554 0.00382003 0.00965182 0.00390642 0.00292231 0.00633499 0.00270039 0.00691737 0.00885958 0.000753075 0.00926806 0.000782531 0.00430242 0.00618557 0.00701031 0.00958763 0.00731959 0.00752577 0.00762887 0.00268041 0.000309278 0.000515464 0.00505155 0 0.00896907 0.00154639 0.00721649 0.00484536 0.0071134 0.00133995 0.00700975 0.00721649 0.0028866 0.00525773 0.00123711 0.0014433 0.00247423 0.00824742 0.00618557 0.00175258 0.00453608 0.00628866 0.00257732 0.00164948 0.000412371 0.00412371 0.0028866 0.00917526 0.00958763 0.0101031 0.00886598 0.000416614 0.00927919 0.00651411 0.00166483 0.000643593 0.00993698 0.00432421 0.0051377 0.0029658 0.00145439 0.00551791 0.00758896 0.000825945 0.00969445 0.0070095 0.000479649 0.00441441 0.00134252 0.00752577 0.0057732 0.00907216 0.00556701 0.00443299 0.00525773 0.00814433 0.000618558 0.00876289 0.0072712 0.00988076 0.00168989 0.00482149 0.0078598 0.00905415 0.0106383 0.00604229 0.00353899 0.00245364 0.00174325 0.0024359 0.00538665 0.00997794 0.00547331 0.00154716 0.00528611 0.00416856 0.00225494 0.00154231 0.00865899 0.00917526 0.01 0.00701031 0.00412371 0.00608063 0.00896852 0.00270241 0.0029748 0.00604926 0.00788542 0.0108115 0.00652039 0.0113952 0.00643144 0.0108738 0.0104687 0.00561061 0.00636551 0.00327451 0.000884714 0.00577239 0.00789901 0.00256168 0.00757766 0.0100396 0.00812147 0.00975155 0.000967751 0.00186054 0.0028866 0.00412371 0.01 0.00277719 0.000819816 0.00657494 0.0091178 0.0039074 0.00696339 0.0121333 0.0162072 0.0151315 0.015632 0.0154878 0.00907677 0.00961855 0.00320244 -0.00397847 -0.00197074 0.00369224 -0.00212323 0.00450297 0.000434108 0.00337011 0.00655776 0.00381385 0.00141984 0.00270922 0.00948412 0.00216495 0.00195876 0.00484124 0.00813141 0.00665591 0.00893868 0.00806832 0.0155801 0.00755345 0.0169954 0.0145979 0.016657 0.00943684 0.00150328 -0.000988662 0.000369759 -0.00616568 -0.00646261 -0.00124846 0.000621922 0.000951819 -0.00430355 0.00199833 0.00153737 0.00655355 0.00238505 0.00808045 0.00803977 0.0102062 0.00494882 0.00669097 0.0112088 0.00407419 0.00211714 0.00965014 0.0119573 0.00543371 0.00696816 0.00775642 -0.00199026 0.000915844 0.00389157 -0.00357373 4.04384e-05 -0.00676653 0.000259368 -0.00826957 -0.00928229 -0.00372532 -0.0024204 0.00190307 0.00579537 -0.00030797 0.00319278 0.0101383 0.00609 0.00721649 0.00229453 0.00383074 0.0100525 0.0106211 0.007999 0.00617598 0.00366918 0.00852796 -0.00575216 -0.0083445 -0.00874196 -0.00708555 0.00448919 -0.00442953 -0.00102101 -0.00986642 -0.0149819 -0.0102157 -0.00427395 -0.00391009 0.000319765 -0.00281658 0.00524446 -0.000604694 0.0071436 0.00641606 0.00557347 0.00584917 0.00617938 0.00591805 0.00711205 0.0130062 0.00647601 0.00595903 0.00351527 -0.0060196 -0.00614565 -0.00794233 -0.0018504 0.00638539 0.00599926 0.00219767 -0.000612493 -0.00513151 -0.0166923 -0.00412902 -0.00456007 0.00222166 -0.000302465 0.00219907 0.00336663 0.00168238 0.00458456 0.00422775 0.00280584 0.00835052 0.0104345 0.00219551 0.0113551 0.01501 0.00275715 -0.00420431 -0.0110695 -0.00756205 -0.00645234 -0.00208588 0.00365838 0.00865741 0.000311276 0.0116334 -0.000900706 -0.00673007 -0.00200062 0.00138214 -0.00377942 -0.00126204 0.00694732 0.00411585 0.00220243 0.00847184 9.03384e-05 0.0102325 0.00459888 0.00907216 0.00650596 0.00946671 0.00576502 0.011592 0.00301108 0.00685435 -0.00606191 0.00241457 -0.00393467 0.00948247 0.00231021 -0.00434407 0.00708611 0.0136211 0.00447326 -0.0074378 -0.00578191 0.000936645 0.0015934 0.0101849 0.00633316 0.00493795 0.00589189 0.002095 0.00925714 0.00761851 0.00349256 0.00402062 0.00486404 0.00822419 0.00900606 0.0042146 0.0061079 0.00323901 0.000779725 0.00439199 -0.00150557 4.15027e-05 0.00539544 0.00669195 0.0112369 0.0093284 0.00480078 -0.00891298 -0.0113047 -0.0056789 0.00317353 0.00818541 0.00466528 0.00764978 0.0010984 0.00567565 0.00315107 0.00233357 0.000656331 0.00804124 0.00632948 0.000849468 0.00991216 0.0110795 0.00150578 0.00346741 -0.00470746 -0.00111488 0.0013101 -0.00392152 -0.00166179 -0.000476586 0.0098535 0.0158296 0.00844133 0.0053944 0.00258842 0.004636 -0.00435727 0.0011254 0.00558342 0.00381608 0.00874552 0.000968038 0.00821493 0.00879396 0.00173157 0.00484536 0.00384742 0.000887104 0.00675892 0.0049542 0.00495489 -0.00269935 -0.00766061 -0.0108764 -0.00590299 -0.0116385 -0.00460239 -0.000718233 0.00571127 0.0152024 0.00784153 0.00546994 -0.00434405 0.00192447 0.00349545 -0.00112937 0.00109088 0.00469275 0.00660288 0.00698991 0.00113291 0.00191744 0.0054581 0.00463918 0.00938391 0.00381699 0.000375119 0.00270296 -0.010176 -0.00845004 -0.00974891 -0.0145934 -0.0101506 -0.0114555 -0.00792734 -0.0148763 -0.00451073 -0.00279924 0.00434168 0.000652442 -0.000248627 -0.0014535 0.00704802 0.000797774 0.00228184 0.00630755 0.00465116 -0.00131685 -0.000303114 0.00289466 0.00855655 0.01 0.00454844 0.00881828 0.00284327 -0.000688949 -0.00195232 -0.00197888 -0.00635415 -0.0100625 -0.0169152 -0.00683466 0.00191431 -0.00965167 -0.00193798 -0.00506787 -0.00518892 -0.00712654 0.00444492 -0.000678442 0.0021488 0.00806411 0.00867938 0.0023034 -0.000484282 0.0032205 0.00796084 0.00933931 0.00897092 0.00350515 0.00960025 0.00660985 0.00515742 -0.00139643 0.00140738 -0.00496769 -0.00986599 -0.0140503 -0.00582975 0.000498052 0.000438872 0.00133221 -0.00360235 -0.00179789 -0.00305607 -0.00376451 0.000618919 -0.00422456 0.00732842 0.00761916 0.00967209 0.00927369 0.00468023 -0.00148332 0.00591643 0.00562129 0.00722251 0.01 0.00361066 0.00816935 0.00128111 -0.00200905 0.00196658 -0.00247601 -0.00150191 0.0011706 -0.00304739 -0.00241551 0.00728337 0.000829274 0.000222258 0.000947174 -0.00930358 -0.0144462 -0.00511599 -0.00086252 0.000814353 0.00298315 0.00537018 0.00981495 0.00355962 0.00140635 0.00517314 0.00475729 0.00423406 0.000824742 0.00979381 0.00340398 0.000849861 -0.0008408 -0.00285137 -0.00421673 -0.00103137 -0.00470986 -0.00129007 -0.0026572 0.00904042 0.000356051 -0.00479244 -0.00390716 -0.0113177 -0.0111857 -0.00197399 -0.000573026 0.00246218 0.00577892 0.00235657 0.00492118 0.00309095 -0.00321468 0.00164433 0.00485244 0.00246858 0.00453608 0.0038445 0.00391749 0.00760561 0.00450321 0.00324507 -0.0093573 -0.00335894 -0.00444071 -0.00263644 0.00164428 -0.0013741 0.003589 0.00300761 -0.00488825 -0.00971753 -0.0038777 0.00373479 -0.000147955 9.59384e-05 0.00115625 0.00803585 -0.000445182 0.00378573 -0.00296805 0.00328939 0.00936884 0.0059733 0.0028866 0.00864523 0.00382285 0.00598323 0.00326078 0.00271517 -0.000805405 0.00118068 0.000373138 -0.00756328 -0.000783388 -0.00230447 0.00266599 0.0051438 -0.00176619 -0.001224 -0.00251995 0.00739091 -0.0068677 -0.00653988 0.00465981 -0.000546025 0.00075857 0.00552517 0.00706036 0.000139034 0.00752656 0.0028866 0.00288445 0.00618489 0.00771982 0.00583212 0.00274107 0.00238056 0.000313036 -0.00140041 -0.0054941 -0.00809974 -0.00191669 -0.00402877 0.00393384 -0.00219629 -0.00368902 0.000879694 0.00713083 0.00743135 -0.0035867 0.00392969 0.000310014 -1.40407e-05 0.00105531 -0.00306922 0.00372481 0.00319884 0.00107042 0.0043299 0.00339997 0.00546324 0.00639393 0.00824549 0.00234486 -0.000181965 -0.00251985 -0.00401157 0.00246011 -0.00477807 0.00101814 -0.000929947 -0.00180793 -0.00205978 -0.0035094 0.00583564 0.00235826 0.00727271 0.00439724 0.00126801 0.000407727 0.00349308 0.00292341 -0.000188437 0.00917226 0.00679531 0.00732015 0.00762887 0.00731959 0.00484536 0.003254 0.0005699 0.0102197 0.000922213 0.000978551 0.00159705 0.00466224 -0.000516467 -0.00768361 -0.00675495 0.000353892 0.00285463 -0.000374993 0.006181 0.00944677 0.00477893 0.00761782 0.00120116 0.000423642 -0.00572299 -0.00413207 0.00482141 0.0076083 0.00483873 0.000909289 0.00371134 0.00494845 0.00896907 0.0020261 0.00778613 0.00583291 0.0100483 0.00658262 0.0107847 0.000440347 0.00483892 0.00611425 0.00664399 0.0014785 0.00447651 0.00319475 0.0128291 0.0052587 0.0105661 0.00478561 0.00593318 0.00454723 -0.00418316 0.00600847 0.000667361 0.00734302 0.00372852 0.00371134 0.00463918 0.00597938 0.00876289 0.00886937 0.00882294 0.00141123 0.00351667 0.00247229 0.00515228 0.0103214 0.00581521 0.000361599 0.00132695 0.000104766 0.00548292 -0.000143663 0.0138173 0.00937274 0.0107245 0.00380112 0.00564747 0.00926558 0.000651832 0.000939915 0.0081025 0.00728477 0.00412371 0.00494845 0.00237113 0.00237113 0.000206186 0.0057732 0.000926943 0.00485394 0.00570706 8.92224e-05 0.00709727 0.000947533 0.00739623 0.00287108 0.00202282 0.00969641 0.00418273 0.012422 0.00741029 0.00178204 0.00098255 0.00187525 0.00213992 0.00332593 0.00805263 0.00568029 0.00108359 0.00453821 0.00474227 0.00804124 0.00134021 0.00608247 0.00896907 0.00649485 0.00103093 0.0042268 0.00865979 0.0102352 0.00665049 0.00135023 0.0107667 0.0107554 0.0106995 0.00697212 0.00308001 0.00107061 0.00460298 0.00723057 0.0101814 0.0028816 0.00326128 0.0102272 0.00732435 0.00197413 0.00425083 0.00927835 0.0071134 0.00309278 0.000721649 0.00649485 0.00680412 0.00969072 0.00371134 0.00865979 0.000103093 0.00247423 0.0071134 0.000309278 0.00948454 0.0028866 0.000103093 0.00107396 0.00440462 0.00463918 0.00824742 0.00216495 0.00268041 0.00402062 0.00886598 0.0056701 0.00268041 0.00206186 0.000515464 0.00123711 0.00989691 0.0101031 0.00783505 0.01 0.00989691 0.00206186 0.00969072 0.00412371 0.00659794 0.00597074 3.28009e-05 0.00436753 0.00197603 0.00902111 0.00340307 0.00326617 0.000192802 0.00135133 0.00807601 0.00775189 0.00407575 0.00738199 0.000855083 0.00561202 0.0042338 0.00823847 0.00908823 0.000515464 0.000412371 0.00659794 0.00319588 0.00340206 0.00525773 0.00278351 0.00957913 0.00298677 0.00543747 0.00172015 0.00761437 0.00618209 0.00322789 0.00144798 0.00622257 0.00237417 0.00191759 0.000820166 0.00652527 0.00537423 0.00379476 0.00139227 0.00871633 0.00669977 0.00119561 0.00351275 -3.9599e-05 0.000426372 0.00547365 0.00938144 0.00608247 0.00226804 0.00515464 0.00876465 0.0050279 0.00304483 0.0047811 0.00664806 0.00437547 0.00558135 0.00542436 -0.000684193 -0.00462039 -0.00246356 -0.000706142 -0.0044432 0.00181451 -0.00437384 0.00200748 -0.000417756 0.000386964 0.00675103 0.00321859 0.00484754 0.0090397 0.0099013 0.0055092 0.00641475 0.00515464 0.00680412 0.00896907 0.0047483 0.00742532 0.00757693 -0.000745815 0.00600484 0.0015755 0.0080887 0.00624821 0.00160472 -0.0033355 0.00157797 0.00273782 0.00345692 0.00304817 -0.00461704 -0.00294772 0.000655992 0.00195852 0.00755398 0.00413391 0.00703575 0.0107199 0.00356943 0.00164682 0.00741129 -1.71888e-05 0.00969072 0.00536082 0.0097878 0.00375593 0.00279368 8.79163e-05 0.00832157 0.00398491 0.000507757 0.00687388 0.00655642 -0.00301293 -0.00132724 0.00133612 0.000267044 -0.00345188 -0.000956996 -0.00228264 -0.00340617 0.00208793 0.00488769 0.00952016 0.0116505 0.011355 0.00931516 0.00655508 0.00431697 0.00832455 0.0042268 0.00701018 0.00744132 0.00319842 0.00828265 0.00707615 0.00864912 4.67488e-05 0.00959364 0.00440774 0.0075315 -0.00124241 -0.00246276 -0.00440341 -0.0066825 -0.00724187 0.000587967 0.00495488 -0.00425987 0.00270613 -0.0025668 0.00531552 0.00958437 0.00843356 0.00505521 0.00167244 0.00436832 0.00400823 0.00701031 0.00947851 0.0017271 0.00487319 0.00950474 0.00830749 0.0115742 0.0101372 0.0111925 0.00829086 -0.0041203 -0.00298722 -0.00707159 -0.00627517 -0.00614748 -0.00873025 -0.00177508 -0.00408426 -0.00378817 0.00460676 -0.00166399 0.0011749 0.00828056 0.0126865 0.0119229 0.00988945 0.00111119 0.00250303 0.000789733 0.00730589 0.00213122 0.000764723 0.00489959 0.0107176 0.010219 0.0056163 0.00664056 0.00460713 -0.0066979 -0.00611813 -0.00823368 -0.00687529 -0.014265 -0.0086179 -0.00395894 -0.00449174 0.00281474 0.00293441 0.00607763 0.00387615 0.0131825 0.0126588 0.0132769 0.0106331 0.00370804 0.0074654 0.00278351 0.00424353 0.000367693 0.00312194 -5.67532e-05 0.0106522 0.0145076 0.000581836 0.00682461 0.00137588 -0.00553915 0.00368371 -0.00276761 -0.00751023 -0.00895537 -0.00931731 0.0015353 0.000814276 -0.00104147 0.000909234 0.0015007 0.00610676 0.0120772 0.012831 0.00818476 0.00816041 0.00168727 0.00494829 0.00237113 0.00447727 0.00369811 0.0106184 0.00998514 0.0137672 0.0059588 0.00402023 0.00316864 0.00347272 0.00691667 0.00196171 -0.00504271 -0.00667521 -0.00530411 0.000390783 0.00122671 0.00197719 0.000744025 0.0054286 0.00291566 0.0111738 0.013464 0.00750985 0.00232823 0.00114116 0.00151155 0.0064395 0.00845361 0.00292175 0.00406267 0.00274031 0.0122721 0.0121334 0.0095515 0.00236026 0.00629989 0.0102757 0.0135011 0.00940618 0.0034734 0.00412724 0.00489179 0.00829824 -0.0013409 -0.00674226 -0.00187623 -0.0054671 -0.00303601 0.00964998 0.00594715 -0.00245563 0.00689358 0.00416621 0.000478253 0.00589993 0.000618557 0.00142457 0.00351266 0.00765944 0.00258035 0.00779942 0.00603456 0.00897807 0.00671307 0.00962085 0.00517527 0.00400265 -0.000963151 -0.00620047 -0.00314082 0.00416922 -0.00227639 -0.00941131 -0.00666403 -0.00866705 0.00122711 0.00468895 0.00638258 0.00252329 0.00174197 0.00480585 0.0093007 0.00495186 0.0014433 0.00283883 0.00347618 0.00929279 0.00726076 0.0136689 0.00647301 0.00418999 0.0060877 -0.00134576 0.00475792 0.00466099 0.00118506 -0.00364578 -0.00998883 -0.00719045 -0.00746815 -0.0168771 -0.00574027 -0.00596511 0.00464295 0.002665 0.00300903 -0.00319761 -0.00140452 0.00742214 0.00289711 0.00830753 0.00216495 0.00896727 0.00319832 0.00466647 0.00588987 0.00712971 0.00175626 0.00169677 -0.00656423 -0.00690551 -0.00833182 -0.00256592 -0.00743969 -0.0110333 -0.00511432 -0.00780815 -0.00682792 -0.0105583 -0.00257623 -0.00884741 -0.00626024 0.00667649 0.00488074 0.00415733 0.0072195 -0.000569776 0.00644406 0.00834828 0.0056701 0.00401025 0.000846595 0.00136311 0.00457614 0.00450843 0.00121461 0.00111531 -0.00697419 -0.000853645 -0.00344877 0.00280918 -0.00707559 -0.00847476 -0.000106315 -0.0018677 -0.00859307 0.00406529 -0.000531504 -0.00603357 -0.00136824 0.00269751 0.00943793 0.00966546 0.000890676 -0.0015628 0.00519371 0.00315897 0.00412371 0.00720695 -0.000139717 0.00238116 -0.0027147 -0.00352183 0.00109103 -0.00301536 0.00505042 0.00102818 -0.00851152 -0.00241591 -0.000963901 -0.000587776 7.34164e-05 -0.00397334 0.00179004 0.00254291 -0.000927249 -0.00493299 0.00539007 0.00719288 0.00368396 0.00558413 0.00107932 0.000468622 0.00927698 0.00998649 0.00896907 0.00175062 0.0038886 0.00672926 0.00373023 0.00147034 0.00219033 0.000592067 -0.000885499 -0.00822553 -0.00513754 -0.00574923 -0.00680101 0.00125336 -0.00589495 -0.00113424 -0.000499364 0.00815444 -0.000451703 0.000607034 0.0031794 0.00108387 0.00632989 0.00366422 0.00347145 0.00769258 0.0060202 0.00721106 0.00113402 0.00175258 0.000507095 -0.000248521 0.00255316 -0.00036941 -0.00246331 0.00510387 0.000224442 4.86359e-06 -0.00479988 -0.00626997 -0.00280137 -0.000527021 -0.00437097 -0.00350335 -0.00354711 0.00304048 -0.0136263 -0.0146408 -0.00625018 0.00724587 -0.000154358 0.00225839 0.0102887 0.00837462 0.00232053 0.00771514 0.00917526 0.00444479 0.00900984 0.00616461 -0.00410047 0.000428574 -0.00162452 -0.0094848 0.00178539 -0.000185452 -0.00840977 -0.00502394 -0.0015007 -0.00799114 -0.0106593 -0.0118617 -0.00893803 -0.00910449 -0.00730956 -0.00628789 -0.000636491 0.003728 0.00849783 0.00267391 0.00817368 0.00701419 0.00741448 0.00391125 0.00721649 0.00225527 0.00524295 0.00200441 0.00142935 -0.00384431 -0.00841212 -0.00717994 -0.00106653 -0.0104748 -0.0130447 -0.00992741 -0.0111043 -0.00672001 -0.0104463 -0.011065 -0.00221734 -0.00969119 -0.00553112 -0.0052812 -0.0085249 0.00445703 0.0115683 0.00878229 0.00651445 0.00195861 0.00699762 0.00319588 0.00597628 0.00649387 0.00319042 0.00245182 0.0011472 0.00370934 -0.00726321 -0.00979873 -0.00673998 -0.0162931 -0.0137527 -0.0110201 -0.013724 -0.0140617 -0.0082961 -0.00778498 -0.00378591 -0.000440985 -0.00542275 -0.00271526 0.00243506 0.00873902 0.0038561 0.0142422 0.00904197 0.00783445 0.000215385 0.00824742 0.00453306 0.00577222 0.00332044 0.00430914 0.00332229 -0.00239809 -0.00114301 -0.00739244 -0.00234473 -0.00807756 -0.00704457 -0.00664376 -0.00911912 -0.00759925 -0.00607749 -0.00449915 0.00897776 0.00196907 -0.000316433 0.00440299 0.00773204 0.0138798 0.00470006 0.0151388 0.0131472 0.00734593 0.000857758 0.00783505 0.000824742 0.00381443 0.00389239 0.00363643 0.00428474 0.0071808 0.000434262 -0.00507868 -0.00521234 0.00174807 -0.00456459 -0.00744773 -0.00388239 -0.00273135 0.00229741 0.00524868 0.00897953 0.00343423 0.00141802 0.00895492 0.00349136 0.00362108 0.00610828 0.00762026 0.00886686 0.000494642 0.00567457 0.00319588 0.00268041 0.00164948 0.0053099 0.00122922 0.00598797 0.0055601 -0.00207326 0.00681095 -0.00173055 0.00435031 0.00445528 -0.00229512 -0.0002707 -0.00126185 0.00374187 0.00596995 0.00436391 0.0103506 0.00800467 0.00912045 0.00577161 0.00897881 0.00236403 0.000794877 0.0092018 0.00894769 0.00546392 0.00257732 0.0057732 0.00721649 0.00103019 0.00065239 0.00609376 0.00553404 0.00888233 0.00180608 0.00616121 0.00100396 0.00406801 0.00779921 0.00505733 0.00559313 0.00346365 0.00294641 0.0141516 0.00824509 0.00288929 0.00656649 0.00755316 0.00393231 0.00260578 0.00436594 0.00386204 0.00206186 0.00958763 0.0028866 0.00195876 0.00226804 0.00484536 0.00948392 0.00993149 0.00751936 0.000988895 0.000147471 0.00130978 -0.00135991 0.000491986 0.00830003 0.00181526 0.00401024 0.00708039 0.00488511 0.00490579 0.00771044 0.00899304 -0.000182205 0.0090399 0.00841261 0.00317639 0.00490658 0.00277756 0.00773196 0.00350515 0.00185567 0.00515464 0.00917526 0.00340206 0.00154639 0.00319588 0.000103093 0.00939748 0.00946618 0.00241889 0.00874465 0.00841236 0.00711219 0.0041466 0.00753204 0.00752637 0.0069005 0.00604702 0.00548978 0.00789382 0.00800293 0.00521057 0.00133513 0.00570161 0.00566227 0.000927835 0.0057732 0.00793814 0.00195876 0.00195876 0.00226804 0.00731959 0.000309278 0.00824742 0.00876289 0.00237113 0.00649485 0 0.00309278 0.01 0.00845361 0.00228544 0.00766696 0.00123711 0.000206186 0.00587629 0.00721649 0.00556701 0.00659794 0.00649485 0.00536082 0.00360825 0.00391753 0.000206186 0.00412371 0.00680412 0.00639175 0.00721649 0 0.00525773 0.00185567 0.000618557 0.00329897 0.00179792 0.00525751 0.00329672 0.00825058 0.00343355 -0.000217959 0.00199104 0.00221 0.00247831 0.00827958 0.0030354 0.00977075 0.0099488 0.000521707 0.00402515 0.00166159 0.00653981 0.00365461 0.0071134 0.00938144 0.00597938 0.00154639 0.00484536 0.00556701 0.00773196 -4.51385e-06 0.00597783 0.00627456 0.00115997 0.00652296 0.00430705 0.00395368 0.00455388 0.00505849 0.00647321 0.00139384 0.00928724 0.000820866 0.00259778 0.00139233 0.00720424 0.00771211 0.00360045 0.00442958 0.00305438 0.00718789 0.000997302 0.00357912 0.00907216 0.01 0.00185567 0.00917526 0.00597361 0.0082327 0.00276315 0.00944218 0.00107453 0.00387825 0.0101087 0.0032551 0.00841747 0.00766161 0.00278453 0.00375499 0.00474881 0.00480104 0.00191726 0.00417648 0.00515866 -0.000821022 0.0030441 0.00923441 0.00107203 0.00877596 0.00382476 0.00599123 0.00700845 0.00123711 0.00835052 0.0028866 0.00338231 0.00637646 0.00594778 0.00349217 0.00543606 0.00305679 0.0042114 0.00617352 0.0117691 0.0110989 0.00454702 -0.000434352 0.000784882 0.0048191 0.000209571 0.00407039 0.00224249 0.00292385 0.00554457 0.00494283 0.00545807 0.00312069 0.00360932 0.00729198 0.00880351 0.00340924 0.00134021 0.000412371 0.000201592 0.006194 0.0022576 2.14562e-05 0.00346918 0.00134287 -0.000691644 0.0098813 0.00530813 -5.54136e-05 -0.00113296 -0.00451262 0.00250809 -0.00435725 0.0028196 -0.00131255 6.0965e-06 0.000647761 -0.000746826 -0.00249778 -0.00235395 0.000257957 0.00454314 -0.000216867 0.000291207 0.00671164 0.00268041 0.00309284 0.00853594 0.009523 0.00562636 -0.00189512 0.00623482 0.000466606 0.000189376 0.00424297 0.00468178 -0.00376643 0.00111016 -0.002416 -0.00266026 -0.00126339 -0.00276406 0.00019305 -0.00561961 -4.50946e-05 -3.11313e-05 0.000644407 -0.00275267 0.00101436 -0.000247138 0.00605463 0.00285971 0.00159106 0.00412371 0.00794152 0.00896985 0.00750205 0.00776292 0.00160506 -0.0013183 0.00117328 0.00149902 -0.00169701 -0.00260659 -0.000385704 1.78156e-05 0.0018197 0.00278073 -0.00675254 -0.00786294 -0.00754344 -0.0124487 -0.00272547 -0.00226199 0.00371376 -0.00388179 0.0026647 -0.00192407 0.00472843 0.00476755 0.00476529 0.00298032 0.0020537 0.00848653 0.000347194 0.00797511 -0.000418331 -0.00361238 0.00265887 -0.00512263 0.000485803 0.00235962 -0.00549932 -0.00504932 0.00279751 0.00214577 -0.00898284 -0.0019476 -0.0107169 -0.0145832 -0.00548881 -0.00559203 0.00139122 0.00213088 -0.00256877 -0.00246103 0.00671178 0.00812911 0.00831498 0.00670103 0.00702312 0.00890697 0.00999494 -0.00105778 -0.000276408 -0.00510001 0.00318956 -0.00130442 -0.00412436 -0.00462457 0.000918804 0.00153115 0.00279236 -0.000983348 0.00150568 -0.00354628 -0.00769909 -0.00390218 -0.00413686 0.000398104 -0.00162698 -0.000821665 -0.00638206 0.00153209 0.00889093 0.00779186 0.00697161 0.00113402 0.00925839 0.00971155 0.00409779 -0.00193921 -0.000411951 0.00105779 -0.00224125 -0.00525208 -0.0100807 -0.00951372 -0.00440323 0.00253833 -0.00525841 -0.000172608 -0.0028775 -0.00624519 -0.00961506 -0.00331695 -0.00592684 -0.00308657 0.00413061 -0.000651999 0.00289416 0.00703109 0.00747547 0.00246091 0.00492057 0.00474227 0.0020485 0.003904 0.00323908 0.00680404 -0.00279799 0.00207885 0.00202418 -0.00746774 -0.00946398 -0.00701562 -0.00694971 0.00033698 0.00204109 -0.00069435 -0.00461082 -0.0120935 -0.0110921 -0.000913779 -0.00436776 0.00309849 -0.000644901 0.00112208 0.0064689 0.00539019 0.00648981 -0.000112275 0.00060713 0.00783505 0.00389662 0.00380331 0.00327414 0.0076283 -0.00387679 -0.00318315 -0.00569752 -0.00425072 -0.0129188 -0.00825438 -0.00417638 -0.00215366 -0.00416668 -0.00718352 -0.00897809 -0.0107823 -0.00466019 -0.00271992 -0.00641655 0.000413952 0.0028456 -0.00125313 0.00196652 0.0101573 0.00407838 0.00484306 0.010123 0.0042268 0.00803585 0.00436826 0.000183203 0.00280301 0.00508066 -0.00312544 -0.00830959 0.00122127 0.000334759 -0.00234325 -0.00147534 -0.00409391 0.0065347 -0.00624781 -0.00728394 -0.00181837 -0.00450747 -0.00336591 -0.00749 0.00437814 0.0043354 -0.00166161 0.0031257 0.00396762 0.00724815 0.00459302 0.0043182 0.00938144 0.00267622 0.00430938 0.00799458 0.0089559 -0.00316473 -0.00198563 -0.00382275 0.00140686 0.00110895 0.00207358 