0.000309278 0.00587629 0.00670103 0.00628866 0.00649485 0.0043299 0.00608247 0.0102062 0.00639175 0.00391753 0.00206186 0.00845361 0.00495559 0.00846923 0.00804124 0.0071134 0.00762887 0.00216495 0.00340206 0.00226804 0.00969072 0.0101031 0.00628866 0.01 0.00164948 0.00979381 0.00237113 0.00463918 0.0102062 0.00226804 0.00917526 0.00525773 0.000412371 0.00969229 0.00673944 0.00893696 0.00618182 0.00909811 0.00217979 0.00809581 0.00827244 0.0055152 0.00943824 0.00935767 0.00644553 0.00726738 0.00859416 0.00564085 0.00749596 0.00687637 0.0047879 0.00970482 0.00525773 0.00216495 0.00175258 0.00938144 0.000515464 0.00835052 0.00278351 0.00206681 0.00371304 0.00557702 0.00698006 0.00676512 0.00495746 0.00302432 0.00783732 0.00234654 0.000305673 0.00214358 0.00896159 0.00255634 0.00121576 0.00905764 0.0064099 0.00755809 0.00197167 0.00774075 0.00797848 0.000977791 0.00936514 0.00452174 0.0028866 0.00546392 0.00969072 0.00804124 0.00195784 0.00888602 0.00454685 0.00697819 0.00899773 0.000546862 0.00585668 0.00191656 0.00456968 0.00775305 -0.000657272 0.00110222 -0.00171229 0.00102676 0.00464158 0.00400059 0.0111311 0.00174503 0.00305597 0.00406654 0.00805952 0.00570671 0.00712892 0.00380617 0.00670058 0.00979381 0.00814433 0.00113402 0.00700745 0.00949033 0.00447567 0.00186189 0.00497962 0.000188904 0.00478124 -0.00107734 0.003272 -0.0031754 -0.00102603 -0.00721025 -0.00583965 -0.0025542 0.00669184 0.00683377 0.00690111 0.00358163 0.00340742 0.00119651 0.00839932 0.00889795 0.00255327 0.00370862 0.00548302 0.00650384 0.00618557 0.00154639 0.00412586 0.00840027 0.00736168 0.00907372 -0.00181953 0.0018212 -0.00321738 0.00206304 -0.000668755 -0.00194364 -0.0116818 0.000898454 0.00114111 -0.00067863 -0.00231798 -0.00260912 -0.00150646 0.00629633 0.00693731 0.00269759 0.00665598 0.00609972 0.00483796 0.00743481 0.00739878 0.00991074 0.00587629 0.00989662 0.00955464 0.00794153 -0.00110968 0.00397532 0.00618859 -0.000337035 0.00102379 -0.00546585 -0.00220557 0.00327222 -0.00745345 0.00413961 0.00587632 -0.00301783 -0.00270855 -0.00547863 -0.00746702 -0.00677291 -0.00384907 -0.000714494 0.00635509 0.00899536 0.00209762 0.00938901 0.0094756 0.0093046 0.000103093 0.00607572 0.00609627 0.00833487 0.00318602 0.00371486 -0.000661573 -0.000584536 0.000105999 -0.00247826 0.00102114 -0.00283967 0.0021107 0.00850712 0.0052063 0.00545831 0.000179898 0.000634218 -0.00553425 -0.000342064 -0.00125785 0.000471861 0.00748559 0.00964432 0.00197367 0.00964336 0.00111837 0.00413901 0.00777671 0.00809275 0.00424776 0.0100564 -0.000541814 0.00738717 -0.000331567 -0.00168522 0.00572013 -0.000602914 0.00300983 0.00777531 0.00873464 0.00153148 0.000141951 -9.72246e-05 0.00707715 -0.00194806 -0.00149 -0.00265552 -0.000287209 -0.00184522 0.00347302 0.00227059 0.0121993 0.00195298 0.00174421 0.00237779 0.00896907 0.00902179 0.00203099 0.00197004 0.00290889 0.0016739 0.0095666 0.00748806 0.00386563 0.00558836 0.00801328 0.00795012 0.0010623 0.00765537 0.00875775 -0.00183739 -0.00549029 -0.00872632 -0.00298648 -0.00200268 0.000654572 -0.00129194 0.000576058 0.00140817 0.00753005 0.00189156 0.00571211 0.00198467 0.00618557 0.00573317 0.00626885 0.00563775 0.00594721 0.00599658 0.00593396 0.00736841 0.0065689 0.00320241 0.00846112 0.00510992 0.00304898 0.0106455 0.00453619 0.00440591 0.00157509 -0.00652105 9.89572e-05 0.00405966 0.00294652 -0.0082975 0.00146886 0.00943247 0.00767177 0.0047753 0.00433233 0.00742825 0.000721649 0.00924191 0.00968516 0.00245871 -0.00226678 0.00444613 0.00210165 0.0130693 0.00817879 -0.00265789 -0.00623612 -0.00159787 -0.00325462 0.00652209 0.00232598 0.00757452 0.00190934 0.00416234 0.00937981 0.000977453 0.00255451 -0.000282354 0.00186635 0.0123983 0.00873746 0.00124399 0.000327156 0.00557509 0.000824742 0.000120422 0.0013989 0.00199094 0.0023724 0.00401236 0.00152228 0.00292341 0.00272701 -0.00598803 -0.00960626 -0.000805006 0.00264743 0.00322654 0.00249245 0.00296771 -0.00106216 0.00292068 0.00341698 -6.67727e-05 0.00465443 -0.000747023 0.000507775 0.0112136 0.0140587 0.0112976 0.00569762 0.00579777 0.00896907 0.00752348 0.0102931 0.00493458 0.00334488 0.00301546 0.00518428 0.00755274 -0.000176732 -0.00600028 -0.00592565 -0.00199376 0.00150977 -0.00396029 -0.00706819 -0.00154518 -0.00833769 -0.0088035 -0.0028714 -0.00164049 -0.00564276 0.00258095 0.00350608 0.0115081 0.0136409 0.00527583 0.00976154 0.000309278 0.000521555 0.00267349 0.00423724 0.00301296 0.00743658 0.0130372 0.00802341 0.00578926 -0.00764086 -0.00264763 -0.00935685 -0.000919937 -0.00729485 -0.00380415 -0.0097401 -0.00521862 -0.00867253 -0.00695851 -0.00662112 -0.00559726 -0.00944792 -0.00251415 0.00351898 0.00681375 0.0137327 0.00968034 0.00752399 0.00597938 0.0102082 0.00380667 0.00968503 0.00427552 0.00337274 0.0135538 0.0090124 0.0102254 -0.00563342 -0.00661947 -0.00707102 -0.00987241 -0.00298399 -0.0147229 -0.0137469 -0.0081611 -0.0113734 -0.0126468 -0.00492512 -0.00599881 -0.00193416 -0.00713047 0.00198019 0.00980679 0.0135261 0.00798733 0.00159817 5.47468e-05 0.00690722 0.00494431 0.00767696 0.00665983 0.00898251 0.00384384 0.00870513 0.0036398 0.00280522 -0.00218629 0.000841413 0.00193831 -0.00705251 -0.00157777 -0.00624459 -0.00422401 -0.01558 -0.00920809 -0.00784026 -0.00359881 -0.00915883 -0.00309058 0.00900702 0.0163607 0.00843767 0.00500894 0.00145505 0.00631261 0.00350515 0.0089678 0.000496097 8.98862e-05 0.0134307 0.00605045 0.00970263 0.00292134 -0.00529463 0.00187229 0.00564739 0.00112774 0.00597892 0.000837594 0.000337418 -0.00114125 -0.00930203 -0.0080443 -0.0104647 -0.00369617 -0.00252843 -0.00534444 0.00936731 0.00632056 0.00119441 0.00665688 0.00993913 0.00277869 0.00804124 0.00783505 0.00767417 0.00601957 0.00311044 0.00950694 0.00309378 -0.00303389 -0.00275734 0.00443297 0.0012173 0.0037912 -0.00187498 0.0020006 -4.75726e-05 0.00136933 -0.00668346 0.0042369 -0.00844915 -0.00509692 -0.00010885 0.00254698 0.00315241 0.00248546 0.00119729 0.00313739 0.0056318 0.0098416 0.000515464 0.00559589 0.00192697 0.00629014 -0.00122034 0.00844207 0.00229882 -0.00512226 -0.00535803 0.00398629 0.00288202 -0.00307263 0.00330731 0.00430207 0.00189234 -0.00533127 0.000140218 0.00523572 0.00190495 0.00199849 -0.000712142 0.0042867 0.00906744 0.00404803 -0.00188296 0.00427176 0.00487736 0.0101899 0.00876289 0.00125005 0.0073475 0.00267799 -0.000312121 0.00561095 0.00662845 -0.0024825 -0.00652985 -0.00447575 -0.00278252 -0.00156323 -0.00201829 -0.000454398 -0.00524666 0.00163411 -0.00273225 0.00191672 -0.000478911 -0.00985861 -0.00732117 -0.000651802 -0.000957091 -0.00491125 -0.000797459 0.00644946 0.0097803 0.00103497 0.00824742 0.000103093 0.00371284 0.00525957 0.00779923 0.00443679 0.00215966 -0.00510588 0.00244355 0.00372775 0.0038109 -0.00402557 -0.00181198 0.00508724 -0.00388929 -0.00286514 0.00190887 0.00273471 -0.000856175 -0.00746174 -0.00272761 -0.0104853 -0.00423144 0.00452808 0.00191122 0.00844642 0.00109102 0.00752577 0.00402062 0.00969072 0.00401249 0.00885097 0.00581633 0.00287772 0.00153537 0.00389361 0.00444447 0.00328923 -0.00248932 0.00275802 -0.00120221 0.00145255 0.00178126 -0.00263033 0.00120627 0.00251389 0.000225144 -0.00308698 -0.00329228 -0.00343092 -0.00384616 0.000643463 -0.00123274 0.0040072 0.00507783 0.00958763 0.0043299 0.00463918 0.00925285 0.00244991 0.000647033 0.00481393 0.00716946 0.000466608 0.0014821 0.00429728 0.00887594 -0.00021617 0.00972648 0.0105426 0.00428628 0.00205455 0.00109355 -0.000125669 -0.00354716 -0.00447694 -0.00213111 -3.47159e-05 0.00194672 0.00929194 0.00340106 0.00807347 0.00578356 0.00938144 0.00443299 0.00546392 0.00899739 0.00647668 0.00936914 0.00416625 0.00166509 0.00198614 0.00245938 0.00690397 0.00247339 0.00936752 0.00741191 0.0045846 0.00138807 0.00395387 0.00415882 0.000505647 0.00281399 0.000956243 0.00123483 0.00155334 0.0040123 0.00948394 0.00918761 0.00913087 0.00803483 0.00505155 0.00494845 0.00103093 0.00556701 0.00444643 0.00424903 0.00543095 0.0042374 0.00606234 -0.000128706 0.000425449 0.00649139 0.00345279 0.00380957 0.00527181 -0.00144512 0.00347728 0.00169254 0.00284157 0.00387439 0.00152268 0.00408842 0.00664234 5.74846e-05 0.00493851 0.00188244 0.00329328 0.00525093 0.00752577 0.00515464 0.000927835 0.00206186 0.00824744 0.00777374 0.00805264 0.00669624 0.000289664 0.00289731 0.00322319 0.00702698 0.00432263 0.00627635 0.00918365 0.00627806 0.00609094 0.00501986 0.00356467 0.00605429 0.00766178 0.00135757 0.00797502 -0.000253083 0.00887095 0.00247748 0.00268041 0.00340206 0.00484536 0.00443299 0.00113402 0.00525773 0.00154639 0.0101031 0.00505348 0.0101093 0.00587297 0.00339158 0.00947656 0.0057262 0.00734548 0.00597338 0.00789213 0.00253575 0.00686098 0.00926727 0.00716903 0.00663208 0.00662434 0.000981331 0.00190747 0.00355122 0.00375187 0.00742268 0.0043299 0.00804124 0.00546392 0.000618557 0.0101031 0.00309278 0.00360825 0.000824742 0.00154639 0.00639175 0.00793814 0.00536082 0.00773196 0 0.00278351 0.00979506 0.0061883 0.00659794 0.00515464 0.00329897 0.00134021 0.00329897 0.00690722 0.00360825 0.00278351 0.00113402 0.0085567 0.00659794 0.00670103 0.00536082 0.00783505 0.00876289 0.00371134 0.0028866 0.000103093 0.00175258 0.00896707 0.00529756 0.0087292 0.00755631 0.000578903 0.00740041 0.00973762 0.00302423 0.009552 0.00335764 0.00707213 0.00591739 0.00980171 0.0031834 0.00609184 0.00237113 0.00566098 0.00320078 0.00898218 0.00123711 0.000412371 0.00185567 0.00391753 0.00319588 0.00865979 0.0014433 0.00999592 0.00896767 0.00985562 0.010247 0.00887845 0.00428376 0.00909982 0.00440338 0.00738745 0.00286226 0.00926462 0.00759272 0.000940761 0.00804436 0.00360088 0.00724214 0.00152921 0.0086324 0.00252714 0.00985162 0.00973435 0.0102238 0.00516323 0.00350515 0.00268041 0.00443299 0.00845361 0.00535337 0.0100918 0.00264103 0.0057778 0.00239455 0.00787948 0.00994217 0.00280554 0.00459874 0.00960464 0.00626691 0.00725692 0.00636639 0.000485011 0.00655942 0.00294304 0.00756623 0.00143505 0.00787388 0.00356553 0.00926361 0.00453263 0.000307007 0.00506523 0.0061862 0.00278351 0.00659794 0.0014433 0.00574848 0.0082436 5.27555e-05 0.000747657 0.00254877 0.00163419 0.00279904 0.00590838 0.00783691 0.012507 0.00945716 0.00124165 0.00334605 -0.00194479 -0.0050245 -0.00387535 0.00572123 0.00500217 0.0075405 0.00693312 0.00360107 0.00334123 0.00345883 0.00616092 0.00213915 0.000417487 0.00515464 0.00690722 0.00752481 0.00813557 0.00214886 0.00957162 0.0103197 0.00535168 0.00486121 0.00927239 0.0072601 5.07748e-05 0.00436051 -0.00328359 -4.22171e-06 0.00274771 -0.00417922 0.00113135 0.00191597 0.00285459 -0.00394325 -0.000936631 0.00693379 0.00781192 0.00890387 0.00186081 0.00811632 0.00320319 0.00371134 0.00587643 0.00348553 0.00733371 0.00905846 0.00579316 0.00980329 0.00493636 0.00447673 0.00704926 0.0026456 -0.00419181 0.00260389 -0.00510047 -0.00425893 -0.0057644 -0.00330206 -0.00139102 -0.0109294 -0.00539538 -0.00412884 -0.00332737 0.00199262 0.00154384 0.00885509 0.00826627 0.00290117 0.00708196 0.00979381 0.00589566 0.00821081 0.0104683 0.00772376 0.00919679 0.00289382 0.00356657 0.0048229 0.00614662 0.00122929 0.0023566 -0.00184143 0.000168343 -0.00265318 -0.00777214 -0.00727414 -0.00673191 -0.00407919 -0.00532756 -0.00079737 0.00122541 -0.00275041 0.00184384 0.00448487 0.00831335 0.00422647 0.0025247 0.00315924 0.00831514 0.00289835 0.00532181 0.0121201 0.00167645 0.00442367 0.00109934 0.00690828 0.00524738 -2.57966e-05 0.00377274 -0.00568408 -0.0038068 -0.00452932 -0.00992184 -0.00184276 -0.0038599 -0.00516747 0.000921373 -0.0019087 -0.00187425 -0.000162957 0.00367594 0.00469253 0.00489345 0.00238573 0.00726934 0.00670103 0.00291721 0.00226061 0.00869354 0.00337052 0.00807319 0.00502177 0.00382697 -0.0027921 0.00311428 0.00502895 -0.00296284 0.00254478 -0.00263832 0.00464007 -0.0028288 -0.00609124 -0.00501886 -0.00427444 -0.00071114 -0.00125218 -0.0017645 -0.0011937 -0.00441399 -0.00170217 0.00452309 0.00273404 0.00448024 0.00917526 0.0049406 0.00841704 0.000613325 0.00513722 0.00241156 0.00117591 -0.00324976 0.000608935 -0.000477357 -0.00300468 -0.00113405 -0.0013989 -0.000336623 0.00248006 0.00191477 -0.00129632 0.000890911 0.00396551 0.000888226 -0.00232254 0.00473873 0.00615894 -0.00357035 0.00503524 0.00929115 0.00150133 0.0087228 0.00659794 0.00733853 0.00273973 0.00187831 -0.000669877 0.00462654 0.00356353 -0.000879752 -0.00438138 -0.00965313 -0.00118944 -0.00166636 -0.00512588 -0.00268018 -0.00475595 -0.000796932 -0.00237943 -0.00624003 0.00286327 0.000635365 -0.000545648 0.00578146 0.000466185 0.00516507 0.00705417 0.00331543 0.00112209 -3.84033e-05 0.00948454 0.00572423 0.00154518 -0.000133713 0.00245807 0.00202354 1.5504e-05 -0.00036516 0.00184938 -0.0113442 -0.00436011 -0.00227753 -0.0099516 -0.00922748 -0.0038065 -0.00741758 -0.00766929 -0.0048199 0.0019355 -0.00559464 0.0012476 0.00156116 -0.000559654 0.0046382 -0.000506275 0.00516526 0.00223845 0.00413428 0.0043299 0.0023946 0.00127459 0.00286244 -0.00164628 0.00438517 -0.00801413 -0.00495731 -0.00433246 -0.00171398 -0.00798287 -0.00970224 -0.00180931 -0.00855398 -0.00194495 -0.00926765 -0.00413766 -0.00782078 -0.00605235 -0.00511923 -0.00243462 -0.00127309 0.00292637 0.00400501 0.000326883 0.00791922 0.000973776 0.00536082 0.00247213 0.00939122 0.00745646 0.0083313 0.00570023 0.00087743 -0.00438413 -0.00561253 -0.00573229 -0.004892 -0.0073654 -0.00275318 -0.00730834 -0.00878107 -0.00930696 -0.00832241 0.00152571 0.0017133 0.00374898 0.00690651 0.00535125 0.000571246 -0.00101395 -0.000400861 0.00680411 0.00868809 0.00235861 0.00701031 0.0045354 0.00403199 0.00987101 0.00928715 0.00396198 -5.75091e-05 -0.00178258 -0.00389739 -0.00712876 -0.00272355 0.00291635 -0.00099354 -0.00222485 -0.00682354 -0.00654019 -0.000778539 -0.00398343 0.00204421 0.00152532 0.00757655 0.00276595 0.00688458 0.00719697 -0.000102782 0.00210592 0.00836608 0.00240304 0.00263615 0.0057732 0.00886706 0.00836713 0.00188554 0.00186014 0.00455175 0.00809442 -0.00139524 -0.0040182 0.00391297 0.00401562 -0.00557727 -0.00647265 -0.00227303 -0.00346328 0.005485 0.00227249 0.00394478 0.00418031 0.00236957 0.00132333 0.00688982 0.000718108 0.00314777 0.0101316 0.00928142 0.00343449 0.00397373 0.00659794 0.00608407 0.00279253 0.0104213 0.00133869 0.00258399 -3.59213e-05 -0.00290293 0.0019914 0.00371759 -0.00148642 -0.00152659 -0.0029393 0.0030749 -0.00350509 0.00260459 0.0038374 0.0057661 0.0102171 -2.35805e-05 0.000771815 0.00527095 0.00188096 0.000206485 0.0113931 0.0116904 0.00623827 0.00101332 0.00546392 0.000927835 0.0038756 0.00937922 0.00901014 0.00574874 0.0026537 -0.00153222 -0.00193492 -0.00215477 -0.00646736 -0.00514852 0.000924585 0.00434436 -0.00152654 -0.0027331 0.000213169 0.00243036 0.00249607 -0.00139291 0.00203638 0.00432117 0.00227264 -1.75172e-05 0.00585286 0.00880505 0.0102952 0.00944172 0.0085567 0.00547015 0.00592696 0.0037301 0.0122745 0.00916732 0.00208799 -0.00230577 0.00172729 -0.000535161 -0.004718 0.00153168 0.00202777 5.35054e-05 -0.00187252 -0.000796342 0.00195401 0.000402979 -0.00389929 0.000294332 -0.00509018 0.00355724 0.00341292 0.00924453 0.0095169 0.00362792 0.00803106 0.00199178 0.00536082 0.00399923 0.00541225 0.00349882 0.00371022 0.0104295 0.00240982 0.00349059 0.00104728 -0.00605714 -0.000416985 -0.00237657 0.000732577 0.00304724 0.0033382 0.00394149 0.00332832 -0.00401226 0.00257045 -0.00293695 -0.00253063 0.00402212 -0.000151346 0.00858269 0.001724 0.000950599 0.00538962 0.00989529 0.00474227 0.00639175 0.00350994 0.00986858 0.00903521 0.00537157 -0.000498153 -0.00323917 -0.00558751 -0.000865138 -0.00836258 0.00107248 -0.000374203 0.000417819 0.00441833 -0.00435513 0.0037801 0.00226649 -0.00183882 -0.00285381 0.00214364 0.008699 0.00739715 0.0079164 0.00903544 0.0019221 0.00107884 0.00670103 0.00391753 0.00515464 0.00614424 0.00428908 0.00470034 0.00903512 -0.00302296 0.00229248 0.00129194 0.000322156 -0.00605326 0.00305807 0.000708293 -0.000470157 -0.00515742 -0.00902552 -0.00482227 -0.00708903 0.00180183 0.000461779 0.00682561 0.00587342 0.00267921 0.010505 0.00403689 0.00117476 0.00427532 0.00845361 0.00639175 0.00608247 0.00136348 0.0069723 0.00701625 0.00173673 0.00664104 0.00862334 0.0098817 0.00456758 0.00821035 0.00504934 -0.00110587 -0.000632534 -0.00931633 -0.00848181 -0.0028553 -0.00543846 0.00485488 0.00518015 0.00360756 0.00170511 0.00678208 0.00900838 0.0101722 0.00335006 0.00721767 0.00195876 0.00762887 0.00113402 0.00248893 0.00706033 0.00779633 0.0101887 0.0028182 0.00402417 0.00305848 0.00428367 0.00539107 0.00695394 0.000656403 0.00317518 0.00278654 -0.00088546 -0.00098146 -2.29706e-05 0.00738544 0.00127293 0.00692415 0.00322656 0.00246093 0.0013605 0.00719122 0.00728968 0.00856575 0.00505155 0.00804124 0.0014433 0.00876289 0.00577309 0.00496491 0.00869257 0.00970386 0.00587037 0.0114493 0.0080857 0.00493448 0.0110836 0.00929277 0.00237556 0.00646038 0.00275065 0.00963816 0.00644288 0.00160543 0.00626453 0.00102888 0.00582658 0.00105964 -2.2946e-05 0.00651671 0.00660597 0.00701992 0.0043299 0.00278351 0.00618557 0.00247423 0.0072164 0.00884029 0.00968954 0.00252985 0.00808319 0.00728693 0.00722176 0.00428891 0.00611845 0.00478679 0.00931609 0.00608421 0.00518184 0.00802498 0.00154448 0.00792707 0.00585504 0.00265283 0.00503558 0.00480712 0.00887484 0.00917576 0.00319588 0.00515464 0.00608247 0.00969072 0.00907216 0.00453608 0.00494845 0.00494845 0.00268365 0.00949057 0.00787494 0.00918247 0.00521448 0.00965525 0.00320741 0.00305974 0.00623242 0.0094026 0.000355813 0.0025472 0.00317253 0.0100267 0.00972648 0.00300008 0.00295412 0.00385726 0.00220495 0.00659794 0.00103093 0.00814433 0.00639175 0.000412371 0.00989691 0.00865979 0.00979381 0.00515464 0.00474227 0.00773196 0.00226804 0.00587629 0.00103093 0.00824742 0.0056701 0.00813867 0.00617318 0.00845361 0.00546392 0.0101031 0.00979381 0.00773196 0.00639175 0.00608247 0.00721649 0.00309278 0.0014433 0.00494845 0.0057732 0.00649485 0.000824742 0.00618557 0.00536082 0.00948454 0.00680412 0.00463918 0.00422754 0.00811911 0.00184474 0.000225349 0.00444795 0.00247066 0.00669331 0.00133656 0.00677715 0.00351562 0.00570387 0.00703517 0.00764466 0.00881051 0.000239437 0.00733497 0.00480719 0.00485812 0.00947828 0.00505155 0.00391753 0.00329897 0.000824742 0.0101031 0.00154639 0.00298969 0.000833963 0.00825059 0.000353082 0.00474791 0.00519833 0.00306945 0.00529418 0.00680523 0.00251525 0.0106142 0.00471306 -0.000323682 -0.00578049 -0.0167599 -0.0233308 0.00033478 0.00847977 0.000350629 0.00505915 0.00688516 0.00726455 0.00568376 0.00684405 0.00237113 0.000618557 0.00340206 0.00360825 0.00783498 0.00445666 0.000462283 -0.00323364 -0.00771362 -0.0024969 -0.00976469 0.00149375 0.0167973 -0.0056711 0.000940697 0.0125561 0.0176813 0.0229881 0.0203668 -0.00492295 -0.0210985 -0.0148363 -0.0131597 -0.00429225 0.00531258 0.00239649 -0.000119104 0.00612473 0.00361426 0.00113402 0.00773196 0.0057732 0.0065981 0.00350164 0.00343573 0.00467231 0.0106356 0.0216452 0.00718198 0.0164773 0.00154941 0.00773938 0.022692 0.0229274 0.0242813 0.019771 -0.00174219 -0.0078189 -0.0238155 -0.0254534 -0.0213782 -0.0132064 -0.00147132 -0.00140022 0.00430623 0.002008 0.00546433 0.00699969 0.00154639 0.00783505 0.00257997 0.00201047 0.00299047 -0.0107997 0.015705 0.0196961 0.0287758 0.0320744 -0.00585303 -0.01808 0.0158716 0.0314146 0.0167038 0.00614665 -0.00642142 0.0115887 -0.00948676 -0.03606 -0.0402423 -0.0204404 -0.0115021 -0.000778013 0.00575865 0.000522137 0.00543117 0.00864383 0.00525773 0.00999988 0.00929234 0.0102851 0.00118585 0.00341202 0.0111895 0.0135425 0.00559146 0.00117079 0.016833 0.0304438 0.0215508 0.008647 0.00698009 -0.00932547 0.0106375 0.0231383 0.0200311 -0.0322048 -0.0657264 -0.0268422 -0.00400503 -0.00623616 -0.00235042 -0.000973695 0.00196761 0.000156885 0.00402062 0.00248026 0.0108336 0.00940411 0.00969166 0.00712416 0.0131413 -0.00983699 -0.0099704 0.0231929 0.0152348 0.0239561 0.0256549 -0.000674006 0.0140807 0.0260774 0.00742283 0.00915699 0.0328697 0.00864106 -0.0491186 -0.0386868 -0.0069567 -0.0145199 -0.00329593 0.00466402 0.00124676 0.00282989 0.000980467 0.00293245 0.00692044 0.00628818 0.0159272 -0.00673493 0.0154195 0.00321111 -0.00762402 0.0161563 0.0171896 -0.0171129 -0.00328612 -0.0152452 0.0121722 0.00467441 -0.0127169 0.00540057 0.0207504 0.0346254 -0.0069494 -0.0343963 -0.0222366 -0.0062646 0.000212253 0.00291813 -0.000776182 0.00421568 0.000618557 0.00879046 0.0063811 0.00377638 0.000104044 0.0082844 0.0168649 0.0016965 0.000499985 0.00069844 0.000239986 -0.0329774 -0.0399056 -0.0150768 -0.0418248 -0.0392195 -0.0247181 -0.00180418 0.0190931 0.0456212 0.0282783 -0.0162391 -0.0376504 -0.0122991 0.000144398 0.00568681 0.00497134 0.00371538 0.00948454 0.0101217 0.00560924 -0.0023974 0.00278299 0.015953 0.0186786 0.00898241 -0.00478723 -0.0248325 -0.0276907 -0.0224384 -0.0273024 -0.0322546 -0.046643 -0.0444097 -0.0380443 -0.0330318 0.000660467 0.0293215 0.0123594 -0.00780693 -0.027135 -0.0141442 -0.000215861 0.0093274 0.000204962 0.00650806 0.00917526 0.00138769 0.00369009 0.00352462 -0.00562789 0.0136081 0.0115334 -0.0035118 -0.0284883 -0.0170841 -0.0075661 0.0132345 -0.00422201 -0.0159423 -0.0481096 -0.0687189 -0.073045 -0.0542253 -0.0102359 0.0489196 0.017223 -0.00849773 -0.0184325 -0.0142506 0.00425779 0.0048304 0.000637948 0.00145873 0.00175258 0.00948706 0.00331146 0.00525379 0.0047308 0.0039858 0.00440273 -0.0283162 -0.040815 -0.00394904 0.027415 0.0301468 0.0131735 -0.00548123 -0.0563038 -0.0807894 -0.0698459 -0.0519786 -0.0129476 0.0552049 0.0169353 -0.00622562 -0.0321066 -0.0136638 0.00403936 -0.00197891 0.00622031 0.0095275 0.0102062 0.00466933 0.00296971 0.00518295 0.00680481 0.00665101 -0.00082545 -0.0341738 -0.0351214 0.00154099 0.0295515 0.0153524 -0.0151804 -0.0367634 -0.0651671 -0.0837682 -0.105896 -0.0592275 0.00527323 0.0376925 0.0276946 -0.0137273 -0.0253419 -0.0273189 0.000181402 0.00596502 0.00953956 0.00268041 0.00958778 0.00200047 0.00857328 0.00421083 0.00806664 0.0130519 -0.0130244 -0.0297012 -0.0103186 -0.00202511 0.0127928 0.0208356 0.00815107 -0.0313464 -0.0567241 -0.0888067 -0.0832334 -0.0611617 0.010159 0.0390929 0.0193091 -0.0189042 -0.0348458 -0.0233071 0.00280363 0.00569644 0.0111002 0.00226804 0.0078351 0.00265191 -0.00224451 0.0104207 0.00346457 0.0056894 -0.00918967 0.00278343 -0.00562569 0.00270898 0.0160489 -0.00534649 -0.013409 -0.0335672 -0.0576323 -0.0790002 -0.0750975 -0.0502827 0.00932287 0.0392716 0.0151918 -0.0119529 -0.0412539 -0.0296855 -0.00270182 0.00378688 0.00754719 0.00571015 0.00876289 0.000300441 0.000956518 0.00153236 0.00793785 0.0144331 -0.000619845 0.0137921 0.00218689 0.0103205 0.0181339 0.00655528 -0.0348349 -0.0436361 -0.0595624 -0.040995 -0.0292739 -0.0275267 0.0134546 0.0295873 0.0230996 -0.00815127 -0.0325905 -0.0149523 -0.0031992 0.00366188 0.00994323 0.00912742 0.0014433 0.00707496 -0.000818704 -0.0039245 0.007752 0.00554847 0.00428561 0.00656068 -0.0142501 0.00421067 0.0372588 0.0196202 -0.0407281 -0.0521451 -0.0386635 -0.00397103 -0.00931157 -0.00700878 0.0109039 0.0169314 0.000138987 -0.0202324 -0.0324466 -0.0106675 0.0100734 0.0176622 0.00721903 0.00495135 0.00752577 0.00525773 0.00310426 -0.0139558 -0.00669261 -0.00414493 -0.0204039 -0.0116435 -0.00728878 0.00338584 0.0279694 0.0122195 -0.010692 -0.0476695 -0.0406212 -0.0159148 -0.00941146 0.00038357 0.044697 0.00145523 -0.00973648 -0.00261382 0.00283601 0.0187374 0.0216141 0.0167411 0.0107113 0.00972155 0.0085567 0.0048057 0.00599525 -0.014966 -0.0187032 -0.0236348 -0.0196439 -0.00676522 -0.000123897 -0.0191278 -0.0135067 -0.00269261 0.020887 -0.0134819 -0.0448872 -0.0306115 -0.0248473 0.038273 0.0360816 -0.00690869 0.00417132 0.00552514 0.0164179 0.0153285 0.0127011 0.00815361 0.00952753 0.0106008 0.00597938 0.0053031 0.011156 -0.000107378 -0.0146236 -0.0207806 -0.0217487 -0.0164564 0.0037588 0.00101238 -0.0121669 0.00349931 0.0125734 -0.00116362 -0.0224921 -0.0277215 0.0112998 0.0373321 0.0252825 0.0154068 0.00835484 0.0298362 0.00344102 0.0172322 0.0114364 0.0105752 0.00863573 0.00783318 0.000618557 0.00752577 0.0100347 0.0164629 0.00435073 -0.0241406 -0.0296285 -0.0289309 -0.00895586 -0.0248922 -0.0296073 0.0071539 0.023461 0.0302052 0.039759 0.050714 0.0595676 0.0359713 0.00900182 0.00300688 -0.00749764 0.0103592 0.00436268 0.0201826 0.011169 0.00862565 0.00949757 0.00731959 0.00216495 0.01 0.0145006 0.0135651 0.00793866 -0.00101611 -0.00489847 -0.00919588 0.00140458 -0.0256904 -0.00463614 0.0236328 0.0225753 0.0262941 0.0344628 0.0250196 0.0312493 0.0266625 0.016333 -0.00830727 -0.0021078 0.00985423 0.0143029 0.0167983 0.00560616 0.00401323 0.00364771 0.00216495 0.00814433 0.00556701 0.00267675 0.00715221 0.0010721 0.000141456 -8.11509e-05 0.00487199 0.00359719 -0.0211139 0.0110136 0.0428929 0.046201 0.0256439 0.0265792 0.0145999 0.0134565 0.00724594 -0.0280213 -0.0102429 -0.00712172 0.0074606 0.0148496 0.0159032 0.00285445 0.00851329 0.0100885 0.00917526 0.00969072 0.00329897 0.000365153 -0.00162804 -0.0101515 -0.00623362 -0.0085033 -0.0135248 -0.00448213 -0.0129382 -0.0115382 -0.00943479 0.00339581 -0.0148804 -0.00582408 0.00492004 0.0058982 0.00187917 0.00368874 0.0059861 0.00549626 0.0054167 0.00785344 0.0126307 0.00240339 0.0100721 0.0065247 0.00979381 0.00680412 0.0102062 0.0102062 0.000990672 0.00531699 0.000506644 0.00219356 0.000697034 0.00483837 0.000151317 -0.0132428 -0.00906892 -0.0142679 -0.016796 -0.0193055 -0.015445 -0.00738651 0.00944728 0.0089536 0.00368599 0.00395426 0.00161836 0.000144788 0.0008665 0.00641791 0.00353167 0.0102379 0.00371134 0.00237113 0.00268041 0.00164948 0.00360844 0.00108412 0.00584875 0.00360553 0.00932949 -0.000293914 0.00565384 -0.0019178 0.00448254 -0.00293475 0.00589826 0.00649058 0.000119679 0.00327701 0.00174546 0.000558669 0.00863766 -0.000194267 0.00733859 0.00378 0.00213158 0.0042263 0.00164948 0.00329897 0.00618557 0.000927835 0.00216495 0.00670103 0.00670103 0.00175258 0.000724475 0.00381775 0.00491928 0.000460124 0.00940239 0.00671336 0.000487724 0.00244597 0.00686336 0.00893256 0.00230753 0.00408807 0.00651 0.00191744 0.00514836 0.00639648 0.00499475 0.00798795 0.00132999 0.00453608 0.00278351 0.00154639 0.00628866 0.00536082 0.00814433 0.00845361 0.0043299 0.00773196 0.000206186 0.01 0.00762887 0.00298969 0.00938144 0.00917526 0.00226804 0.00515048 0.0084445 0.00865979 0.00762887 0.0085567 0.00453608 0.00670103 0.00515464 0.00587629 0.00783505 0.00505155 0.00670103 0.00608247 0.00474227 0.00907216 0.000515464 0.00958763 0 0.000927835 0.0043299 0.00402062 0.00824678 0.00586272 0.00121729 0.00629687 0.00753949 0.000738716 0.00930226 0.0029073 0.00312823 0.004626 0.00810474 0.000740261 0.00939894 0.00688925 0.00450714 0.00966449 0.0076154 0.00865269 0.00947368 0.00731959 0.00628866 0.000309278 0.00319588 0.00742268 0 0.0028866 0.00515589 0.00793857 0.00923576 0.002063 0.00491761 0.00411629 0.00656985 0.00342854 0.00483558 0.00424059 0.0025969 0.00553904 0.00419547 0.00269601 -0.00153019 0.0020387 0.00371694 0.00724664 0.00481581 0.00423971 0.00410455 0.00793754 0.00206125 0.00742268 0.00639175 0.00402062 0.000824742 0.00309031 0.00185596 0.0102701 0.000321611 3.80714e-05 0.00988263 0.00143992 0.00821477 0.00715472 0.00397749 0.00738058 0.000158953 0.00717164 0.00729891 0.00597425 0.000454525 0.00855424 0.00251167 0.00169856 0.00715542 0.00519993 0.00579036 0.00849556 0.00978576 0.000616771 0.00680412 0.00185567 0.0057732 0.00803236 0.00690217 0.00672787 0.00591858 0.00262397 0.0098991 0.00518586 0.00727763 0.00647299 0.00305278 0.00196042 0.00209071 0.00424952 -0.00389984 0.00103754 -0.000353695 0.00662338 0.00527771 0.00769198 0.00683715 0.00159599 0.00509067 0.00380521 0.00457678 0.0100019 0.00876247 0.00958763 0.00618557 0.00319143 0.000296509 0.00394455 0.00909067 0.00119655 0.00107953 0.00621342 0.00618942 0.00294181 0.00772579 0.00214572 0.00262187 -0.000893521 0.00458875 0.00332112 -0.000227095 0.00574103 -0.00030489 0.00293728 0.00178216 0.00266661 0.00705314 0.00186495 0.00176308 0.00228151 0.00711298 0.00979381 0.00144338 0.00034563 0.000853562 0.00372002 0.0027353 0.00947182 0.00147709 0.00836801 -0.000186899 0.00251017 0.00252053 -0.00113389 0.00254337 0.0034532 -0.00518904 0.00178244 -0.00257475 -0.00541487 -0.00397737 -0.000464927 0.00259502 0.00370302 0.00788987 0.0031426 0.0086282 0.00527332 0.00216741 0.00865979 0.000112463 0.00111656 0.00931407 0.00895688 0.00487528 0.000958022 0.00225322 0.00483082 0.00477065 0.00149918 -0.000384576 0.00157035 0.00400817 -0.0068329 -0.00459317 -0.00325457 -0.00435094 0.00216643 0.000441858 0.000229184 0.00861291 0.00457858 0.000940076 0.00600536 0.00312422 0.00476471 0.00257839 0.00217907 0.00250478 0.00210618 0.000270198 0.00488072 0.0081803 0.00169138 0.000204524 0.00618707 -0.00101726 -0.00472863 -0.00268328 0.00135263 -0.00332951 0.00200207 0.00407989 -0.000729294 -0.00486845 -0.000316584 0.00328354 0.00568057 0.00657152 0.00357877 0.00942989 0.00582067 0.00352785 0.00344216 0.00928115 0.00309278 0.00883092 0.00838223 0.00855059 0.00114379 0.00936526 0.00112574 0.00636262 0.00595219 -0.00177329 0.000114208 0.00295118 -0.00503844 -0.00185166 -0.00251128 -0.00344716 -0.00386935 -0.0035337 0.00359687 0.00666789 0.00761964 0.00294618 0.00766867 0.00273492 0.00403664 0.00698465 0.0098475 0.00692705 0.00453608 0.000432176 0.0103904 0.00243119 0.00193516 0.00421541 0.00621813 -0.0024903 0.0029576 -0.00522034 -0.00300414 0.00292416 -0.00516267 -0.00184447 0.0023327 -0.00177769 0.00196361 -0.00828377 0.000627055 -0.0032298 0.00682567 0.00040121 0.0100347 0.00818807 0.00321318 0.000746686 0.00230105 0.000221867 0.00948454 0.00861341 0.0065507 0.00841497 0.00368277 0.000228079 0.00189706 0.00293069 0.00560884 0.000967341 -0.00784093 -0.00360838 -0.00446815 -0.0068149 -0.00426861 -0.00379652 -0.00372859 -0.00246443 -0.00646081 -0.00570309 -0.002349 -0.00222512 0.00879663 0.00519455 0.0010821 0.000974351 0.00522995 0.00258512 0.00525773 0.00901002 0.00913358 0.00312814 0.0041003 0.0043873 -0.0011353 -0.00175869 0.00485529 0.00184632 -0.0044091 0.00100581 -0.00144546 -0.0023854 -0.00781799 -3.22815e-05 -0.00431874 -0.00497938 -0.00939596 -0.00471235 -0.00139613 -0.000147295 0.00371667 0.00670716 0.00805601 0.0056596 0.00964146 0.00650312 0.00443299 0.00206668 0.00765172 0.0037767 0.00720925 0.00395614 0.00133982 0.00688969 -0.00181775 0.00210076 -0.00198578 -0.00433224 -0.00265134 -0.00645197 -0.00709338 -0.00421461 -0.00972884 -0.0128606 -0.00534989 -0.00534633 0.0017548 -0.00131882 0.00556279 0.0055666 0.0038984 0.00961364 0.0101457 0.000515464 0.000620145 0.00783655 0.00483809 0.00488205 0.000890325 0.00972671 0.00314531 0.00563644 -0.00110011 -0.00123956 -0.00848857 -0.00957463 -0.0115314 -0.00535315 -0.0111959 -0.00891423 -0.017342 -0.0145475 -0.00533233 0.00160587 -0.00600931 0.00557237 0.00631296 0.00851052 0.00386576 0.00197813 0.00515119 0.00340206 0.00711392 0.000518307 0.00740656 0.00499205 0.00428499 0.00292671 0.000507275 0.00482227 0.00422779 0.00208 -0.00187878 -0.00495522 -0.0113672 -0.00729886 -0.00715799 -0.00767892 -0.0147542 -0.00280128 0.000851173 -0.00415093 -0.00164292 0.00180261 0.0103035 0.011516 -0.000459911 0.00561588 0.00713213 0.00895543 0.00525773 0.0100016 0.00296202 0.0056125 0.00343933 0.00237276 -0.00225136 0.00554078 -0.00103801 -0.00539844 -0.0006305 -0.00633172 -0.00796186 -0.00427437 -0.00297963 -0.00743947 -0.0044585 -0.00522208 -0.000628951 0.000677493 0.00186968 0.00489361 0.00289109 0.00403098 0.00912641 0.00851505 0.00388563 0.000290381 0.00391753 0.000619047 0.00554527 0.0011731 0.00406342 0.00594151 0.00639934 0.00311082 0.0020871 0.000826672 -0.0058391 -0.00427014 -0.00300228 -0.00565238 -0.00873898 -0.000482205 -0.00511939 -0.00552408 -0.000955288 -0.00276096 -0.0033361 -0.000482037 0.00338809 0.00512169 0.00766422 0.00456881 0.00345166 0.00144923 0.000309278 0.00886598 0.00451195 0.00685668 0.0101127 0.00588826 0.00769038 0.00178699 -0.0010334 0.00278834 -2.95818e-05 -0.00357306 -0.000298776 -0.00055483 0.000391812 -0.00422435 -0.00341198 0.00112176 -0.000493204 -0.00329945 0.000255641 0.00331624 0.00843122 0.00710693 0.000263026 0.00620577 0.00959943 0.00234182 0.00969072 0.00611134 0.00873944 0.00327697 0.00808658 0.00684257 0.00750833 0.00257548 -0.00293786 0.00498567 0.00334518 -0.0014856 -0.00128437 -0.00620619 0.000825447 -0.00705583 -0.00674608 -0.00443503 -0.00487495 -0.00619416 0.00801187 0.00348383 0.00237334 0.00803429 0.00632264 0.00470453 0.00708332 0.00824008 0.00412371 0.00815487 0.00872072 0.00610248 0.00225119 0.0079724 0.000773136 0.00524887 0.00115856 -0.00246691 -0.00145612 -0.00373768 0.000112011 -0.00619344 -0.00560836 -0.0126792 -0.00611436 -0.00733486 0.00203328 -0.00117101 0.00627519 0.000406145 0.000871898 0.00342474 0.00735713 0.00164566 0.00565659 0.0071135 0.00783505 0.00690722 0.0005589 0.00576311 -0.000457619 0.00725055 0.0028864 0.000887059 0.00147186 -0.00266783 -0.00123927 -0.000298974 0.00132762 -0.00507481 -0.00545195 -0.0109482 -0.00153616 -0.00737716 -0.00555312 0.00659909 0.00353459 -0.00228445 0.00559956 0.00772323 0.00560599 0.00821551 0.00496733 0.00917526 0.000206186 0.00412371 0.00690259 0.00497668 0.00916488 -0.000862701 0.00250622 0.00228128 0.00158272 -0.00226121 -0.0031285 -0.00304108 -0.00275872 -0.00347337 -0.00526682 0.000396506 0.00559962 0.00818185 0.00605695 0.00281856 0.000438427 2.83345e-05 0.00451313 0.00665673 0.00653557 0.0065132 0.00681384 0.00938144 0.00103093 0.0043299 0.00783313 0.00542944 0.00135223 0.00405111 0.00172954 0.00539768 0.00344625 -0.000618943 0.00251224 -0.00297788 0.00654984 0.00502215 0.000461767 0.00254909 0.00793156 0.00503034 0.00268564 0.00934983 0.00500479 -1.6746e-05 0.00256121 0.00725326 0.00731711 0.00862641 0.00278129 0.00185567 0.00298969 0.00175258 0.00704395 0.00543083 0.00458521 0.00973629 0.00552039 0.00631674 0.00384281 -0.00172654 0.00131372 0.001095 -0.00148846 0.00618767 8.29669e-05 0.00340714 0.000190852 0.00550172 0.00495556 0.0080352 0.00280633 -0.000998535 0.00173207 -8.62152e-05 0.0083888 0.0088583 0.00123439 0.00494845 0.00226804 0.00298969 0.00453608 0.00383253 0.00164735 -0.000516605 -0.000467265 0.00439218 0.00899124 0.00112772 0.00638005 0.000592196 0.00910815 0.00111609 0.00260064 0.00697934 0.000354481 0.00248437 0.000146753 0.00945185 0.00203321 0.00623806 0.00261329 0.00277515 0.00585884 0.00185325 0.00958474 0.00206186 0.00814433 0.00309278 0.00979381 0.00917487 0.00122093 0.00185572 0.0038019 0.00408344 0.00848699 0.00259887 0.00360687 0.00742269 0.00693349 0.00880968 0.000426158 0.00845211 0.00207707 0.00648666 0.00408716 0.00740943 0.00302202 -0.00032583 0.000619326 0.0038434 0.00298862 0.00793814 0.00865979 0.00412371 0.00134021 0.00360825 0.00484536 0.00556701 0.00525773 0.0100048 0.00887143 0.00692749 0.00527269 0.009674 0.00332452 0.00527257 0.00910683 0.00649596 0.00822414 0.00846659 0.00267866 0.00944079 0.00784727 0.0025725 0.00806502 0.00886704 0.00506301 0.00336247 0.01 0.000309278 0.00123711 0.00340206 0.0042268 0.00845361 0.00237113 0.00927835 0.000618557 0.0014433 0.0102062 0.0057732 0.00762887 0.00896907 0.00175258 0.00969072 0.00083504 0.00651739 0.000412371 0.00958763 0.00886598 0.000412371 0.0071134 0.00484536 0.000412371 0.00185567 0.000103093 0.00515464 0.00824742 0.00670103 0.00412371 0.00690722 0.000412371 0.00783505 0.00742268 0.00721649 0.00216495 0.00897357 0.00906505 0.000584888 0.00103061 0.00232036 0.0062808 0.000943892 0.00180658 0.00143384 0.00535089 0.0079195 0.00506965 0.00386705 0.0073589 0.0043016 0.00749699 0.00883044 0.000351724 0.00703101 0.00278351 0.00886598 0.00371134 0.00742268 0.00670103 0.000618557 0.000515464 0.00866203 0.00567087 0.00569391 0.00513373 0.00811453 0.00666062 0.00696457 0.00521378 0.00781006 0.00346335 0.00453138 0.00480346 0.00366839 0.00706538 0.00373114 0.00610821 0.00019865 0.00567305 0.0102831 0.00230136 0.00662082 0.00196088 0.0100894 0.00268041 0.00948454 0.00701031 0.00371134 0.00504577 0.0017628 0.00433728 0.00466765 0.00456724 0.00412913 0.00589203 0.00331947 0.0115964 0.00581936 0.00352206 0.00674169 0.00820334 0.00194642 -0.000972471 0.00245291 0.00279342 0.00341492 0.00586697 0.00946035 0.00407341 0.00735004 0.00820383 0.00357071 0.00411405 0.00773196 0.00731959 0.000515464 0.00822924 0.00690793 0.00513346 0.00329949 0.00769667 0.00112355 0.00118852 0.00514729 0.00811958 0.00565704 0.00647706 0.000702137 0.00303322 0.00389581 -0.00110829 0.00179313 -0.00195316 0.0055522 0.0078564 0.00819006 0.00886415 0.00153621 0.00900309 0.000229849 0.00624593 0.00228047 0.00329897 0.000721649 0.00350902 0.00387796 0.00318871 0.00754487 0.00164174 -0.000894113 0.00908051 0.00732524 0.000700416 -0.00226777 0.00279482 -0.00559051 -0.00097258 -0.0025876 0.00165561 0.000403048 0.00212093 0.00360595 -0.0019673 0.000156632 0.00440457 0.0013435 0.00121892 0.00708612 0.00928437 0.00805974 0.00391753 0.00536099 0.00117153 0.00751504 0.00836754 0.00326881 0.00531179 0.00758636 0.000684491 0.00123177 -0.00296198 -0.00262262 0.0026481 -0.00248307 -0.00967104 -0.00647789 -0.0102693 -0.00891573 -0.00482789 -0.00467244 0.00211072 1.62418e-05 0.00314241 0.00262774 0.00862124 0.00950694 0.00865931 0.00976978 0.0071134 0.00342442 0.00333359 0.00391769 0.0101422 0.00450611 0.00784886 0.00613276 0.000796879 0.00605603 -0.00285948 0.0031904 -0.00985208 -0.00593594 -0.00613848 -0.00852042 -0.0055683 -0.00855175 -0.00474055 -0.00637391 -0.00389919 -0.00159419 0.000429324 0.0026977 0.00111505 0.00410215 0.0035059 0.00572311 0.000130241 0.00903107 0.00832643 0.00832614 0.0048163 0.0077193 0.000861641 0.0103771 0.00797167 0.00794922 0.00181251 -0.00121749 -0.00520045 -0.0060707 -0.00123649 0.0011823 0.000324376 -0.00773184 -0.00553371 -0.00493067 0.000624732 0.00317533 0.00326733 0.00364259 0.00811162 0.00528596 -0.000153733 0.00886087 0.00896907 0.00492531 0.0112137 0.00206912 0.00578191 0.00744808 0.00709466 0.00746526 0.000732545 0.00587495 -0.000848889 0.00264628 0.000135535 -0.00429412 -0.00180364 0.00523648 0.00102748 0.000952671 -0.00355442 -0.000827301 0.00391903 0.00123296 0.000403141 -1.54298e-05 0.00560844 0.00633396 0.0065539 0.00190667 0.0042268 0.00835711 0.00722048 0.00403963 0.0109654 0.00854457 0.0075375 -0.00139596 0.00771223 -0.00421787 -0.00818561 0.000915867 -0.00336023 0.00109935 -0.000874679 0.0079574 0.00694827 -0.00382054 0.0038158 -0.00239733 0.00098454 0.00428701 0.00739567 0.00245754 0.00364156 0.00787044 0.00137016 0.00224523 0.00536082 0.00390797 0.0107454 0.0112883 0.00590405 0.00738229 0.00869218 0.010343 0.0057192 -0.00767064 -0.00772071 -0.00338054 -0.00536877 0.00305525 0.00383652 0.00105955 -0.0032617 -0.00470608 -0.00476571 0.00136094 -0.00186793 0.00141906 0.00315619 0.00231713 0.0107944 0.0100174 0.0068632 0.00173251 0.00618557 0.00563393 0.0039909 0.0100472 0.00205285 -0.00264615 0.00351766 0.00536833 0.00241291 -0.00438631 -0.00325275 0.00244386 -0.00464082 -0.0042964 0.00133071 -0.00405194 -0.00497813 -0.00608394 0.00221383 -0.00543727 -0.00191189 -0.00189484 -0.00299055 0.0106754 0.00887012 0.0101289 0.00453833 0.00497528 0.00721649 0.00786892 0.00236708 0.00695013 0.00138455 -0.000484094 0.00412889 0.00401106 0.00136961 -0.00541739 -0.00881214 -0.0029378 -0.00248636 -0.00744689 -0.00732376 -0.00235507 -0.00170808 -0.00211599 -0.00146821 -5.65621e-05 0.000513959 -0.0012652 -1.49806e-05 0.00718425 0.0131502 0.00326234 0.00492108 0.00938144 0.000622186 0.00402685 0.00324125 0.0037175 0.00396109 0.00985501 0.0141701 0.00771302 0.00069665 -0.00333349 -0.00838899 -0.00973729 -0.00858404 -0.00661971 -0.0102375 -0.00279027 -0.00344446 -0.00644544 -0.00110696 0.00364162 -0.00341303 0.00463535 0.0056685 0.0031841 0.0106135 0.00805104 0.00716345 0.00896907 0.00969191 0.00897915 0.00995024 0.00671009 0.0035793 0.000917818 0.0128283 0.00934891 -0.000311537 -0.00601065 -0.000710777 -0.00817902 -0.0102423 -0.013567 -0.00519498 -0.00810563 -0.0076334 0.00115529 0.00395354 0.000101348 0.00231757 5.56367e-05 0.00863144 0.0108255 0.00820081 0.00337966 0.00298622 0.003588 0.000618557 0.00165351 0.0034841 0.00750909 0.005732 0.00472681 0.00437122 0.00337082 -0.00089896 -0.00326224 -0.00794472 -0.00323188 -0.000424644 -0.00695056 0.00150509 -0.00138629 -0.00237184 -0.00221631 0.000191255 -0.00166615 -0.00336474 0.00390213 0.00377138 0.00807604 0.00325412 0.00266802 0.00377389 0.00461119 0.00340206 0.00536244 0.00507528 0.00308069 0.00582184 0.00809239 0.00401165 -0.000804118 0.00313681 0.00327889 -0.00043499 -0.00367932 -5.79283e-05 -0.00182876 -0.00275565 0.00332853 -0.00569407 -0.00531412 -0.00118213 0.00181473 0.00111839 0.00362926 -0.000150128 0.00135185 0.00456632 0.00618073 0.00446649 0.00080865 0.000824742 0.00278351 0.00622078 0.00386703 0.0081188 0.00712186 -0.00176911 0.00281689 0.00655393 0.00232986 -0.00162474 -0.00269235 0.00316293 0.000282501 -0.00362287 -0.00151212 -0.00735137 -0.00345136 0.00624892 0.0050865 0.00100438 0.00145347 0.00631079 0.00799297 0.000882515 0.00251329 0.000945878 0.0068809 0.00917526 0.00366982 0.00674538 0.00351875 0.0090861 0.00633134 0.00254633 0.00200783 0.00387037 -0.00204132 -0.000732914 -0.00312322 0.000953612 0.00505475 0.00539338 -0.00835807 -0.000880491 0.00371815 -0.00287276 0.00140864 0.000777263 -0.00137573 -0.000498556 0.000369517 -0.000807112 0.00413183 0.0080167 0.00906259 0.00845361 0.00206462 0.0053997 0.00709921 0.00318874 0.000631453 -0.00174329 0.00588228 -0.00438635 0.00178106 -0.00369856 0.000273989 -0.00126496 0.000300434 0.00346684 -0.00653977 0.00101033 0.000908301 0.00410601 0.00283082 -0.000364708 0.00465514 -0.00443495 -0.00245412 0.000442039 -0.000296546 0.0053769 0.00804127 0.0056701 0.00278351 0.010259 0.00608218 0.00640275 0.00365567 -0.0027221 -0.00387388 -0.00438699 -0.00684956 0.00339544 0.00345341 -0.00161366 -0.00027895 0.00267296 -0.00702726 0.00168902 0.00515823 0.00170131 0.0032516 0.00404852 -0.00340836 -6.21711e-05 0.00280242 0.00743569 0.00836114 0.000251351 0.00773196 0.00835052 0.00175258 0.00971005 0.0030406 0.00756641 0.00852679 0.00597901 0.00135481 -0.0032798 -0.00158769 0.00282196 0.00125196 -0.00391544 -0.0055527 -0.00845542 0.0031654 0.00681098 0.0032848 0.00583909 0.000608261 -0.00290075 0.00134416 -0.00154891 -0.00204323 0.00129223 0.00962659 0.00873894 0.00515464 0.00412371 0.00268041 0.00711195 0.00562669 0.00146325 0.00150572 0.000676039 0.00366938 -0.00151471 -0.00559509 0.000903907 0.00374281 0.00260498 0.00323643 0.0019604 0.00429757 0.00898083 0.000181639 -0.000416393 -0.00308453 0.00277636 0.00117272 0.00129879 -0.00169531 0.00507605 0.00482527 0.0010149 0.00701031 0.000309278 0.00350515 0.00583817 0.00409314 0.0034057 0.00594235 0.00921296 0.00228879 0.00598823 0.0053352 0.0015167 -0.0021431 0.00772596 0.000108718 0.00191445 0.00937638 0.00839313 0.00259996 -0.000936837 0.00248845 0.00505118 -0.00131937 0.00693669 0.00916589 0.00401314 0.00474094 0.00556629 0.00670103 0.00350515 0.00680412 0.00969072 0.000644894 0.00509706 0.00731326 0.0097426 0.00253457 0.0108289 0.00134823 0.00454477 0.0100425 0.00442543 -0.000650851 -0.000129128 0.00624356 0.00499151 0.00955291 0.00443225 0.00637305 0.003374 -0.00112351 0.0039542 0.00559198 0.00140242 0.00690658 0.00938068 0.00958763 0.00463918 0.00649485 0.00886598 0.00999892 0.00103193 0.00551715 0.00380394 0.00172645 0.0067224 0.00226335 0.00839783 0.000527721 0.00299048 0.00844056 0.00257981 0.0104634 0.00386327 0.00427587 0.000575891 0.00964434 0.000480362 0.00117846 0.00785121 0.00708292 0.0101004 0.00948454 0.00402062 0.000206186 0.00515464 0.0056701 0.00402062 0.00587629 0.00329897 0.00639931 0.00794713 0.0027613 0.000492046 0.000384121 0.00812129 0.00306556 0.00228166 0.00801707 0.00572297 0.010036 0.0103712 0.00179432 0.00125649 0.00298277 0.00285092 0.00773391 0.0030287 0.00849289 0.00484536 0.00515464 0.00443299 0.000927835 0.00494845 0.00412371 0.00587629 0.0056701 0.00463918 0.00958763 0.00505155 0.000515464 0.00195876 0.00536082 0.00659794 0.00752577 0.000298306 0.00791413 0.00762887 0.00381443 0.000824742 0.00216495 0.00474227 0.000721649 0.00360825 0.00164948 0.0071134 0.000103093 0.0102062 0.00917526 0.00917526 0.0028866 0.0014433 0.00762887 0.00536082 0.00989691 0.00907216 0.00824485 0.00570774 0.00136087 0.0057573 0.000592985 0.00889202 0.00933123 0.00881817 0.00733663 0.00300402 0.00547551 0.0013949 0.00454714 0.00170031 0.00294217 0.00850483 0.00683699 0.0021224 0.00947181 0.00886598 0.000206186 0.00865979 0.00608247 0.00226804 0.00453608 0.00989691 0.00968739 0.00144215 0.00883776 0.00191026 0.00290718 0.00547809 0.000385491 0.00905221 -0.000337345 0.000297167 0.00482421 0.00243407 0.00162211 0.00445996 0.00417241 0.00289026 0.00173077 0.00653544 0.00335009 0.00550312 0.00956048 0.0015899 0.00345217 0.00185567 0.000721649 0.00402062 0.00639175 0.00299255 0.00256738 0.00121817 0.00548855 0.00800104 0.00299315 0.00865532 -0.000460062 0.00923034 0.0031072 0.00686038 -0.000658858 0.00293492 0.00663752 0.000539915 0.00101636 0.00778693 0.00801415 0.0025425 0.00284316 0.00902337 0.00754891 0.00867871 0.00577356 0.00816291 0.0101031 0.000824742 0.000927835 0.00258576 0.00732099 0.00995581 0.00343183 0.00464417 0.00596544 -0.0001248 0.00235949 0.00925373 0.000446433 0.00170746 0.00324065 0.00224479 -0.00376825 0.00365425 0.0032965 0.00571049 0.00716223 0.00752997 0.000207879 0.00334975 0.000203742 0.00653658 0.00268216 0.00353683 0.00903375 0.0101031 0.00773196 0.00814127 0.00817857 0.00208915 0.00384511 0.000464776 0.00710592 0.00318176 0.00629613 0.0030469 0.00184143 -0.00381543 0.000506734 -0.00432043 -0.00813564 -0.00708052 -0.002366 0.000449981 0.00171151 4.09387e-07 0.00225876 0.00446274 0.00850577 0.00864636 0.00410897 2.50747e-05 0.00746954 0.00278351 0.00659783 0.00776552 0.0054148 0.00663951 0.00568137 0.00706602 0.00201092 -0.00275736 0.00745863 -0.00143229 -0.00416165 -0.00475084 -0.00344391 -0.00150095 -0.000590457 0.000467964 -0.00822368 -0.00425591 -0.00466973 0.000227871 0.00317761 -0.00128985 0.00622987 0.000172857 0.00828716 0.00961285 0.00693613 0.00298969 0.00372494 0.00145774 0.00540971 -0.00043948 0.00203615 0.0046466 0.00638404 0.00011776 0.00227852 0.00367697 0.00214758 -0.00398957 -0.00271026 -0.00554875 -0.00876134 -0.000701873 -0.00681321 -0.00125176 0.000548272 -0.00533406 0.00230693 0.0038137 0.00207235 0.00279027 0.000310677 0.00422931 0.004281 0.00428371 0.00787148 0.0094265 0.010398 0.00804515 -0.000613067 -0.00191595 0.0064927 0.00798879 0.00446278 0.00251995 -0.00302403 0.00331552 -0.00307075 -0.00241305 -0.00601738 -0.00672687 -0.0112078 -0.00541821 -0.0054554 -0.00482726 -0.000140182 0.00341869 0.0011706 0.00648499 0.00447469 0.00902576 0.0040209 0.000103093 0.00818589 0.00310708 0.00680095 0.00176873 -0.000749715 0.0043342 0.00319057 0.00181952 0.00328559 0.00325026 0.00715552 0.00721258 -0.00455476 -0.00196659 -0.00105194 -0.0105487 -0.00470452 -0.00266511 -0.00267127 -0.00325534 0.00586237 0.00865767 0.00266089 0.00506543 0.00288519 0.0078511 0.00475506 0.00917526 0.00559919 0.00917561 0.00878054 0.0109462 0.00334602 0.00204877 0.00587807 0.00907054 -0.00272942 0.00110582 0.0058164 0.00419301 0.00706432 0.00479971 0.00477263 9.1082e-05 -0.00769882 -0.000457698 -0.00420948 -0.00353153 0.00338504 0.00711832 0.00120861 0.00829396 0.00502138 0.00944217 0.00485677 0.00731959 0.00612172 0.00956539 0.00407493 0.00578139 0.00762737 0.00221377 0.00187156 0.00052286 -0.00406309 -0.00358696 -0.00207929 0.00349676 0.00281614 0.0058324 0.00431055 -0.00579401 -0.000448076 0.00109983 -0.00378052 0.00116417 -0.00277989 0.00263505 -0.000918518 0.00794781 0.00516417 0.00596943 0.00465495 0.00340206 0.00413341 0.00431938 0.00611185 0.00203168 0.00411298 -0.0020607 -0.00325247 -0.00475274 -0.00704421 -0.00502374 0.000888021 -0.0022862 -8.36315e-05 0.00428078 0.00356038 -0.00412644 -0.00908638 -0.00357203 0.00184554 -0.00148813 0.00181916 0.000623234 -0.00503374 0.00360622 0.0117026 0.0026841 0.00209838 0.00474227 0.00889365 0.00268039 0.00362475 0.000728178 -0.00401818 -0.00605157 -0.00609565 -0.00459717 -0.010847 -0.00965212 -0.00387897 0.00106218 -0.00138283 -0.00380803 -0.00249241 -0.00444595 -0.0116368 -0.0062126 -0.00243337 -0.00460143 0.00523788 -0.000572028 0.00204171 3.50582e-06 0.00619428 0.00466426 0.00618557 0.00659834 0.00814588 0.00918989 0.00797292 0.00451494 -0.0028281 -0.00786273 -0.00615965 -0.00232943 -0.0018285 -0.0067228 -0.0104682 -0.00435602 -0.00543156 -0.00653199 -0.00428966 -0.00191814 -0.00837492 -0.00180027 0.00208506 0.00240588 0.00554752 0.00645214 0.00462959 0.00229137 0.00365694 0.0102395 0 0.00298982 0.00360521 0.00491999 0.00896967 0.00571359 -0.0037858 -0.00627312 -0.0134606 -0.00811067 -0.0075068 -0.00220612 -0.00146675 -0.00708888 -0.00523796 -0.00355248 -0.00123017 -0.00471205 -0.00155345 0.00642324 0.0043117 0.00459887 0.00106554 0.0050202 0.007956 0.00751666 0.00465264 0.00778049 0.00362532 0.0042268 0.00680141 0.000468505 0.00443844 -0.00214365 -0.00588334 -0.0074176 -0.00479931 -0.00933086 0.00181387 0.00145174 -0.000278717 0.00518688 0.00547366 0.00677845 0.0053213 -0.000540764 -0.00146854 0.00640124 0.00766458 0.00052301 0.0078371 0.000856984 0.00191853 0.000149973 0.00140715 0.00499194 0.00534033 0.00443299 0.00608191 0.000237934 0.00113238 0.00633501 -0.0022654 0.00175531 -0.0019898 -0.00150469 -0.00540846 0.00206467 -0.00257576 0.00463321 0.000714562 0.00400955 0.000240627 -0.000457164 -0.000663129 0.00520825 -0.00611455 -0.00186149 -0.00161818 0.00535642 0.00711583 0.00880702 0.00978795 0.0100635 0.00206116 0.00391753 0.00783505 0.00356275 0.00893478 0.00645457 -0.00421572 -0.00281307 -0.000818221 -0.00427247 0.00124163 -0.00615733 -0.00589458 -0.000804242 -0.00157292 0.00284615 -0.00425296 -0.00452715 0.000117436 -0.00329396 -0.00713695 -0.000257583 -0.00331013 0.00316451 -0.00068931 0.00889908 0.00980088 0.000812172 0.00512814 0.000103093 0.00706049 0.00638673 0.00431799 0.00693462 -0.00266399 0.00168839 -0.00442382 -0.00228121 0.00231696 -0.00222034 0.00534851 0.00502331 0.00615244 0.00121279 0.000531187 -0.0037727 -0.000106756 -0.0101366 -0.00540268 -0.00397344 -0.00466217 0.00120092 0.00708156 0.00514891 0.00114685 0.00339518 0.00435985 0.00938144 0.00668686 0.0093706 0.00181934 0.00175116 -0.000213217 -0.00382374 -0.00210919 0.00264776 -0.00695553 0.00193713 0.00220816 -0.00264343 -0.000764562 0.000524439 -0.00666037 -0.00702619 -0.00860676 -0.00459398 -0.000636086 0.00143585 0.00116582 0.0035781 0.00795995 0.00977528 0.00956391 0.00613733 0.00670146 0.00164948 0.00628866 0.0021141 0.00593308 -0.00146665 0.0063104 -0.00260082 -0.000680141 0.000417764 8.58036e-05 0.00313444 0.0045317 -0.0046004 -0.00523518 -0.00839047 -0.00937683 -0.0044865 -0.00659618 -0.00819383 -0.00474097 0.00446072 0.00581705 0.00722343 0.00612104 0.00636733 0.0046486 0.000467142 0.00443299 0.00319588 0.00938144 0.00521104 0.00678316 0.00412549 0.00578422 0.00111955 0.00505419 0.00256558 0.00258143 -0.00250629 -0.00348926 -0.00304321 -0.00707627 -0.00567879 -0.00797204 -0.000260057 -0.00525305 0.00249655 0.000771845 -0.000325701 0.00237562 0.00791404 0.0100624 0.00692769 0.00909018 0.00633555 0.00597938 0.000618557 0.00628866 0.00938942 0.0037438 0.0092549 0.00770655 0.00460957 0.00413761 0.00551801 0.003557 0.00354925 0.00361971 0.00200881 -0.010677 -0.0109421 -0.00755204 0.00330889 0.0026499 0.00375696 0.00226236 -0.00334701 -0.00176667 0.000312934 0.00204669 0.00824483 0.00907595 0.00797233 0.00721649 0.00938144 0.00175258 0.00362047 0.000251036 0.0061059 0.0068286 6.18913e-05 0.00142263 0.00470259 0.00466399 0.00334924 -0.000276712 0.00137579 0.00363867 0.00130676 0.00119147 0.00336694 0.00801779 0.00576157 0.00231011 0.00633822 -0.00208729 0.000188093 0.00126084 0.00570916 0.00190766 0.00320436 0.00597938 0.00206186 0.00556701 0.00927835 0.00846043 0.00630714 0.0052181 0.00874689 0.00136131 0.00797387 0.003026 0.00966236 0.00583294 0.00609147 -0.000501074 -0.00200245 0.00704668 0.00978554 0.01238 0.00900772 0.00810479 0.00730572 -0.000252653 0.000424804 0.0056509 0.00151588 0.00248176 0.000730661 0.0042268 0.0028866 0.00164948 0.00505155 0.00072196 0.00224348 0.00700507 0.00966242 0.00433345 0.00362899 0.00681736 0.0031304 0.00203021 0.00894337 0.00674345 0.00336238 0.00664923 0.00344017 0.00754393 0.00210379 0.0036234 0.00141589 0.00394738 0.00327494 0.0029649 0.0032993 0.00474227 0.00721649 0.00268041 0.00402062 0.00969072 0.00515464 0.00680412 0.00268041 0.00918347 0.00104804 0.00862773 0.00171706 0.00167763 0.0066707 0.00466893 0.0106748 0.00849953 0.00921226 0.00565135 0.00956965 0.00927049 0.0062291 0.00810112 0.00556333 0.00200108 0.00923577 0.00601373 0.00113402 0.00515464 0.00783505 0.00659794 0.00247423 0.00608247 0.00340206 0.00927835 0.00628866 0.000618557 0.00412371 0.00690722 0.000309278 0.00587629 0.00195876 0.00969072 0.00237763 0.00619978 0.00371134 0.000206186 0.00618557 0.00371134 0.00721649 0.00804124 0.00958763 0.000515464 0.000721649 0.00175258 0.00268041 0.000721649 0.00690722 0.00185567 0.00298969 0.00804124 0.000412371 0.000309278 0.00659794 0.00659943 0.00436453 0.00193341 0.00973714 0.00064384 0.00568905 3.70105e-05 0.00521265 0.00714131 2.0809e-05 0.00139267 0.00545054 0.00254419 0.00238522 0.0073311 0.00435047 0.00539436 0.00713435 0.00300055 0.00835052 0.00680412 0.00907216 0.00216495 0 0.00597938 0.00350515 0.00886692 0.00278383 0.0027231 0.00994287 0.000545258 0.00647156 0.00206455 0.00327845 0.00391689 -0.000464234 0.00315899 0.00493471 0.00310716 0.00218452 0.00891212 0.00778418 0.00119073 0.00233618 0.00301284 0.0102744 0.00521088 0.0071186 0.00390781 0.00381443 0.00360825 0.0028866 0.00505155 0.00566832 0.00845565 0.0068432 0.00319112 0.0042536 0.00120359 0.00851145 0.00837689 0.0085194 -0.000112825 0.00478389 0.00601279 0.00791789 0.0084245 0.00485771 0.00618093 0.00153464 0.00535285 0.00552934 0.00221622 0.00421107 0.00566491 0.00111997 0.00629137 0.00124008 0.00164948 0.000103093 0.00412371 0.00236526 0.00206014 0.00537993 0.00873985 0.00699779 0.00213345 -0.000376563 0.00799561 0.00066361 -0.00108282 0.00368283 0.00186763 0.000509309 0.00336667 0.00435855 0.00713199 -0.000991161 0.00737092 0.00724583 0.00511258 0.00979259 0.00327725 0.000814726 0.0067457 0.0026968 0.00598428 0.00618557 0.00536082 0.00536131 0.00942235 0.00262027 0.00784697 0.00827356 0.00243194 0.00202357 0.00851309 0.00625289 -0.00104719 0.00457994 -0.00157098 -0.000766434 -0.000234028 -0.0053629 0.00472239 -0.00383954 0.00286734 0.00802883 0.000373772 0.00921687 0.00215485 -0.000178548 0.00537657 0.00405856 0.00887341 0.00505155 0.00484522 0.00468206 0.000880791 0.00696016 0.00491803 0.00102854 0.00796116 0.00457502 0.00602903 0.0042711 0.0031839 0.00394701 -0.00627703 6.78786e-05 -0.00254411 -0.000127178 -0.000719813 -0.00797613 -0.002407 -0.00305902 0.00751407 0.00449074 0.00754008 0.00356151 0.00872535 0.00384094 0.00825921 0.0085567 0.00298999 0.00869265 0.0021476 -0.00123341 0.00212878 0.00470441 0.00790904 0.00708996 -0.00168003 0.000590946 0.00266328 -0.000775106 -0.000434678 -0.00906976 -0.002224 -0.00378256 -0.00510675 -0.00734423 -0.00160437 -0.00194676 -0.000383417 0.00351977 0.00885912 0.00355018 0.000953298 0.00286926 0.00701652 0.00465046 0.00703934 0.00408901 0.00774013 0.00439714 0.00110222 0.0101328 0.00133544 -0.000574894 0.00446144 0.000453394 0.000662457 -0.00159484 -0.00506363 -0.0017637 -0.0052857 -0.00791124 -0.00821064 -0.00621503 -0.000322782 0.000194143 -0.000804527 0.00841103 0.0051105 0.00633726 0.00392994 0.00996272 0.00691 0.00226804 0.000576742 0.00490437 0.00925015 0.00110317 0.00366681 0.00276029 0.00166954 0.0068964 0.000744715 -0.00487501 -0.00205969 -0.00502747 -0.00514258 0.000606439 -0.00596416 -0.00886574 -0.00904743 -0.00432955 -0.00195986 0.00402045 -0.00225197 0.00165442 0.00657992 0.0101563 0.00227806 0.00747665 0.00773426 0.00443299 0.000235166 0.00466336 0.00855947 -0.000315741 0.00457735 0.00862703 0.00478675 0.00778554 -0.00605079 -0.000487105 0.00531498 -0.000195064 -0.00403725 -0.00446675 0.0042292 0.000373763 -0.00818721 -0.00623844 -0.00260736 -0.00197494 0.00199816 0.00262451 0.00247703 0.00608023 0.0056673 0.00394934 0.00845879 0.0085567 0.00850299 0.00312219 0.00353204 0.00364697 0.00437342 0.00256137 0.00846523 -0.00208718 0.00227172 5.44378e-05 -0.000478055 -0.00150725 0.00390066 -0.000928867 -0.0040012 -0.000470437 -0.00558674 -0.0026092 -0.00601373 0.00436365 -0.00194183 0.00544868 0.0030215 0.00531515 0.00847601 0.00149391 0.00526075 0.0085567 0.00817724 0.00403468 0.00547632 0.0084894 0.00531518 0.00679592 0.00193507 0.00498055 -0.00264204 0.000144206 0.00508157 0.00471123 0.00194351 -8.18831e-05 0.00342367 -0.00926729 -0.00170819 -0.00564949 -0.000517539 -0.00444189 0.00595605 -0.00152943 0.00680122 0.00145743 0.00108266 0.00580638 0.000206963 0.00773196 0.00990173 0.00740121 0.00173853 0.00411299 0.00807243 -0.00067204 0.000309087 -0.00202296 0.000644121 -0.00352918 -0.00149757 0.00134467 -0.0026074 -0.00139697 -0.00384918 -0.00416347 -0.00750863 -0.0106439 0.00200393 -0.000806038 0.00694011 0.00229941 0.00738684 0.000429745 0.00852381 0.00372778 0.000206186 0.0058834 0.00443106 0.00417478 -0.00026273 0.0046803 0.00850436 0.00530537 0.00466349 -0.00246515 0.00128924 -0.00107 -0.00882563 -0.00205215 -0.00675954 -0.00283242 -0.00752468 -0.014062 -0.00775774 -0.00345578 -0.00341791 0.00180951 0.0029103 1.97374e-05 0.00901105 0.00449406 0.00812478 0.00191313 0.00463918 0.00402295 0.00504399 0.00787816 0.00360057 0.00351721 0.004481 0.00557624 0.00514781 -0.00174563 -0.0026124 -6.10526e-06 4.30547e-05 -0.00705993 -0.00322183 -0.00981111 -0.00607251 -0.0143905 -0.000909985 -0.00282777 -0.000208624 -0.00262672 -0.00313258 0.00686924 0.0068267 0.00879348 0.00917187 0.0098241 0.00533322 0.00639175 0.000614464 0.00443113 0.00246017 0.00836909 0.00247665 0.00718414 -0.00350355 0.00272656 0.000579711 0.00141123 -0.00434749 0.00362382 0.00247583 -0.00256321 -0.000375865 -0.0122262 -0.00728694 -0.00411219 -0.00633444 0.000210338 0.00384889 0.00589363 0.0106306 0.00555658 0.000717968 0.00557433 -4.63643e-05 0.00463918 0.00669977 0.00678981 0.00482876 0.00731721 0.00136929 -0.000973671 0.00304702 -0.00333393 -0.00326497 -0.00458323 -0.00351128 0.00459711 -0.000290042 0.00315215 -0.00726312 -0.00325366 -0.00480346 -0.00504314 -0.00672594 0.00221575 -0.00322995 0.00973983 0.00395007 0.000573689 0.0086326 0.00172166 0.00287158 0 0.00536082 0.000533384 0.00613301 0.00716709 -5.49499e-05 0.000746611 0.00184524 0.00459253 0.00146164 0.00346607 0.00408974 -0.000806567 -0.00342072 0.000131762 -0.00848394 -0.00907744 -0.00311296 -0.00285724 -7.2217e-05 -0.000105652 0.00115576 0.000282277 0.00647578 0.00860361 0.00118808 0.00394305 0.00104376 0.00731959 0.00651191 0.00423465 0.000707073 -0.00197079 0.00447856 0.00145323 -0.00230814 0.00180224 -0.00352411 0.00358333 -0.00410611 0.00378285 0.00236927 -0.00607009 -0.00703468 -0.0104901 -0.00242221 -0.00650878 -0.00245793 0.0043425 0.00569125 0.00468742 0.0053851 0.00774517 0.0092724 0.0100755 0.00973765 0.00804124 0.00876726 0.000627603 0.00601773 -0.00223461 -0.00241287 -0.000768447 0.003194 -0.00168081 -0.00190604 -0.00260786 -0.00153315 0.00411512 0.00266661 -0.00788955 -0.0061294 -0.00594383 -0.00417245 0.00181462 -0.000260078 0.00371416 0.000112194 -0.000841933 0.00193427 0.00695755 0.00343817 0.000778682 0.0044341 0.00216495 0.00525773 0.00609228 0.00431267 0.00369597 0.00137131 0.00215679 -0.00326131 -0.00130008 -0.000257817 -0.00286391 -0.00225043 -0.00138328 -0.000149868 -0.0080949 -0.00106037 0.00171371 0.00174906 0.00030853 0.00024964 0.000676857 -0.00198739 0.00360554 -0.00101652 0.00512447 0.00387743 0.00826222 0.00226804 0.00721649 0.00876289 0.00706513 0.00371276 0.00111098 0.00613078 -0.000941262 -6.7481e-05 0.000557553 -0.00312231 -2.46216e-05 0.00260176 0.00298199 -0.00568049 -0.00232967 -0.00520443 0.00568371 0.00347278 -0.000925828 0.00127647 0.00174532 -0.000234806 0.00133676 0.00619853 0.00398366 0.00511119 0.00640363 0.00505155 0.0071134 0.00886598 0.00420783 0.00315574 0.0043815 0.00687996 0.000657995 -0.00249085 -0.00331976 0.000215837 -0.00189042 -0.00324783 -0.000930787 0.00228475 -2.43143e-06 0.00620848 0.00611007 0.00458891 -0.00194553 0.00178645 0.00682772 -7.37578e-05 0.0035507 0.0044366 -0.000401534 0.0075987 0.00464314 0.00309278 0.00536082 0.00237113 0.00314258 0.00556012 0.00155856 0.00185851 0.00890044 -0.00154491 0.00512633 0.00739782 0.000824378 0.00213766 0.00946599 0.00537679 0.00205803 -0.000146158 0.00610388 -0.000644849 0.00387938 0.00494908 0.007674 0.000566599 0.00715449 0.00590269 0.00372806 0.00101064 0.00442971 0.01 0 0.00278351 0.00164948 0.00970654 0.00304033 0.0021659 0.00954911 0.00953663 0.00488451 0.000611139 0.00706713 0.00299193 0.00911827 0.00668979 0.000448165 0.0100374 0.00885123 0.00901346 0.00901164 0.00833025 0.00098214 0.00799788 0.00530502 0.00307413 0.00019632 0.00329605 0.0029862 0.00123711 0.00412371 0.00742268 0.00670103 0.00845313 0.00854664 0.00255366 0.00221382 0.00708837 0.00395706 0.00117564 0.00319462 0.00261376 0.00682257 0.00145661 0.00607129 0.00970104 0.000450646 0.00222727 0.00820608 0.00567082 0.00789279 0.00364818 -0.000218537 0.00192091 0.00432857 0.00329897 0.00752577 0.00680412 0.00453608 0.00175258 0.00639175 0.00896907 0.00546392 0.00546994 0.00980305 0.00426046 0.00308059 0.00804433 0.00178646 0.000851285 0.00786545 0.00258434 0.00534172 0.000629992 -1.4929e-05 0.00526541 0.00191711 0.00389497 0.00399641 0.00926375 0.0067795 0.0073495 0.00402062 0.00154639 0.00628866 0.00505155 0.00618557 0.00773196 0.00494845 0.00463918 0.00948454 0.00948454 0.00628866 0.00278351 0.00804124 0.00835052 0.000824742 0.00185567 0.0102588 0.00073382 0.0085567 0.00257732 0.00835052 0.00175258 0.000618557 0.0071134 0.00752577 0.00907216 0.000927835 0.00319588 0.00659794 0.00453608 0.00608247 0.0056701 0.00103093 0.00680412 0.00175258 0.0042268 0.00453608 0.000319767 0.00927175 0.00828161 0.00664185 0.00829315 0.00434361 0.00103391 0.00417609 0.00552731 -0.000222425 0.00720069 0.00961514 0.00216891 0.00549234 0.0064488 0.00129536 0.00653262 0.00854982 0.00963635 0.00628866 0.000309278 0.00257732 0.00505155 0.000927835 0.00917526 0.00958763 0.00174924 0.00917411 0.00715876 0.0088964 0.00262592 0.00205071 0.0011759 0.0103027 0.00466389 0.00839047 0.00782734 0.0124923 0.00310729 0.00589137 0.00603216 0.00907757 0.00127396 0.0069092 0.00847543 0.00361557 0.0102116 0.00538965 0.000107108 0.00195876 0.00804124 0.00484536 0.00948454 0.00362943 0.00801821 0.000931004 0.00629295 0.00141254 0.00174434 0.00533154 0.00450138 0.00846897 0.00768611 0.00509935 0.00326998 0.0106327 0.0070069 0.00374452 0.00597586 0.00415585 0.00984648 0.00859945 0.00828145 0.00211789 0.00804277 0.00868618 0.00660122 0.00979685 0.00226804 0.00175258 0.00412371 0.00487631 0.00571177 0.00776038 -0.000464765 0.00736327 0.00389799 -0.000727001 0.00426905 0.0129527 0.011562 -0.000666352 0.00358781 -0.00353035 0.00386841 0.00185559 -0.000104474 0.00676911 -0.0024566 0.00354063 0.00390409 0.00281114 0.00342883 0.00649576 0.00348547 0.00491384 0.0102141 0.000206186 0.00525773 0.00966175 0.00746118 0.00927084 0.00436531 0.00201665 0.000592267 0.00705473 0.0117713 0.00963655 0.00533753 0.00173585 -0.00618102 -0.00457894 0.00261774 0.00354314 0.00596631 0.00212552 0.00131819 -0.00215445 0.00179751 0.000842638 -9.79908e-05 0.00125467 0.000595781 0.00834477 0.00444483 0.00670103 0.00639161 0.010295 0.00287092 0.00489458 0.00278405 0.000985537 0.0102785 0.0124166 0.00793524 0.00128696 -9.26191e-05 0.00179478 -0.00580355 -0.0118798 -0.0106695 -0.0107164 -0.0111835 -0.0117419 -0.0061003 -0.00171245 -0.00272026 -0.00145063 0.00341953 0.00284092 0.00569686 0.00667986 0.00503159 0.00680412 0.00206497 0.00727758 0.00975147 -0.00023113 0.00116859 -0.000616802 0.00130455 0.0133508 0.00332925 -0.000170879 0.0034338 -0.00462139 -0.00626953 -0.00815531 -0.00237389 -0.00341156 -0.0135739 -0.0123145 -0.0028621 -0.00211743 -0.00340084 0.00353289 -0.000242657 0.00355781 0.00331448 0.0103212 0.00623519 0.00358843 0.00760808 0.00422741 0.0043924 0.00888759 0.00565588 -0.00264889 0.00237218 0.00644184 -0.00296123 -0.0052107 -0.00204689 -0.00538481 0.00360777 -0.00553583 -0.00519643 -0.0095006 -0.0119739 -0.00663332 -0.00257125 -0.000937314 -0.00604664 0.000322872 0.00509865 0.00125391 0.00126844 0.00791433 0.00816993 0.0101031 0.00104072 0.000968297 0.00805904 0.0093324 0.00530018 0.00387163 0.00642277 0.00403787 -0.00814981 -0.0094789 -0.00484949 0.00447507 0.00361846 0.00211241 -0.000830846 -0.00461598 -0.0131902 -0.0113169 -0.00761119 -0.00304232 -0.000234697 -0.000292667 0.00118681 0.00611272 0.00232405 0.000330451 0.00731239 0.00969072 0.000788394 0.0104813 0.00195404 0.0074901 -0.000280515 0.00467582 0.00150593 -0.00605208 -0.00817015 -0.0156105 -0.00935948 -0.00206936 0.007918 0.0138363 0.00442434 -0.00531543 -0.00845655 -0.0114328 -0.00145896 -0.00640827 -0.000612549 -0.00481787 -0.00266847 0.00240148 0.0018544 0.00121293 0.00880949 0.0102062 0.00689273 0.00282502 0.00909344 0.00389771 0.00199221 0.000527065 -0.000242307 0.00124429 -0.0131091 -0.014252 -0.00731524 0.00656017 0.00583932 0.0106281 0.0058251 -0.0082688 -0.00660941 -0.0110802 -0.0072951 -0.00687772 0.00263495 0.00492381 0.00253452 0.00122367 0.00490929 0.00831411 0.00966332 0.00360825 0.00514109 0.00757801 0.00302237 0.00185041 -6.39967e-05 0.0042323 0.00769811 -0.000488254 -0.00369216 -0.00246576 0.0044146 0.00722326 0.00827236 0.00161798 0.00181226 -0.00458028 -0.0105535 -0.00528683 -0.0061045 -0.00715258 -0.00164521 0.00768204 0.00178039 0.000587779 0.00564161 0.00501495 0.00478385 0.00515464 0.00187845 0.0039588 0.00169719 -0.002058 0.00708404 0.00287568 -0.00109218 0.00463422 0.00115241 -0.007318 -0.00578102 -0.00421677 0.00317452 0.00673124 0.000859156 -0.00937924 -0.0113467 -0.0128669 -0.00765698 0.00169961 0.00319045 0.00918805 0.00367158 0.00971645 0.0105546 0.00965265 0.00804124 0.00454273 0.00968837 0.0038588 0.00881907 0.00661861 -0.0014333 0.00236112 -0.0057089 -0.00144303 -0.00341194 -0.00876951 -0.00532911 -0.00511869 -0.000514026 -0.0020264 0.000296024 -0.00369023 -0.00535698 -0.00664355 -0.0017592 -0.000647226 0.000279977 0.00928512 0.00714274 0.00148523 0.00787805 0.0028309 0.0057732 0.00546609 0.000398971 0.00133031 0.0070834 0.00300403 0.00321443 0.00501144 -0.00466344 0.000688727 -0.00374813 -0.00265543 0.00234801 0.00189531 0.00432516 0.00358629 -0.00651479 -0.00575537 -0.0028856 -0.00685955 -0.0025715 -0.00399684 0.00272341 0.0011878 0.00547834 0.00853901 0.00910011 0.00860624 0.0050017 0.000927835 0.00731192 0.00728148 0.00380019 0.00854545 0.00587954 0.000414293 -0.00087072 -0.00285398 -0.00274735 0.00156428 0.00474834 0.000152666 0.0110354 0.0101883 0.00250704 -0.00632433 -0.000365921 -0.00874599 -0.00433978 -0.00527747 0.00503427 -0.000897073 0.00310697 0.00863514 0.00920194 0.00888622 0.00195444 0.00587629 0.000616284 0.000253872 0.00770738 0.00958766 0.00610969 0.000275416 -0.00658214 -0.000829798 -0.0036501 0.0013841 0.000238841 0.00666252 0.00232967 0.00707888 0.00131027 0.00180226 -0.00418302 -0.00223486 -0.00217995 0.00302043 0.00161938 -0.00203049 0.000747157 0.00442974 0.0110927 0.00849322 0.00864 0.0043299 0.00597938 0.00290129 0.00651424 0.00675408 0.00203433 -0.00475832 -0.000217438 -0.00871538 -0.00174018 0.0054334 0.00135698 0.00779194 0.0144382 0.00617121 0.00442041 -0.00288481 -0.00318244 -0.00127693 0.000870596 0.00215391 -0.00173671 -0.000502803 0.00604964 0.00713611 0.00570092 0.0019923 0.00165004 0.0028866 0.000135446 0.00825561 0.00611473 0.00277553 0.00911922 0.000274838 -0.00753603 -0.0116901 -0.00668177 0.000887558 0.00569027 0.0126706 0.016878 0.0146114 0.00661736 0.0041658 0.00231082 0.00181637 -0.00550956 -0.00249804 -0.00507473 -0.00129331 0.00500229 -4.9438e-05 0.00590339 0.00914415 0.00986896 0.00742268 0.00760443 0.00598778 0.00717605 0.0015716 0.00839503 0.00267332 -0.00667855 -0.00810162 -0.00914786 -0.00658702 0.00233511 0.0124408 0.0118308 0.00714641 0.00563016 0.00972991 0.00783243 0.00290664 0.00130417 0.0057824 0.00960902 0.00439845 0.00697023 0.00669005 0.010424 0.00137444 0.00659927 0.00597938 0.00628866 0.00564918 0.000948154 0.0117582 0.00202933 3.10604e-05 0.000425974 -0.0067103 -0.00346063 -0.0012387 0.00623991 0.0063803 0.00174536 0.00293 -0.00148314 0.0106418 0.00443328 0.0104755 0.00919822 0.00803971 0.00340506 0.00710757 0.00746676 0.000348902 0.00963555 0.00865344 0.00206186 0.00793814 0.00731959 0.00653256 0.00780736 0.00740692 0.00571468 -0.00132017 0.00544518 -0.00299752 -0.00471419 -0.00805889 -0.00304072 0.00356446 -0.00388782 -0.0095873 -0.00636962 -0.0042415 -0.00710845 0.00252095 0.00188004 0.00487939 0.000874257 0.00289296 -0.000231853 0.00361557 0.00402094 0.00357146 0.00845361 0.000206186 0.00865979 0.00885994 0.00639387 0.00961283 0.00304674 0.00784506 -0.000450104 0.00308106 -0.000360011 0.000606407 0.00161551 -0.00203216 -0.00494569 -0.0032588 -0.00426717 -0.000728925 0.00454138 0.00401201 0.00197258 0.00341958 0.00930048 0.002893 0.00881104 0.00818071 0.00142803 0.00967019 0.00515464 0.00206186 0.01 0.00759736 0.00656358 0.0067796 0.00795572 0.00953354 0.00485673 0.00696311 0.00501315 0.00633421 0.000639272 -0.00333719 -0.0066087 -0.00695487 0.00378836 0.000837585 0.000862135 0.00162501 0.00125894 0.00885535 0.00780635 0.0086811 0.00826266 0.00955325 0.000114515 0.00320862 0.00659794 0.00123711 0.01 0.00185567 0.00979318 0.0013283 0.011742 0.00337903 0.00305257 0.005508 0.00964199 0.00355554 0.00459063 0.00245964 0.000438056 0.0032182 0.00426269 0.00545976 0.00199896 0.00266315 -0.000868965 0.00317035 0.00253953 0.00564762 0.00982969 0.00531994 0.00557833 0.00795168 0.01 0.00690722 0.00742268 0.00494845 0.00216427 0.00861029 0.00932818 0.00440113 0.00299095 0.00881346 0.00706591 0.00872239 0.00834567 -0.000265834 0.00274583 0.00117211 0.000945873 0.00855551 0.00677478 0.00407846 0.00178256 0.000271924 0.00904476 0.0104942 0.00897926 0.00319305 0.00391753 0.00773196 0.000927835 0.00927835 0.0042268 0.00103093 0.000103093 0.00814433 0.00433795 9.5188e-06 0.00569738 0.00442318 0.0021835 0.00957273 0.000964488 0.00443995 0.000865927 0.00599138 0.000122239 0.00328975 0.00965966 0.00232336 0.00472881 0.00208762 0.00959325 0.00265591 0.00486779 0.0028866 0.00525773 0.00639175 0.00164948 0.00391753 0.00474227 0.00556701 0.00659794 0.00670103 0.0071134 0.00134021 0.0071134 0.00680412 0.00824742 0.00690722 0.00371134 0.00245974 0.00697859 0.00814433 0.00731959 0.00793814 0.00886598 0.0056701 0.00804124 0.00762887 0.00824742 0.00979381 0.0042268 0.00329897 0.00680412 0.00773196 0.0085567 0.00587629 0.00309278 0.0101031 0.00907216 0.000309278 0.00773162 0.00245544 0.00469337 0.00588488 0.00944643 0.00933381 0.00877967 -9.85217e-05 0.00277355 0.00153998 0.0066765 0.00152952 0.00931953 0.00676226 0.00836898 0.0019392 0.00313436 0.0100804 0.00483608 0.00608247 0.0101031 0.00587629 0.00835052 0.00670103 0.00762887 0.00628866 0.00206203 0.00185573 0.00306711 0.00881516 0.00537842 0.0052006 0.00391874 0.00346758 0.0103526 0.00708175 0.00852232 0.0084479 0.000969404 0.00513405 0.00978335 0.00127867 0.00277476 0.00787061 0.00686442 0.00907332 0.00139739 0.00269141 0.00868785 0.00154639 0.00154639 0.00608247 0.00309278 0.00217776 0.00887767 0.00595197 0.0102681 0.00388546 0.00882029 0.00573513 -0.000327949 -0.00189105 0.00817339 0.00265146 0.00895222 0.00687331 0.00211693 0.000683864 0.00492229 -0.000556088 0.00162709 0.00474228 0.00835985 0.00247407 0.00802587 0.00978765 0.000476723 0.00214999 0.00793814 0.00721649 0.0014433 0.00633314 0.00898844 0.00272663 0.00814019 0.0081531 0.00887859 0.00431888 0.00494739 0.00212938 -0.00124465 0.0111439 0.00481481 -0.00343361 -0.00670749 -0.0178594 -0.0128628 -0.00479205 -0.00382073 -0.00476234 -0.00209779 -0.00229289 0.005718 0.00139822 0.00498097 0.00239662 0.00432338 0.01 0.00103093 0.00803484 0.00884395 0.00991053 0.0083457 0.00962958 0.00354362 0.00937373 0.0061044 -0.0128787 -0.0062304 -0.00706361 -0.0100321 -0.0264099 -0.0311378 -0.0328771 -0.0356317 -0.0421484 -0.0362639 -0.019933 -0.0128356 -0.0084009 -0.00495916 0.00665936 0.00427053 0.00367497 0.00297981 0.00226804 0.000722236 0.00279852 0.00835353 0.00930468 -0.0010312 0.00876119 0.00611955 0.00837066 -0.00324743 -0.0211875 0.000317696 0.00830436 -0.0022034 0.00674197 0.0141723 0.00324589 0.0296165 0.0099096 0.00880339 0.0106144 0.0127948 -0.0173494 -0.0206804 -0.00838872 0.00144408 0.0063704 0.00332284 0.00917526 0.00152331 0.00956445 0.0135907 -0.000629869 -0.0137959 -0.000316741 0.0166706 -0.00793214 0.00659257 0.0363865 0.0325078 0.00136525 -0.0226204 -0.026442 -0.0193837 0.0123702 0.0472052 0.0171643 0.0300939 0.0518333 0.0086814 -0.0280633 -0.0175268 -0.0125727 -0.00443095 0.00421475 0.00578257 0.000181154 0.00718648 0.0115128 0.0131178 -0.00661879 -0.00550265 -0.000959577 0.0189954 0.0264764 0.0232102 0.0546483 0.0196786 0.00725902 -0.0157366 0.000865835 0.0438207 0.0312112 0.0281174 0.0407287 0.0375407 0.0239807 -0.00419143 -0.0354675 -0.0242687 -0.0211424 -0.00459196 -0.00159423 0.00222019 0.00938144 0.010307 0.00923221 0.00938779 -0.00629499 -0.00620051 0.00505862 0.00443921 0.0127594 0.00177395 0.0158145 0.0252693 0.0201488 -0.0108814 0.0186841 0.021976 0.0112229 0.0118449 0.0282888 0.0192241 0.0212921 -0.00689883 -0.0017995 -0.0188305 -0.0161113 -0.0136324 -0.0027895 0.00952429 0.00391753 0.00503322 0.00950867 0.00321629 -0.00925258 0.00130246 -0.00208696 -0.0134434 -0.00158897 0.0177271 0.0267441 0.0188321 0.0034767 -0.00118963 -0.0469109 -0.0408441 -0.0317815 0.00168595 0.0147758 -0.000277984 -0.00362895 -0.00228872 -0.00693032 -0.00532802 -0.00303004 -0.00369224 0.000627088 -0.000172603 0.00546392 0.00339122 0.00953115 -0.000567726 -0.017367 -0.0196343 -0.0187639 -0.00447288 0.0340561 0.0678109 0.0606704 0.0364719 -0.0175129 -0.0564085 -0.0829965 -0.0733409 -0.0481746 0.0308836 0.0198447 -0.0189303 -0.00708094 -0.0165422 -0.00589617 -0.0158189 -0.000195687 0.00522498 0.00710489 0.00171578 0.01 0.00296931 0.000812564 -0.000538355 -0.0176014 -0.0234111 -0.0190509 0.0228275 0.0375392 0.0665826 0.0643377 -0.00701038 -0.0754987 -0.124125 -0.105251 -0.0385607 0.0115638 0.0270639 0.0117768 -0.0554578 -0.0239559 -0.0207111 -0.0063711 -0.0151414 -0.00519849 0.00525716 0.00561923 0.000607386 0.000103093 0.00641688 0.00146606 0.00341355 -0.0157401 -0.013568 0.0076259 0.0165414 0.0694335 0.0657074 0.0204736 -0.0329026 -0.0834693 -0.116876 -0.0848007 -0.0298145 0.0297454 0.00791324 -0.0229502 -0.0506374 -0.0129962 -0.00713661 -0.0101963 -0.00759937 -0.000171259 0.00384602 0.00553602 0.00123711 0.00205406 0.0099289 0.00783228 0.00452479 -0.0159396 0.00484546 0.0171575 0.00828509 0.017108 0.0104666 -0.0330185 -0.0612472 -0.0930821 -0.0975671 -0.0619388 0.00793317 0.016363 -0.00854593 -0.0279977 0.00775786 -0.024391 -0.0183604 0.00480038 -0.0013415 0.00340888 0.00446408 0.00506385 0.00505155 0.00123456 0.000365196 0.00266467 0.00208125 0.00403747 -0.000835498 0.0138652 0.0218113 -0.0160846 -0.0593694 -0.0619134 -0.069651 -0.0769317 -0.0765655 -0.0640782 0.00981102 0.0275485 -0.00568834 -0.00992543 0.00203392 -0.01351 -0.00250762 -0.0040613 -0.000414728 0.0054675 0.00248769 0.000574871 0.00644722 0.00927835 0.00701475 0.00579696 0.00665195 0.0127453 0.0106485 0.0119058 0.0196533 0.00630438 -0.0206443 -0.0442419 -0.0683629 -0.0744566 -0.0836955 -0.0168852 0.0308003 0.0210952 0.000762576 -0.000419753 -0.00319452 -0.0177664 -0.0100545 -0.00421122 -0.0083474 0.00448112 0.00481325 0.00423591 0.00691728 0.00907216 0.00576438 0.00410405 0.00287099 -2.13558e-05 -0.00183875 0.000128509 -0.00601649 -0.0233665 -0.0150109 -0.0199326 -0.0289457 -0.0564106 -0.0393855 0.021846 0.025999 -0.0147524 0.0170775 0.0295934 9.74432e-05 -0.0154205 -0.0137862 -0.0138429 -0.00395086 0.00323528 0.00784817 0.000570999 0.00844039 0.00639175 0.0043299 0.00303004 -0.0012091 0.00256449 -0.00746533 0.000317703 -0.0159199 -0.0247487 -0.033121 -0.031736 -0.0141919 -0.0141092 0.00516694 0.0079354 0.00328013 0.00269446 0.0274312 0.0121745 -0.0115439 -0.00538125 -0.00538499 -0.00741573 -0.00296945 -0.000888511 0.00326011 0.00705104 0.00208756 0.00298969 0.00342941 0.00424932 0.000511567 -0.00461235 -0.00527031 -0.00967719 -0.0124197 -0.0203956 -0.0286333 -0.0325433 0.0174113 0.0147125 0.00717933 -0.00234566 -0.0122174 -0.0179928 -0.0238336 -0.0522438 -0.0310115 -0.014595 -0.0148612 -0.0132426 -0.00510792 0.00606591 0.0101113 0.00792993 0.00201854 0 0.000407584 0.00132913 0.00519713 -0.00674853 -0.0163533 -0.0105415 -0.00474783 -0.026083 -0.0439473 -0.0205624 0.00646055 0.0257705 -0.0216591 0.00435009 -0.0386274 -0.0382206 -0.0405601 -0.063825 -0.0413763 -0.0175583 -0.0145558 0.000569203 -0.00316013 0.00581475 0.00410435 0.00934192 0.00976191 0.00958763 0.00546392 0.00421027 -0.0031613 -0.00236648 -0.00876812 -0.0129003 -0.0222543 -0.0454958 -0.0387037 0.00769498 0.0172604 0.0151567 -0.0142885 -0.00760474 -0.0537534 -0.0307412 -0.0517811 -0.057876 -0.0372663 -0.027031 -0.015774 -0.00659733 0.00513377 0.00343972 0.00128505 0.00246599 0.00237113 0.00402062 0.00391753 0.00670067 -0.000973149 -0.0021472 0.000100126 -0.00749411 -0.016862 -0.0242321 0.00503386 0.0344055 0.0194708 -0.0109804 -0.0207787 -0.0300262 -0.0370617 -0.0229604 -0.0444233 -0.0573194 -0.0420343 -0.0228845 -0.00943479 0.00845621 0.0065276 0.00618648 0.00363675 0.00517014 0.00865979 0.00969072 0.00804124 -0.00026232 0.00114743 0.00290073 0.00480323 0.0020182 -0.0106854 -0.0183559 0.0163553 0.0144135 -0.00398478 -0.00722899 -0.0102263 -0.0321527 -0.049705 -0.00468864 -0.0219271 -0.0433967 -0.036122 -0.0159854 -0.00514256 0.0013089 -0.00122791 0.00093554 0.00235998 0.00598217 0.00257732 0.00113402 0.00319588 0.00507735 0.00129568 0.00824121 0.00980832 -0.00721272 -0.0206477 0.0045955 0.0252536 0.0272167 0.00962652 0.0266058 -0.00500337 -0.0276453 -0.0159359 -0.00293514 -0.0133452 -0.0335242 -0.0190521 -0.0175886 -0.00377801 -0.00172302 0.00393543 0.00873355 0.00545224 0.00547595 0.00927835 0.00948454 0.00876289 0.00134021 0.00263581 -0.000533413 -0.0214599 -0.0227225 -0.00398151 0.0247769 0.0432463 0.0139988 0.0211141 0.0463193 0.0217183 0.0186708 0.0063344 0.0147725 0.00502724 -0.000622213 -0.00866172 -0.00528875 0.00621926 -3.51446e-05 0.00761064 0.00934811 0.00464986 0.00475505 0.000515464 0.00659794 0.00773196 0.00515464 0.0101032 -0.00136249 -0.018256 -0.024645 -0.00148426 0.0130974 0.0138895 -0.00944727 -0.0279079 -0.0027185 0.0384904 0.0167396 -0.000913932 0.01099 0.0192143 0.0106535 0.00673279 0.0112348 0.00319632 0.00675655 0.00490649 0.0020732 0.00185567 0.00814433 0.000721649 0.00793814 0.00608247 0.00298969 0.00618557 0.00525773 0.00227848 0.00271986 0.00683641 0.00453346 0.00275492 0.0018589 0.0032169 0.00588948 0.00361058 0.00945921 0.00278998 0.00448198 0.0047044 0.00863599 0.00446817 0.00712468 0.00798389 0.0035624 0.00144091 0.00680412 0.00185567 0.00134021 0.00835052 0.00484536 0.00917526 0.00103093 0.00824742 0.00391753 0.00237113 0.00556701 0.00773196 0.00969072 0.00773196 0.00309278 0.00247423 0.00672418 0.00161655 0.00680412 0.000103093 0.00752577 0.00824742 0.000206186 0.00587629 0.00659794 0.00536082 0.00175258 0.00371134 0.00690722 0.00659794 0.00649485 0.00597938 0.0057732 0.00773196 0.000618557 0.000721649 0.00515464 0.00754082 0.00470975 0.00185138 -0.000952398 0.00406061 0.000506451 0.00521267 0.00516178 0.00203499 0.000820501 0.0092193 0.00331645 0.00817414 0.00920782 0.01146 0.00180471 0.0100014 0.00363403 0.00669453 0.00876289 0.00618557 0.0102062 0.00134021 0.00298969 0.000721649 0.00938144 0.000399762 0.00463484 0.0018737 0.00578144 -0.000337824 0.00478119 0.00444594 0.00578068 0.0096077 0.00826098 -0.00232533 0.0024828 -0.00157645 0.00239512 -0.00263073 -0.00140044 0.00935561 0.0142473 0.0208938 0.0197005 0.00859139 0.00318866 0.00112144 0.00123711 0.00226804 0.00536082 0.00958763 0.00819601 0.0051118 0.00873735 0.00470485 0.0061734 0.000962425 -0.000119087 -0.00218024 -0.00166026 0.00127143 -0.00656318 -0.00194823 0.00646679 -0.00329674 -0.01899 -0.0367957 -0.0230527 -0.000721467 0.0218973 0.0388721 0.031999 0.0349977 0.0277208 0.00828229 0.00150474 0.00185567 0.01 0.00226804 -6.94876e-05 0.00470695 6.04649e-05 -0.000218921 -0.000282294 -0.000232179 -0.0025455 -0.00816303 -0.00446022 -0.00771457 -0.0170283 -0.0219885 -0.0204586 -0.0226531 -0.0243058 -0.0188772 -0.0235486 0.00423927 0.043658 0.0370201 0.0467551 0.056899 0.0158366 0.00713939 -0.000706678 0.00693735 0.00979381 0.00835052 0.00987422 0.00254245 0.00431086 0.000446585 -0.00132491 -0.00631936 -0.00971275 -0.0115872 -0.0247313 -0.0343433 -0.0440706 -0.0240035 0.0114627 0.0024427 -0.00451614 -0.0148223 -0.00658242 0.0137499 0.0180241 0.0233404 0.0378958 0.0378611 0.00678528 0.00271202 0.00537114 0.00225852 0.000721649 0.00711305 0.0091411 0.00606149 0.00690468 0.00324556 -0.00560468 -0.00230959 -0.00820874 -0.0200654 -0.0485232 -0.0580816 -0.0520242 -0.0357889 -0.0171124 -0.0111074 -0.00647433 -0.0294832 -0.0288472 -0.000124773 -0.037658 -0.0140616 0.00302957 0.0138683 0.0148399 0.0125724 0.00731845 0.00981239 0.00443299 0.00656716 0.00461989 -0.000586101 0.0112228 0.00544182 -0.00822394 -0.0230106 -0.0230385 -0.0525353 -0.0612955 -0.0588799 -0.0673591 -0.045252 -0.00436045 -0.0287262 -0.0209225 -0.014995 0.00192169 -0.0184314 -0.0229372 -0.0246075 -0.0100715 -0.00696754 -0.00131787 0.00547264 0.00840173 0.00923048 0.00395406 0.00922608 0.00768908 0.000924594 0.00252273 -0.00302736 -0.0192837 -0.016582 -0.021084 -0.0477702 -0.0597821 -0.0601398 -0.0546847 -0.0174742 -0.0233731 -0.00675591 0.00938038 0.00701803 0.00665539 -0.00312924 -0.0262702 -0.0275401 -0.0408637 -0.0403489 -0.014784 -0.00103291 0.000997698 0.0029274 0.00917526 0.00301146 0.00991597 0.00211313 0.000826075 -0.00813647 -0.0071578 -0.00457819 -0.0228529 -0.0486601 -0.0591596 -0.0633254 -0.0560132 -0.0249757 -0.00868115 0.0238215 0.0124031 0.00840722 -0.0280822 -0.0236624 -0.0373089 -0.0337945 -0.0516778 -0.0527595 -0.0318096 -0.00797672 0.00143879 0.0017845 0.00670103 0.00413165 0.0101613 0.00398874 -0.0119034 -0.0139515 -0.00736502 0.00981152 -0.0265126 -0.058971 -0.0777588 -0.0680056 -0.0433239 -0.00908823 0.00773916 0.0150289 -0.00203689 -0.0103714 -0.0328412 -0.0351811 -0.0508235 -0.0465423 -0.0594176 -0.050967 -0.027352 -0.00457014 0.00343746 0.00448848 0.00896907 0.00245418 0.0064308 0.00417538 -0.0205861 -0.0123171 0.00521104 0.00433473 -0.0174504 -0.066696 -0.0794875 -0.0554663 0.00409457 0.0513501 0.0160071 0.0111136 -0.00788383 -0.0385684 -0.0407672 -0.0380585 -0.0583614 -0.041858 -0.0393709 -0.0305324 -0.0200254 -0.00461818 0.00614476 0.00507974 0.00484536 0.00260934 0.00634558 0.00417212 -0.0198021 -0.00759289 0.01371 0.0157825 -0.0157391 -0.049469 -0.056431 -0.0209329 0.0561489 0.0759157 0.0252467 -0.0227355 -0.0270675 -0.0409546 -0.0196538 -0.0357711 -0.0280381 -0.0216703 -0.0284204 -0.0128947 -0.0122269 -0.00230574 0.00327279 0.00926604 0.00381443 0.00289709 0.00647581 0.0033382 -0.0203631 -0.011918 0.0126732 0.00464757 -0.00880404 -0.0114887 -0.0160969 0.00514627 0.0530395 0.0534769 -0.0147232 0.00213754 0.0307976 -0.000219653 -0.010978 -0.00635841 -0.00681939 -0.0163016 -0.0156011 -0.0113754 0.000782475 -0.00566197 0.00287792 0.00309278 0.00548238 0.00886784 0.00871658 0.0108406 -0.0114336 -0.00969647 -0.00209625 0.0150688 0.040355 0.0488773 -1.59783e-05 0.0169307 0.0295701 -0.00165753 0.00595164 0.0536217 0.0670772 0.00107908 -0.0187165 -0.000422406 -0.0255097 -0.01171 -0.0105212 -0.0114179 0.00507008 0.0114212 -0.00169984 0.00546392 0.00845965 0.00462743 0.0103596 0.0113401 0.00377436 0.0114239 0.0023964 0.0318463 0.0329791 0.0416526 0.0143192 -0.00704518 0.0145954 0.0297356 0.0237245 0.041538 0.0445171 0.0210496 0.0111719 0.0319665 -0.00666587 0.00821336 -0.00400245 0.0107593 0.0170981 0.0103477 0.0128298 0.00933926 0.0071134 0.00226374 0.00630939 0.00592128 0.000783403 0.0207821 0.0190788 0.0576089 0.0546281 0.0370006 -0.0150626 -0.00590227 0.027742 0.0263502 0.00180761 0.0261304 0.0268491 0.00815173 0.0421482 0.0216954 0.00342308 0.0257108 0.0196074 0.0174701 0.00728987 0.00538892 0.0101125 0.000781068 0.00804124 0.00896714 0.0082991 0.00692406 0.0133088 0.0169808 0.0248153 0.0420335 0.0769691 0.0276917 -0.00511472 -0.0141601 0.00682075 0.00526131 0.0280106 0.0244452 -0.00206712 -0.0332566 0.00812903 0.000691246 -0.00867273 0.0212363 0.00802639 0.00745021 0.00357035 -0.00176082 0.00853192 0.00707945 0.00608247 0.00556701 0.00466992 0.0147462 0.0248149 0.0161422 0.0118567 0.0346557 0.0171606 0.020528 -0.0282805 -0.0132748 0.0105318 0.0103549 0.0180387 0.0198452 -0.0294517 -0.0147503 -0.0024812 -0.00626216 0.00399747 0.00878119 -0.00972068 -0.000116237 0.00576003 0.00688055 0.00384282 0.00330036 0.00814433 0.00651425 0.00394532 0.0266915 0.033225 0.0189946 -0.00549513 0.0149408 0.0134101 -0.00897734 -0.0213562 -0.00857209 -0.0132441 -0.0218283 0.0106063 0.0181898 -0.00554218 -0.00430198 0.00829368 -0.00124347 0.0117706 0.0195726 -0.000793591 0.00454638 0.0139897 0.00701155 0.00347764 0.00217003 0.00257732 0.00784581 0.00637714 0.0127719 0.0160928 0.00614972 -0.001745 0.0233469 0.00694074 -0.0127023 -0.0248518 -0.0151936 -0.0492347 -0.0422611 -0.0223688 -0.00150148 0.00773304 0.0249451 0.0281755 -0.00933259 0.00971935 0.0237696 0.0103658 0.00428583 0.0048603 0.00572542 0.0023253 0.00732026 0.00103093 0.00350515 0.0063304 0.00605193 0.0133913 -0.00275807 -0.0179549 -0.000725133 -0.00933333 -0.0086656 -0.017411 -0.0340045 -0.0281855 -0.0111522 -0.0015527 -0.014956 -0.00138152 0.010007 -0.00351428 -0.0266192 0.00535054 0.0264575 0.0178779 0.00230724 -0.00170759 0.00695325 0.00905379 0.00896907 0.00628866 0.00536082 0.00411166 0.0107131 0.0122301 -0.00394308 -0.0137448 -0.00975688 -0.0216862 -0.0286242 -0.00921362 -0.0223505 -0.0179772 0.00321385 -0.00937522 -0.00985114 -0.0074089 -0.0206023 -0.0203699 0.00436794 0.0196714 0.0385887 0.0241888 -0.00646769 0.00421377 0.000772915 0.00107177 0.00989691 0.00340206 0.00979381 0.00674772 0.00269739 0.00876823 0.00177211 -0.00452738 -0.0239196 -0.0198369 -0.00771432 -0.0152324 -0.00866356 -0.0224981 -0.0320637 -0.0197388 -0.0138405 -0.0327816 -0.0232154 0.00296114 0.0150166 0.0242837 0.0155907 -0.00403641 -0.0043874 -0.00429444 0.00314767 0.00857237 0.00474227 0.00412371 0.000309278 0.00923162 0.00560961 0.00707434 0.00258302 0.000171551 -0.00417781 -0.00917045 -0.00986518 -0.00900603 -0.00525719 -0.0171054 -0.0299795 -0.0165687 -0.0276845 -0.0127663 -0.0153842 0.0106918 0.0206943 0.0188256 0.0202898 0.00297981 0.000128399 -0.00182545 0.00393882 0.00315982 0.00783505 0.00185567 0.00546392 0.00340206 0.00278516 0.00910532 0.00329819 0.00828719 0.00459897 -0.00168942 -0.0042586 0.00192595 0.000320054 -0.0120571 -0.0266623 -0.0182635 -0.0139203 -0.0251574 -0.0205941 -0.0167258 -0.0202551 -0.0077517 0.000866792 0.00600189 0.00435215 0.00556202 0.000563447 0.00842818 0.00185567 0.00185567 0.00907216 0.00494845 0.00185541 0.00550856 0.00661218 0.00287215 0.00158679 -0.00339626 0.00467512 -0.00340304 0.0039933 -0.0038381 -0.00677311 -0.000439975 -0.00230642 -0.00767671 -0.00997222 -0.00520607 -0.00382649 -0.00275398 -0.00186994 0.00257403 0.00193831 0.00892507 0.00876289 0.00195876 0.0043299 0.0028866 0.000824742 0.00979381 0.00886598 0.00164948 0.00658761 0.00514526 -0.00239371 0.000348327 0.00506176 0.000664081 0.000970279 -0.000905853 0.00214946 0.00135866 0.000448012 0.00407423 0.003822 -0.00126939 0.00364856 0.00365618 0.000200955 0.00667699 0.000780561 0.00845361 0.00958763 0.00649485 0.00608247 0.00608247 0.00670103 0.00206186 0.00814433 0.00835052 0.00752577 0.00783505 0.00886598 0.00505155 0.00206186 0.00340206 0.00391753 0.00336693 0.00656001 0.000927835 0.000103093 0.00927835 0.00865979 0.00608247 0.00360825 0.00773196 0.00113402 0.0014433 0.00618557 0.00453608 0.01 0.00587629 0.00865979 0.00195876 0.00195876 0.00762887 0.00216495 0 0.00639935 0.00449218 0.00694732 0.00809163 0.00916221 0.00197175 0.0102123 0.00195664 0.00897602 0.00322773 0.00251495 0.0108738 0.00960432 0.00364226 0.00373951 0.00845464 0.00515565 0.011882 0.00926269 0.00927835 0.00886598 0.00845361 0.00865979 0.00237113 0 0.00505155 0.00821313 0.00232389 0.0020661 0.00887555 0.0119616 0.00967801 0.00775322 -0.000923713 -0.000459975 -0.00490018 0.00288178 0.00435657 0.00454579 0.00463368 0.0135298 0.008192 0.0027292 0.0101607 0.00297927 0.00724274 0.00581898 0.00730006 0.00722329 0.00783505 0.00793814 0.00226804 0.00886598 0.00122319 0.00560249 0.00932231 0.000923266 0.00721356 0.00248176 0.000530884 0.000684605 -0.00609288 0.00468527 0.00939052 0.00779816 0.0385681 0.0413145 0.0222366 0.00180449 -0.00982349 -0.00105193 -0.00179884 0.00118555 0.00304336 0.00370369 0.00725581 0.00683793 0.00513364 0.0043299 0.00443299 0.00525773 0.00851171 0.0027216 0.00584553 0.00965896 0.0041256 0.00114455 -0.00336853 -0.0109244 -0.00431169 -0.0146128 0.0140291 0.0296941 0.0511259 0.0150773 -0.00347319 -0.0125839 -0.0136488 -0.0127741 -0.0082283 -0.00458494 -0.00888371 -4.69004e-05 -0.00210131 -0.0020883 0.0057211 0.000252478 0.00247423 0.00680412 0.00144901 -0.000129693 -0.000468347 0.00741908 -0.00187816 -0.0040485 -0.000233841 -0.00445704 -0.0138468 -0.0033052 0.0212495 0.0255056 0.031419 -0.00127668 -0.0148695 -0.032828 -0.029899 -0.0217862 -0.00678387 -0.0141109 -0.00424075 -0.00208285 -0.00490068 0.00673591 0.006432 0.00413895 0.00536082 0.00649472 0.00907784 0.00266757 -0.000411815 0.0100387 0.000612747 -0.00893414 -0.00334691 0.00343314 -0.0104301 0.0120222 0.0132768 0.00839938 0.00831135 -0.0185587 -0.038515 -0.0448651 -0.0516169 -0.034897 -0.0224706 -0.0189866 -0.00177891 0.0128188 0.0171981 0.011096 0.00562068 0.00209474 0.00484536 0.000612921 0.00272213 0.00357161 0.00720641 0.0095054 0.00317389 -0.00339465 0.00465072 0.00154802 0.00176896 0.0224188 -0.000379182 -0.00302581 -0.00770677 -0.0225019 -0.0390926 -0.0469531 -0.0533906 -0.0351371 -0.0231013 -0.018859 -0.00800074 0.00303841 0.017451 0.00870694 0.0045002 0.00896456 0.0014915 0.00411957 0.00340393 0.00549142 0.0029411 0.00807058 -0.00433342 -0.00906352 -0.00745044 0.00158453 -0.0018141 0.0165451 0.0091319 0.0062965 -0.00082825 -0.0181182 -0.031425 -0.0505015 -0.0514692 -0.0337942 -0.0179498 -0.0243679 -0.0168885 0.00462574 0.0155861 0.00580748 0.0113539 0.00550917 0.00886598 0.00609345 0.00614569 0.00913038 0.00544581 -0.000905582 -0.0130636 -0.00809062 -0.0062705 -0.00683104 -0.00292883 0.0184569 0.033731 0.0123199 0.0077354 -0.0294601 -0.0308615 -0.0153295 -0.0148745 -0.00216567 -0.00655019 -0.017774 -0.00751424 0.000739132 0.00496732 0.00840326 -0.000327035 0.00498828 0.00649485 0.00304398 0.0038177 0.00408285 0.00177739 -0.00758021 -0.00786521 -0.0094835 -0.00526511 -0.0105856 0.000372555 0.0262317 0.0257189 0.0137592 -0.0208653 -0.0235258 -0.0171613 0.00432846 0.0262333 0.0188318 0.0111726 -0.000261657 -0.00620373 -0.000962169 0.0029839 0.00312933 -0.00203583 -0.000579653 0.00865979 0.00163113 0.0017334 0.000256209 -0.00390578 -0.00684084 -0.0104789 -0.022086 0.00333443 0.0110886 -0.00709146 0.0173354 0.000557387 -0.0178647 -0.0169742 -0.00422531 -0.00123047 0.0124373 0.0341202 0.0362589 0.00848917 0.00106302 0.000424885 0.00192388 -0.000391222 -0.0029617 -0.000403583 0.0070331 0.00103093 0.00935883 0.00276695 -0.0047321 -0.00761555 -0.0195129 -0.0152238 -0.0255006 0.0107133 0.0115887 0.0153031 0.00916187 0.00768861 -0.0065421 -0.00464325 0.00365507 0.00579524 0.00610295 -0.00330813 -0.00184178 -0.00501998 0.0191615 0.0245584 0.00716689 0.000898915 -0.00413425 -0.00220731 0.00506437 0.00597938 0.00804013 0.00775461 -0.00164435 -0.00479633 -0.0210426 -0.0186239 -0.0194551 0.0215886 0.0107417 -0.00833486 -0.00500657 0.00332544 -0.000903316 0.0117505 0.0132135 0.00515076 -0.0122956 -0.0100174 -0.00651339 -0.00682105 0.017156 0.0262898 0.0230818 0.00390955 -0.00151515 -0.00113028 0.00824742 0.0037183 0.00670027 0.0030029 0.00547455 -0.0053861 -0.0146567 -0.0200696 -0.0121492 0.0267424 0.0177421 0.0022307 -0.00140689 0.00441369 0.00331212 0.00806613 0.00953144 0.00644846 0.00152888 0.0028093 -0.00861136 -0.0130909 0.00930172 0.0286025 0.0155595 -0.00449242 0.0105628 0.00360975 0.00804124 0.00309506 0.00927078 0.00118247 0.00267076 0.00502393 -0.0161531 -0.0313773 -0.0153453 0.0254861 0.0081957 -0.0126157 0.0049026 -0.01133 -0.00609834 0.0123912 -8.40921e-05 -0.00952982 0.00494248 0.0110002 0.00949561 -0.0122127 -0.00712901 0.0124199 0.0189388 0.00498224 0.0167061 -0.00149512 0.00936572 0.00164948 0.000719116 0.000762605 0.00754796 0.00684406 -0.00382871 -0.0162942 -0.00763486 0.029985 0.0201223 0.00610702 0.0204678 -0.0119046 -0.00613021 0.0118932 0.0018054 -0.0142235 -0.000681139 -0.00122215 0.00566183 -0.0231516 -0.00371939 0.00646385 0.0176804 0.0183422 0.0173871 0.000245534 0.00199793 0.00824742 0.00628746 0.0101896 0.00498244 0.00846449 -0.0035196 -0.0145462 -0.00548432 0.00983881 0.00275884 -0.00956543 -0.00182074 -0.012298 -0.00482768 0.00761321 -0.00255198 -0.0130753 -0.00529888 -0.0120819 -0.0307242 -0.0279098 0.00243667 0.0078282 0.0145866 0.00885553 0.0039803 0.00029409 0.00312028 0.00742268 0.00835052 0.00811324 0.00277848 0.0102127 0.003935 -0.00854754 -0.00708141 -0.00663669 0.00573656 0.00205743 -0.000795872 0.00527772 0.00432244 0.0100591 -0.016464 -0.017972 -0.0108658 -0.0277727 -0.0522701 -0.0299299 -0.00216163 -0.00341288 0.024035 0.0170519 0.0102007 -0.000602752 0.00988633 0.000721649 0.00586302 0.000464306 0.00253965 0.0042982 0.00620812 0.00241452 6.67831e-05 0.0014738 0.00905862 0.0151752 0.0451352 0.00589845 0.00361993 -0.00155767 -0.0274014 -0.0320168 -0.020674 -0.0336873 -0.0375344 -0.016752 0.00496023 0.0126841 0.0211025 0.00947584 0.00764364 0.00442826 0.00371631 0.000206186 0.0014135 0.00595332 0.0069902 0.00553571 0.00187243 0.00544591 0.00337729 -0.00669834 0.000332659 0.0162546 0.0160561 0.0107992 0.00104499 0.0198338 -0.00408837 -0.00977833 -0.0200465 -0.0196884 -0.0193882 0.00366649 0.0182207 0.00626281 0.00976451 0.00316976 -0.000604695 0.00242757 0.00927946 0.0102062 0.00670103 0.00367082 0.00721517 0.0109462 -0.00323745 0.00618347 0.00068373 0.00868658 -0.00437647 0.00662062 0.0152343 0.0130679 0.0158181 0.0343469 0.0147725 -0.0128628 -0.00630628 0.00296266 0.0189401 0.0272466 0.00848519 0.00303325 -0.00240981 -0.00365365 -0.00139549 0.00532222 0.00721649 0.0043299 0.00175258 0.00749803 0.00729804 0.00759038 0.00115166 -0.0028023 0.00837699 0.00660186 0.00624731 0.00360401 -0.0147811 0.00424931 0.00028162 0.00266391 -0.00097092 -0.00562016 -0.00360689 0.00371478 0.0246604 0.00831743 -0.00609168 0.00258624 -0.00706065 -0.00590299 -0.00352603 0.00153232 0.00515464 0.00226804 0.00309278 0.00571594 0.00773659 0.0104064 -0.00143274 0.00582491 0.00644153 0.00879637 -0.00607678 -0.00767916 -0.0082959 -0.0167796 -0.0306229 -0.0264098 -0.0221562 -0.0171731 -0.00606399 0.00295029 0.00570119 0.00298615 -0.00259983 0.00404753 -0.00119712 -0.00473565 -0.00262009 0.00412891 0.00876289 0.00597938 0.00958763 0.0025172 0.00218932 0.00217926 -0.00134587 -0.000646999 0.00435546 -0.00442271 -0.00126743 -0.0104757 -0.00184989 -0.00385927 -0.0186879 -0.0137074 -0.0145589 -0.0100511 -0.0044683 -0.00394767 0.00291981 -0.00172185 0.00599221 0.00595161 0.0121814 0.00651221 0.00173145 0.00959704 0.000103093 0.00226804 0.00309278 0.00783505 0.000998792 0.00399979 0.00386312 0.0080339 0.0153189 0.00447108 0.00633455 0.00810169 0.00487769 -0.00340391 -0.00741894 -0.0126189 -0.00776993 -0.00406267 -0.00442078 0.00261865 -0.00372763 -0.00807904 0.00836727 0.0106977 0.00644021 0.00776898 0.00475063 0.0057832 0.00628866 0.00752577 0.00639175 0.0057732 0.00185509 0.0085975 0.000685701 0.00910426 0.00330069 0.00550794 -0.00432397 0.00158293 0.00424607 -0.00203328 0.000319514 -0.00701444 -0.00212036 0.00417113 -9.67342e-05 0.00253054 0.000506848 0.00614568 -0.00296053 0.00319577 0.00296172 0.00142007 0.000309278 0.0028866 0.00463918 0.00608247 0.0057732 0.0042268 0.00979381 0.00319588 0.00112656 0.0027201 0.0105556 0.00615699 0.00343663 0.0072037 0.00110912 0.00282729 0.00111052 0.000854634 0.0064232 0.00113056 0.00691736 0.00177322 0.00865693 0.00143931 0.00348374 0.00213381 0.00968942 0.00896907 0.00391753 0.00175258 0.00845361 0.000927835 0.00886598 0.00536082 0.00587629 0.00216495 0.01 0.00896907 0.00639175 0.00206186 0.00639175 0.00298969 0.00164948 0.00402579 0.00681544 0.00164948 0.000618557 0.00907216 0.00927835 0.00835052 0.00917526 0.0043299 0.00865979 0.00154639 0.00443299 0.00886598 0.000927835 0.00876289 0.00731959 0.000721649 0.00515464 0.00907216 0.00298969 0.00206186 0.00474344 0.00755138 0.00705337 0.00258407 0.00697495 0.00218418 -0.00100339 0.0060163 0.00106724 0.00381132 0.00482862 0.00279006 0.00696598 0.000653737 0.000992181 0.0069434 0.00320925 0.008058 0.0100067 0.00618557 0.00907216 0.00185567 0.000721649 0.00762887 0.00103093 0.00536082 0.010105 0.00742335 0.00897334 0.00558353 0.0029766 0.00443257 0.00337009 0.00237894 -0.00257552 -0.00161771 -0.00331014 -0.000675103 0.0055935 -6.55258e-05 0.00330906 0.00462219 0.00769355 0.00247517 0.00995034 0.00495755 0.00657439 0.00566995 0.00174949 0.00628866 0.00494845 0.00206186 0.0056701 0.00995451 0.0056959 0.00813973 0.0089642 0.00912793 0.000295813 0.00434528 0.00537315 -0.00151417 0.00335888 0.00113608 -0.00321457 -0.00378727 -0.0109668 -0.00706541 0.00421374 -0.00666887 0.00164592 0.00729682 0.00248843 0.00672408 0.00346044 0.00298391 0.00380638 0.00337313 0.00804124 0 0.00659794 0.00112539 0.00273502 0.00978045 0.0043379 0.0077905 0.0105669 0.0113465 0.0110585 0.0121203 -0.00223819 0.0035013 0.00928988 0.00133611 -0.0180689 -0.0170277 -0.0281469 -0.0211263 0.00630634 0.0158382 0.0154079 0.00784479 0.00350579 -0.00119635 0.0053478 0.00795463 0.00936565 0.00474227 0.0042268 0.00994141 0.00889227 0.00480385 0.00416809 0.0106279 0.0116015 0.00754261 0.00891165 -0.0131204 -0.0111911 0.00222317 0.00423928 0.0194994 -0.0173299 -0.00366144 0.00924868 -0.0010527 0.019162 0.00218636 0.00305166 -0.0151563 -0.00953501 -0.00372942 0.00652151 0.00726105 0.00234782 0.00896907 0.00515536 0.00815083 0.00781062 0.00364338 0.0130697 0.00805591 0.00458 0.0139967 0.0130054 0.00873972 0.0053114 0.0167422 0.035488 0.0139934 0.00947605 0.0033927 0.0188233 0.000922199 0.0015253 -0.0154966 -0.00802471 -0.0113445 -0.00521231 -0.0005258 0.00205816 0.00672666 0.00848242 0.00948454 0.00282142 0.00810813 0.00543579 0.011339 -8.85872e-05 0.00994716 -0.00250331 -0.0128521 0.0220086 0.0188912 -0.0076513 0.0109514 0.00462703 -0.0337114 -0.0113636 -0.00411478 -0.000653647 -0.0066753 -0.0240844 -0.0101409 -0.00555607 -0.000921785 0.0102686 0.010416 0.00377346 0.011123 0.00153618 0.00580198 0.00760164 0.00581342 0.00796873 0.0112533 0.000451707 0.00651659 -0.00636693 -0.0131715 0.00699747 0.00769978 -0.000658532 -0.00443728 -0.0127927 -0.0510895 -0.0282894 -0.00961052 -0.00109516 0.00319177 0.00503493 -0.0120674 -0.00794063 -0.00244597 -0.00325795 0.00503929 0.000842651 0.00447824 0.00351452 0.00597938 0.00906561 0.000837849 0.00898735 0.0146073 0.00315422 -0.00155138 -0.011557 -0.0275429 -0.00835106 -0.00146678 -0.0253874 -0.00225366 -0.0114635 -0.0210267 -0.0154713 -0.0214623 0.00445205 0.0190601 0.0252769 0.00731828 -0.00706393 -0.00811147 0.00250975 0.000721462 0.00346799 0.00279914 -0.00463784 0.000412371 0.00858598 0.00544504 -0.000321518 0.0100742 0.00560619 0.00631598 -0.0114383 -0.00235671 0.00482762 0.00729425 -0.0219689 0.0108414 0.00780461 0.0308793 -0.00660955 -0.0124668 0.00437583 0.0263979 0.0140777 0.0111663 0.00225081 0.0132944 -0.00173418 -0.00885452 -0.00976825 0.00340323 0.00375284 0.00649485 0.0054612 0.00736917 0.00468645 0.00577355 0.00249283 -0.00512362 0.00169151 0.018762 0.00826183 -0.0202671 -0.0264129 -0.014801 0.05007 0.059581 -0.0154122 -0.0348285 0.000535214 0.00787529 0.00695227 0.0121133 -0.0118769 0.00381972 -0.00386581 -0.00507471 0.00340488 0.0024031 0.00717922 0.00690722 0.00918961 0.0105542 0.00668983 0.0118055 0.00844436 -0.00695339 0.00297074 0.0189275 0.000530866 -0.0326013 -0.03871 -0.0298365 0.0681761 0.0528374 -0.00781102 0.000652076 0.00790307 -0.00487201 -0.0158337 -0.0124232 -0.014103 -0.00685037 -0.00107518 0.00172167 0.00618811 0.00644251 0.00264647 0.00391753 0.00541742 0.0101949 0.00487379 0.00705041 -0.00956242 -0.0074473 -0.0106425 0.00550238 -0.00928144 -0.0486192 -0.0380534 -0.0269744 0.052789 0.0454821 0.0218081 0.00383229 -0.0375287 -0.0174503 -0.0245233 